-4 -4 2.26862815919662
-4 -3.9 20.255556860225
-4 -3.8 20.0946228824684
-4 -3.7 19.8999103337681
-4 -3.6 19.6648159391329
-4 -3.5 19.3816792249625
-4 -3.4 19.0417280229461
-4 -3.3 18.6350855088322
-4 -3.2 18.1508778639415
-4 -3.1 17.577495471477
-4 -3 16.9030754888317
-4 -2.9 16.1162867854768
-4 -2.8 15.207504117517
-4 -2.7 14.1704480447285
-4 -2.6 13.0043277258882
-4 -2.5 11.7164402461787
-4 -2.4 10.3250398216438
-4 -2.3 8.86209232909486
-4 -2.2 7.37530049820965
-4 -2.1 5.92858849084347
-4 -2 4.60018046089693
-4 -1.9 3.47762365282194
-4 -1.8 2.64967612432309
-4 -1.7 2.19585466289457
-4 -1.6 2.1753820258259
-4 -1.5 2.61789611562445
-4 -1.4 3.51821886008865
-4 -1.3 4.83661009417421
-4 -1.2 6.504510865809
-4 -1.1 8.43435420371084
-4 -0.999999999999997 10.5311332793739
-4 -0.899999999999997 12.7033310049073
-4 -0.799999999999997 14.8714224414953
-4 -0.699999999999998 16.9731052357218
-4 -0.599999999999998 18.9653099004826
-4 -0.499999999999998 20.8236460631229
-4 -0.399999999999998 22.5401897064368
-4 -0.299999999999998 24.1204770867284
-4 -0.199999999999998 25.5803608163031
-4 -0.0999999999999976 26.9431118909537
-4 2.41473507855972E-15 28.2368971367262
-4 0.100000000000002 29.4925745751614
-4 0.200000000000002 30.7416570625269
-4 0.300000000000002 32.0143032553583
-4 0.400000000000002 33.3372859188945
-4 0.500000000000002 34.7320189002492
-4 0.600000000000002 36.2128417683987
-4 0.700000000000002 37.7858180234387
-4 0.800000000000002 39.4482757974844
-4 0.900000000000002 41.1892168782356
-4 1 42.9905733542425
-4 1.1 44.8291447564211
-4 1.2 46.6789417755383
-4 1.3 48.5136197638241
-4 1.4 50.3087091688092
-4 1.5 52.0434222972117
-4 1.6 53.7019047300651
-4 1.7 55.2738759412436
-4 1.8 56.7546549730397
-4 1.9 58.1446024691675
-4 2 59.4480503034228
-4 2.1 60.6718485942193
-4 2.2 61.8237315648823
-4 2.3 62.910762211342
-4 2.4 63.9381261134017
-4 2.5 64.9084833414925
-4 2.6 65.8219596033684
-4 2.7 66.6767015608453
-4 2.8 67.4697917144835
-4 2.9 68.1982600855822
-4 3 68.859955331456
-4 3.1 69.4541240576654
-4 3.2 69.981652476136
-4 3.3 70.4450115031345
-4 3.4 70.8479953186906
-4 3.5 71.1953542011223
-4 3.6 71.4924069393691
-4 3.7 71.7446909358679
-4 3.8 71.9576806226439
-4 3.9 72.1365832075402
-3.9 -4 35.5947129459879
-3.9 -3.9 21.0114684271671
-3.9 -3.8 21.0166942652482
-3.9 -3.7 21.0241738330946
-3.9 -3.6 21.0347914691755
-3.9 -3.5 21.0497209776636
-3.9 -3.4 21.0704853783013
-3.9 -3.3 21.0990093358504
-3.9 -3.2 21.1376523678903
-3.9 -3.1 21.1892089432643
-3.9 -3 21.2568627656821
-3.9 -2.9 21.3440881852526
-3.9 -2.8 21.4545013732726
-3.9 -2.7 21.5916745097561
-3.9 -2.6 21.7589325287877
-3.9 -2.5 21.9591495387785
-3.9 -2.4 22.1945514841347
-3.9 -2.3 22.466520498092
-3.9 -2.2 22.7753956197104
-3.9 -2.1 23.1202799720455
-3.9 -2 23.4988899170617
-3.9 -1.9 23.9075002785939
-3.9 -1.8 24.3410347469843
-3.9 -1.7 24.7933179382568
-3.9 -1.6 25.2574580464301
-3.9 -1.5 25.726288985764
-3.9 -1.4 26.1927872574529
-3.9 -1.3 26.6503968265067
-3.9 -1.2 27.0932349969886
-3.9 -1.1 27.516194180671
-3.9 -0.999999999999997 27.9149799371436
-3.9 -0.899999999999997 28.2861262452139
-3.9 -0.799999999999997 28.6270097967471
-3.9 -0.699999999999998 28.9358604839977
-3.9 -0.599999999999998 29.2117492950901
-3.9 -0.499999999999998 29.4545337710685
-3.9 -0.399999999999998 29.6647519482978
-3.9 -0.299999999999998 29.8434702423696
-3.9 -0.199999999999998 29.9921016573808
-3.9 -0.0999999999999976 30.1122146676514
-3.9 2.41473507855972E-15 30.2053507605595
-3.9 0.100000000000002 30.2728627014917
-3.9 0.200000000000002 30.3157789765873
-3.9 0.300000000000002 30.334694527393
-3.9 0.400000000000002 30.3296846205003
-3.9 0.500000000000002 30.3002374807899
-3.9 0.600000000000002 30.2452017415046
-3.9 0.700000000000002 30.1627463151676
-3.9 0.800000000000002 30.050332508561
-3.9 0.900000000000002 29.9047007167894
-3.9 1 29.721876505112
-3.9 1.1 29.4972029966252
-3.9 1.2 29.2254079242871
-3.9 1.3 28.9007143299613
-3.9 1.4 28.5170040102225
-3.9 1.5 28.0680436081446
-3.9 1.6 27.5477871264914
-3.9 1.7 26.9507789099412
-3.9 1.8 26.2727004678031
-3.9 1.9 25.5111315286388
-3.9 2 24.6666206221381
-3.9 2.1 23.7441619860375
-3.9 2.2 22.7551233789756
-3.9 2.3 21.7195353289032
-3.9 2.4 20.6684300288752
-3.9 2.5 19.6456440891977
-3.9 2.6 18.70826501532
-3.9 2.7 17.9248415353532
-3.9 2.8 17.3707270069046
-3.9 2.9 17.1205416227654
-3.9 3 17.2386268545064
-3.9 3.1 17.7692450172832
-3.9 3.2 18.7287622672683
-3.9 3.3 20.1018376103302
-3.9 3.4 21.8426961638246
-3.9 3.5 23.8812149055415
-3.9 3.6 26.1323234511908
-3.9 3.7 28.5065761737962
-3.9 3.8 30.9198366148176
-3.9 3.9 33.3006501747864
-3.8 -4 37.5323536787325
-3.8 -3.9 21.0087825015685
-3.8 -3.8 21.0128254199677
-3.8 -3.7 21.0186376414344
-3.8 -3.6 21.0269304408118
-3.8 -3.5 21.0386588633951
-3.8 -3.4 21.0550788225132
-3.8 -3.3 21.0778021729725
-3.8 -3.2 21.1088401434725
-3.8 -3.1 21.1506226913791
-3.8 -3 21.2059807043167
-3.8 -2.9 21.278081211607
-3.8 -2.8 21.3703136246702
-3.8 -2.7 21.486135936821
-3.8 -2.6 21.6288993182744
-3.8 -2.5 21.8016717631288
-3.8 -2.4 22.0070729732733
-3.8 -2.3 22.2471168012219
-3.8 -2.2 22.5230449303766
-3.8 -2.1 22.835138254858
-3.8 -2 23.1825148534632
-3.8 -1.9 23.5629556662893
-3.8 -1.8 23.972820877148
-3.8 -1.7 24.4071139989578
-3.8 -1.6 24.8597143113583
-3.8 -1.5 25.3237471015607
-3.8 -1.4 25.7920194690688
-3.8 -1.3 26.2574363783691
-3.8 -1.2 26.713331116045
-3.8 -1.1 27.1536843087747
-3.8 -0.999999999999997 27.5732456572789
-3.8 -0.899999999999997 27.9675946484915
-3.8 -0.799999999999997 28.3331744408783
-3.8 -0.699999999999998 28.6673140800002
-3.8 -0.599999999999998 28.9682328077659
-3.8 -0.499999999999998 29.2350089308325
-3.8 -0.399999999999998 29.4674983580931
-3.8 -0.299999999999998 29.6661999295889
-3.8 -0.199999999999998 29.832078019427
-3.8 -0.0999999999999976 29.9663613864325
-3.8 2.41473507855972E-15 30.0703388215907
-3.8 0.100000000000002 30.145168256476
-3.8 0.200000000000002 30.1917095856203
-3.8 0.300000000000002 30.2103851825432
-3.8 0.400000000000002 30.2010675472815
-3.8 0.500000000000002 30.1629912344858
-3.8 0.600000000000002 30.0946859937099
-3.8 0.700000000000002 29.9939294103433
-3.8 0.800000000000002 29.857719705412
-3.8 0.900000000000002 29.6822722105787
-3.8 1 29.4630459018872
-3.8 1.1 29.1948088154163
-3.8 1.2 28.8717528555731
-3.8 1.3 28.4876694431038
-3.8 1.4 28.0361983297849
-3.8 1.5 27.5111645032602
-3.8 1.6 26.907025265266
-3.8 1.7 26.2194641326304
-3.8 1.8 25.4461902202114
-3.8 1.9 24.5880240838163
-3.8 2 23.6503553622457
-3.8 2.1 22.6450150275698
-3.8 2.2 21.5924853265536
-3.8 2.3 20.5241612074487
-3.8 2.4 19.4841075961217
-3.8 2.5 18.5295143324638
-3.8 2.6 17.728971343387
-3.8 2.7 17.157912349464
-3.8 2.8 16.891174912643
-3.8 2.9 16.9935104073486
-3.8 3 17.5097724446538
-3.8 3.1 18.4570244345808
-3.8 3.2 19.8206162929272
-3.8 3.3 21.555346589662
-3.8 3.4 23.5914681695409
-3.8 3.5 25.8440495516699
-3.8 3.6 28.2235399966106
-3.8 3.7 30.645464635148
-3.8 3.8 33.0378171884459
-3.8 3.9 35.3455598333931
-3.7 -4 39.3509383322724
-3.7 -3.9 21.0067156153091
-3.7 -3.8 21.0098398155123
-3.7 -3.7 21.0143503279774
-3.7 -3.6 21.020816921547
-3.7 -3.5 21.0300127782272
-3.7 -3.4 21.0429672893946
-3.7 -3.3 21.0610206040191
-3.7 -3.2 21.0858725244924
-3.7 -3.1 21.1196151553059
-3.7 -3 21.164736748483
-3.7 -2.9 21.2240851922169
-3.7 -2.8 21.3007850441549
-3.7 -2.7 21.3981118728295
-3.7 -2.6 21.5193390809017
-3.7 -2.5 21.6675796633897
-3.7 -2.4 21.8456424912741
-3.7 -2.3 22.0559079903068
-3.7 -2.2 22.3002079035075
-3.7 -2.1 22.579681511618
-3.7 -2 22.8945887705856
-3.7 -1.9 23.2440909283422
-3.7 -1.8 23.6260475119857
-3.7 -1.7 24.0369023220715
-3.7 -1.6 24.4717226724987
-3.7 -1.5 24.9244154144723
-3.7 -1.4 25.3880885549527
-3.7 -1.3 25.8554844767793
-3.7 -1.2 26.3193987124421
-3.7 -1.1 26.7730191352751
-3.7 -0.999999999999997 27.2101603842365
-3.7 -0.899999999999997 27.6254061077927
-3.7 -0.799999999999997 28.0141904774419
-3.7 -0.699999999999998 28.3728463936767
-3.7 -0.599999999999998 28.6986297854551
-3.7 -0.499999999999998 28.9897117668328
-3.7 -0.399999999999998 29.2451236397647
-3.7 -0.299999999999998 29.4646454252149
-3.7 -0.199999999999998 29.6486411086715
-3.7 -0.0999999999999976 29.797855511381
-3.7 2.41473507855972E-15 29.9131937068172
-3.7 0.100000000000002 29.9955033606557
-3.7 0.200000000000002 30.0453753694359
-3.7 0.300000000000002 30.0629716842433
-3.7 0.400000000000002 30.0478836104533
-3.7 0.500000000000002 29.9990204182484
-3.7 0.600000000000002 29.9145270325228
-3.7 0.700000000000002 29.7917305397562
-3.7 0.800000000000002 29.6271176364019
-3.7 0.900000000000002 29.4163482704568
-3.7 1 29.154313945427
-3.7 1.1 28.8352519100259
-3.7 1.2 28.4529284382706
-3.7 1.3 28.0009058399929
-3.7 1.4 27.47290987043
-3.7 1.5 26.8633190464815
-3.7 1.6 26.1678076718988
-3.7 1.7 25.3841909961968
-3.7 1.8 24.5135390009281
-3.7 1.9 23.5616297785481
-3.7 2 22.5407779537456
-3.7 2.1 21.4719673791088
-3.7 2.2 20.3870234357877
-3.7 2.3 19.330300668226
-3.7 2.4 18.3591167920081
-3.7 2.5 17.5420694182497
-3.7 2.6 16.9545739341838
-3.7 2.7 16.6715383928438
-3.7 2.8 16.7579664387699
-3.7 2.9 17.2591807950198
-3.7 3 18.1928938238576
-3.7 3.1 19.5451885346067
-3.7 3.2 21.2715597775941
-3.7 3.3 23.3028102838272
-3.7 3.4 25.5543372807695
-3.7 3.5 27.9366615758673
-3.7 3.6 30.3651163195429
-3.7 3.7 32.7672526724607
-3.7 3.8 35.0873687440372
-3.7 3.9 37.2882887376381
-3.6 -4 41.0477713553948
-3.6 -3.9 21.0051208742921
-3.6 -3.8 21.0075311157392
-3.6 -3.7 21.0110253743835
-3.6 -3.6 21.0160583482181
-3.6 -3.5 21.023253102886
-3.6 -3.4 21.0334486731559
-3.6 -3.3 21.0477519423116
-3.6 -3.2 21.0675884103161
-3.6 -3.1 21.0947432741585
-3.6 -3 21.1313814858164
-3.6 -2.9 21.1800346381801
-3.6 -2.8 21.2435454427524
-3.6 -2.7 21.3249682898376
-3.6 -2.6 21.4274358677504
-3.6 -2.5 21.5540128272774
-3.6 -2.4 21.70756137464
-3.6 -2.3 21.8906349324586
-3.6 -2.2 22.1053952538497
-3.6 -2.1 22.3535252641946
-3.6 -2 22.6360998700413
-3.6 -1.9 22.9533918052567
-3.6 -1.8 23.3046275252733
-3.6 -1.7 23.6877515436471
-3.6 -1.6 24.0992816632887
-3.6 -1.5 24.5343255996005
-3.6 -1.4 24.9867840798732
-3.6 -1.3 25.4497075722472
-3.6 -1.2 25.915730445838
-3.6 -1.1 26.3774956665879
-3.6 -0.999999999999997 26.8280053812789
-3.6 -0.899999999999997 27.2608722656671
-3.6 -0.799999999999997 27.6704818238169
-3.6 -0.699999999999998 28.052091739322
-3.6 -0.599999999999998 28.4018891753955
-3.6 -0.499999999999998 28.7170107487912
-3.6 -0.399999999999998 28.9955163845678
-3.6 -0.299999999999998 29.236305711789
-3.6 -0.199999999999998 29.4389736966648
-3.6 -0.0999999999999976 29.603614536757
-3.6 2.41473507855972E-15 29.7305926218329
-3.6 0.100000000000002 29.8203030025067
-3.6 0.200000000000002 29.8729415435757
-3.6 0.300000000000002 29.8882993153313
-3.6 0.400000000000002 29.8655896882059
-3.6 0.500000000000002 29.8033120867288
-3.6 0.600000000000002 29.6991543100296
-3.6 0.700000000000002 29.5499356967291
-3.6 0.800000000000002 29.3515956222245
-3.6 0.900000000000002 29.099235060492
-3.6 1 28.7872223960787
-3.6 1.1 28.4093776704139
-3.6 1.2 27.9592517342467
-3.6 1.3 27.4305188465167
-3.6 1.4 26.8175045961391
-3.6 1.5 26.1158777801718
-3.6 1.6 25.3235462373171
-3.6 1.7 24.4418094189093
-3.6 1.8 23.4768226947814
-3.6 1.9 22.4413969020098
-3.6 2 21.3570619362204
-3.6 2.1 20.2561453988471
-3.6 2.2 19.1833715937506
-3.6 2.3 18.196245431539
-3.6 2.4 17.3633811069472
-3.6 2.5 16.7601160762322
-3.6 2.6 16.4613036961395
-3.6 2.7 16.5320356346139
-3.6 2.8 17.0179441308875
-3.6 2.9 17.9372822784527
-3.6 3 19.2768425889952
-3.6 3.1 20.9928857356559
-3.6 3.2 23.0169101139762
-3.6 3.3 25.2648309437409
-3.6 3.4 27.6474384294993
-3.6 3.5 30.0800531783484
-3.6 3.6 32.4899287911177
-3.6 3.7 34.8208022748794
-3.6 3.8 37.0347189290219
-3.6 3.9 39.1116794536931
-3.5 -4 42.631541010384
-3.5 -3.9 21.0038857997159
-3.5 -3.8 21.0057405163476
-3.5 -3.7 21.0084409099772
-3.5 -3.6 21.012348530854
-3.5 -3.5 21.0179632749068
-3.5 -3.4 21.0259654367486
-3.5 -3.3 21.0372635685957
-3.5 -3.2 21.053044492723
-3.5 -3.1 21.0748188941567
-3.5 -3 21.1044528395762
-3.5 -2.9 21.144173484383
-3.5 -2.8 21.1965378592623
-3.5 -2.7 21.2643586706533
-3.5 -2.6 21.3505909680075
-3.5 -2.5 21.4581960649162
-3.5 -2.4 21.5900086648982
-3.5 -2.3 21.7486325447528
-3.5 -2.2 21.9363750293886
-3.5 -2.1 22.1552043638497
-3.5 -2 22.4066897504009
-3.5 -1.9 22.69187796031
-3.5 -1.8 23.0110830491241
-3.5 -1.7 23.3636111607383
-3.5 -1.6 23.7474895044504
-3.5 -1.5 24.1592914629515
-3.5 -1.4 24.5941333656317
-3.5 -1.3 25.0458682423443
-3.5 -1.2 25.5074412039568
-3.5 -1.1 25.971327738117
-3.5 -0.999999999999997 26.4299670879119
-3.5 -0.899999999999997 26.8761262563846
-3.5 -0.799999999999997 27.3031688953039
-3.5 -0.699999999999998 27.7052360831408
-3.5 -0.599999999999998 28.0773594065334
-3.5 -0.499999999999998 28.415521228938
-3.5 -0.399999999999998 28.7166634581785
-3.5 -0.299999999999998 28.9786369224381
-3.5 -0.199999999999998 29.2000847270023
-3.5 -0.0999999999999976 29.3802626474341
-3.5 2.41473507855972E-15 29.5188112308089
-3.5 0.100000000000002 29.6155019983577
-3.5 0.200000000000002 29.6699816983793
-3.5 0.300000000000002 29.6815351082314
-3.5 0.400000000000002 29.6488812411355
-3.5 0.500000000000002 29.5700126683593
-3.5 0.600000000000002 29.4420846557196
-3.5 0.700000000000002 29.2613603974775
-3.5 0.800000000000002 29.0232204088728
-3.5 0.900000000000002 28.7222472455673
-3.5 1 28.3524001794616
-3.5 1.1 27.9072975185847
-3.5 1.2 27.3806267237723
-3.5 1.3 26.7667050195867
-3.5 1.4 26.0612172538805
-3.5 1.5 25.2621643802171
-3.5 1.6 24.371063011442
-3.5 1.7 23.3944346602853
-3.5 1.8 22.3455929179044
-3.5 1.9 21.2466508653841
-3.5 2 20.1305085793306
-3.5 2.1 19.0423512839786
-3.5 2.2 18.0399573546543
-3.5 2.3 17.1920068539093
-3.5 2.4 16.5737446038144
-3.5 2.5 16.2598800781626
-3.5 2.6 16.3154422210288
-3.5 2.7 16.7861958212099
-3.5 2.8 17.6907795133397
-3.5 2.9 19.0166068609553
-3.5 3 20.7207092479311
-3.5 3.1 22.7353792450339
-3.5 3.2 24.9772191260677
-3.5 3.3 27.3574929850842
-3.5 3.4 29.7917143928188
-3.5 3.5 32.2070201315582
-3.5 3.6 34.5467263752551
-3.5 3.7 36.7721913306616
-3.5 3.8 38.8625313574142
-3.5 3.9 40.8128494482858
-3.4 -4 44.1192125786776
-3.4 -3.9 21.0029240821952
-3.4 -3.8 21.0043456297321
-3.4 -3.7 21.0064250280513
-3.4 -3.6 21.0094487106152
-3.4 -3.5 21.013816026157
-3.4 -3.4 21.0200757635327
-3.4 -3.3 21.0289692428992
-3.4 -3.2 21.0414777411945
-3.4 -3.1 21.0588695202481
-3.4 -3 21.0827386929206
-3.4 -2.9 21.1150253672245
-3.4 -2.8 21.1580053698568
-3.4 -2.7 21.2142402150846
-3.4 -2.6 21.2864852956841
-3.4 -2.5 21.3775661386078
-3.4 -2.4 21.4902453832032
-3.4 -2.3 21.6271101190218
-3.4 -2.2 21.7905031530605
-3.4 -2.1 21.9825001664276
-3.4 -2 22.2049043104979
-3.4 -1.9 22.4592061272388
-3.4 -1.8 22.7464566986484
-3.4 -1.7 23.067032909377
-3.4 -1.6 23.4203259167475
-3.4 -1.5 23.8044332347013
-3.4 -1.4 24.2159551685346
-3.4 -1.3 24.6499748136791
-3.4 -1.2 25.1002459453575
-3.4 -1.1 25.5595502661399
-3.4 -0.999999999999997 26.0201425930137
-3.4 -0.899999999999997 26.4741951133784
-3.4 -0.799999999999997 26.9141760548642
-3.4 -0.699999999999998 27.3331356849463
-3.4 -0.599999999999998 27.7249027808666
-3.4 -0.499999999999998 28.0842062119105
-3.4 -0.399999999999998 28.4067313029538
-3.4 -0.299999999999998 28.6891103248005
-3.4 -0.199999999999998 28.9288416197468
-3.4 -0.0999999999999976 29.1241364600479
-3.4 2.41473507855972E-15 29.2737034505938
-3.4 0.100000000000002 29.3764908519456
-3.4 0.200000000000002 29.4314129764694
-3.4 0.300000000000002 29.4370867820894
-3.4 0.400000000000002 29.3916008301281
-3.4 0.500000000000002 29.2923337700514
-3.4 0.600000000000002 29.1358357990382
-3.4 0.700000000000002 28.9177852308297
-3.4 0.800000000000002 28.633033344115
-3.4 0.900000000000002 28.2757532578153
-3.4 1 27.83971163357
-3.4 1.1 27.3186846983577
-3.4 1.2 26.7070422112056
-3.4 1.3 26.0005250928016
-3.4 1.4 25.1972450197255
-3.4 1.5 24.2989357303821
-3.4 1.6 23.3124787627813
-3.4 1.7 22.2516945954289
-3.4 1.8 21.1393098882013
-3.4 1.9 20.0088625017866
-3.4 2 18.9060940037154
-3.4 2.1 17.8891616752574
-3.4 2.2 17.0268958479894
-3.4 2.3 16.3944797723632
-3.4 2.4 16.0664351290174
-3.4 2.5 16.1076080763365
-3.4 2.6 16.563722785556
-3.4 2.7 17.4536198883561
-3.4 2.8 18.7651901165671
-3.4 2.9 20.4561725062604
-3.4 3 22.4596905268578
-3.4 3.1 24.6931623097671
-3.4 3.2 27.0685183025522
-3.4 3.3 29.5016841496962
-3.4 3.4 31.919891407875
-3.4 3.5 34.2662142899727
-3.4 3.6 36.5014545454808
-3.4 3.7 38.6039190799468
-3.4 3.8 40.5677445722637
-3.4 3.9 42.4003238246579
-3.3 -4 45.5329771481182
-3.3 -3.9 21.0021692711914
-3.3 -3.8 21.0032518983989
-3.3 -3.7 21.0048443128387
-3.3 -3.6 21.0071725543069
-3.3 -3.5 21.0105542402853
-3.3 -3.4 21.015429829899
-3.3 -3.3 21.0224006500968
-3.3 -3.2 21.0322725547966
-3.3 -3.1 21.0461020720683
-3.3 -3 21.0652391583299
-3.3 -2.9 21.091357649149
-3.3 -2.8 21.1264622014856
-3.3 -2.7 21.1728606213119
-3.3 -2.6 21.2330948304752
-3.3 -2.5 21.3098333309067
-3.3 -2.4 21.405741409061
-3.3 -2.3 21.5233574785769
-3.3 -2.2 21.6650071941703
-3.3 -2.1 21.8327746928653
-3.3 -2 22.0285225311961
-3.3 -1.9 22.2539186664073
-3.3 -1.8 22.5104077967106
-3.3 -1.7 22.7990716525301
-3.3 -1.6 23.1203622437365
-3.3 -1.5 23.473749911191
-3.3 -1.4 23.8573780094244
-3.3 -1.3 24.2678326871486
-3.3 -1.2 24.7001092586907
-3.3 -1.1 25.1477974308426
-3.3 -0.999999999999997 25.6034431733639
-3.3 -0.899999999999997 26.0590029936672
-3.3 -0.799999999999997 26.5063005655071
-3.3 -0.699999999999998 26.9374203877335
-3.3 -0.599999999999998 27.3450093260294
-3.3 -0.499999999999998 27.722484807423
-3.3 -0.399999999999998 28.0641587686554
-3.3 -0.299999999999998 28.3652829427977
-3.3 -0.199999999999998 28.6220145426727
-3.3 -0.0999999999999976 28.8313008753377
-3.3 2.41473507855972E-15 28.990688867313
-3.3 0.100000000000002 29.0980767683518
-3.3 0.200000000000002 29.1514347279129
-3.3 0.300000000000002 29.1485251368372
-3.3 0.400000000000002 29.0866526827206
-3.3 0.500000000000002 28.962470313328
-3.3 0.600000000000002 28.771863442983
-3.3 0.700000000000002 28.5099325479089
-3.3 0.800000000000002 28.171094230517
-3.3 0.900000000000002 27.7493222909817
-3.3 1 27.2385522544152
-3.3 1.1 26.6332742174705
-3.3 1.2 25.9293393293162
-3.3 1.3 25.1250043910612
-3.3 1.4 24.2222352430853
-3.3 1.5 23.2282768188312
-3.3 1.6 22.1574626651928
-3.3 1.7 21.0331591422442
-3.3 1.8 19.8896012133265
-3.3 1.9 18.7731815657128
-3.3 2 17.7425535630502
-3.3 2.1 16.8668102415873
-3.3 2.2 16.2211470367333
-3.3 2.3 15.8799033474224
-3.3 2.4 15.907665869507
-3.3 2.5 16.3499683328588
-3.3 2.6 17.2256628692187
-3.3 2.7 18.5229344505992
-3.3 2.8 20.2001042610931
-3.3 2.9 22.1910942849903
-3.3 3 24.4142099935784
-3.3 3.1 26.7822082306624
-3.3 3.2 29.2116421610889
-3.3 3.3 31.6300702162172
-3.3 3.4 33.9805391669942
-3.3 3.5 36.2234664309686
-3.3 3.6 38.3364644602504
-3.3 3.7 40.3127558638628
-3.3 3.8 42.1587227774787
-3.3 3.9 43.8909513573561
-3.2 -4 46.8973814876999
-3.2 -3.9 21.0015699481137
-3.2 -3.8 21.0023859749485
-3.2 -3.7 21.0035949088218
-3.2 -3.6 21.0053743386062
-3.2 -3.5 21.0079756702302
-3.2 -3.4 21.0117505471693
-3.2 -3.3 21.0171838365328
-3.2 -3.2 21.0249328619528
-3.2 -3.1 21.0358710278492
-3.2 -3 21.0511316758644
-3.2 -2.9 21.072145103946
-3.2 -2.8 21.1006588034047
-3.2 -2.7 21.1387294248436
-3.2 -2.6 21.1886766192022
-3.2 -2.5 21.252995458083
-3.2 -2.4 21.3342359180255
-3.2 -2.3 21.434872193754
-3.2 -2.2 21.5571950238486
-3.2 -2.1 21.7032586088836
-3.2 -2 21.8748947974478
-3.2 -1.9 22.073774008862
-3.2 -1.8 22.3014580893663
-3.2 -1.7 22.5593737712733
-3.2 -1.6 22.8486508948205
-3.2 -1.5 23.1698169932929
-3.2 -1.4 23.5224019454541
-3.2 -1.3 23.9045555613096
-3.2 -1.2 24.3127930299694
-3.2 -1.1 24.7419506471631
-3.2 -0.999999999999997 25.1853711276198
-3.2 -0.899999999999997 25.6352722709603
-3.2 -0.799999999999997 26.0832118559683
-3.2 -0.699999999999998 26.520557343622
-3.2 -0.599999999999998 26.9388938811291
-3.2 -0.499999999999998 27.3303387656932
-3.2 -0.399999999999998 27.6877565458435
-3.2 -0.299999999999998 28.004878975519
-3.2 -0.199999999999998 28.2763328867063
-3.2 -0.0999999999999976 28.4975767971122
-3.2 2.41473507855972E-15 28.6647507753337
-3.2 0.100000000000002 28.7744540200752
-3.2 0.200000000000002 28.8234762458522
-3.2 0.300000000000002 28.8085174295793
-3.2 0.400000000000002 28.7259336296317
-3.2 0.500000000000002 28.5715453648527
-3.2 0.600000000000002 28.3405418800582
-3.2 0.700000000000002 28.027511742336
-3.2 0.800000000000002 27.6266286225074
-3.2 0.900000000000002 27.1320205687935
-3.2 1 26.5383505626436
-3.2 1.1 25.8416344610458
-3.2 1.2 25.0403183093092
-3.2 1.3 24.1366282286664
-3.2 1.4 23.1381873032884
-3.2 1.5 22.0598540932459
-3.2 1.6 20.9256598433037
-3.2 1.7 19.770590827476
-3.2 1.8 18.6417821907653
-3.2 1.9 17.5985061201356
-3.2 2 16.7102512610571
-3.2 2.1 16.0523359604946
-3.2 2.2 15.6989719263663
-3.2 2.3 15.714460722273
-3.2 2.4 16.1440350427746
-3.2 2.5 17.0063823251535
-3.2 2.6 18.2897805966281
-3.2 2.7 19.9529587119108
-3.2 2.8 21.9305370397965
-3.2 2.9 24.1417115356027
-3.2 3 26.5001740907432
-3.2 3.1 28.923296995537
-3.2 3.2 31.3392025821518
-3.2 3.3 33.6911521491691
-3.2 3.4 35.9393913209399
-3.2 3.5 38.060997234387
-3.2 3.6 40.0483714596906
-3.2 3.7 41.9069102871319
-3.2 3.8 43.6521940655028
-3.2 3.9 45.3068767835857
-3.1 -4 48.2366887219647
-3.1 -3.9 21.0010860291534
-3.1 -3.8 21.0016906176965
-3.1 -3.7 21.0025955783453
-3.1 -3.6 21.0039396743146
-3.1 -3.5 21.0059208004564
-3.1 -3.4 21.0088180557229
-3.1 -3.3 21.0130199315624
-3.1 -3.2 21.0190588565751
-3.1 -3.1 21.0276512324289
-3.1 -3 21.039740269443
-3.1 -2.9 21.0565363607871
-3.1 -2.8 21.0795467406818
-3.1 -2.7 21.1105836385913
-3.1 -2.6 21.1517396249971
-3.1 -2.5 21.205322301928
-3.1 -2.4 21.2737493616996
-3.1 -2.3 21.3594187071904
-3.1 -2.2 21.4645826901042
-3.1 -2.1 21.5912630509261
-3.1 -2 21.7412357687782
-3.1 -1.9 21.9160894718238
-3.1 -1.8 22.1173236144539
-3.1 -1.7 22.3464192299677
-3.1 -1.6 22.6048046913513
-3.1 -1.5 22.8936630926609
-3.1 -1.4 23.2135825032379
-3.1 -1.3 23.5641152028585
-3.1 -1.2 23.9433590260229
-3.1 -1.1 24.3476808258774
-3.1 -0.999999999999997 24.7716641599676
-3.1 -0.899999999999997 25.2082968443578
-3.1 -0.799999999999997 25.6493479299497
-3.1 -0.699999999999998 26.0858440641191
-3.1 -0.599999999999998 26.5085522370977
-3.1 -0.499999999999998 26.9084007486677
-3.1 -0.399999999999998 27.2768034595093
-3.1 -0.299999999999998 27.6058771495696
-3.1 -0.199999999999998 27.888552576357
-3.1 -0.0999999999999976 28.1185819877416
-3.1 2.41473507855972E-15 28.2904483336729
-3.1 0.100000000000002 28.399189322057
-3.1 0.200000000000002 28.4401616779742
-3.1 0.300000000000002 28.4087829251342
-3.1 0.400000000000002 28.3002957746499
-3.1 0.500000000000002 28.109602673825
-3.1 0.600000000000002 27.831216592146
-3.1 0.700000000000002 27.4593708353361
-3.1 0.800000000000002 26.9883270053629
-3.1 0.900000000000002 26.4129162992738
-3.1 1 25.7293441843493
-3.1 1.1 24.936280327398
-3.1 1.2 24.0362416502182
-3.1 1.3 23.0372513089658
-3.1 1.4 21.954710810889
-3.1 1.5 20.8133426947917
-3.1 1.6 19.6489351686703
-3.1 1.7 18.5094525972297
-3.1 1.8 17.4549097307384
-3.1 1.9 16.5553371274083
-3.1 2 15.8863166466316
-3.1 2.1 15.5220322150472
-3.1 2.2 15.5265283819102
-3.1 2.3 15.9446765697243
-3.1 2.4 16.794856307968
-3.1 2.5 18.0652414704389
-3.1 2.6 19.7147644885307
-3.1 2.7 21.6785862429153
-3.1 2.8 23.8767251603484
-3.1 2.9 26.223851167546
-3.1 3 28.6383031977845
-3.1 3.1 31.0489899700071
-3.1 3.2 33.3996430654168
-3.1 3.3 35.6505832650371
-3.1 3.4 37.7785564701873
-3.1 3.5 39.7752824199491
-3.1 3.6 41.6452368605082
-3.1 3.7 43.402988691786
-3.1 3.8 45.070246419961
-3.1 3.9 46.6726907044858
-3 -4 49.5725123456207
-3 -3.9 21.0006859234816
-3 -3.8 21.0011207460754
-3 -3.7 21.0017822998249
-3 -3.6 21.0027782281707
-3 -3.5 21.0042632270752
-3 -3.4 21.0064572908222
-3 -3.3 21.0096694791485
-3 -3.2 21.0143278011482
-3 -3.1 21.0210150679362
-3 -3 21.0305091986403
-3 -2.9 21.0438243437926
-3 -2.8 21.0622463982428
-3 -2.7 21.0873535225386
-3 -2.6 21.1210103240136
-3 -2.5 21.1653251557295
-3 -2.4 21.2225655205542
-3 -2.3 21.2950377447309
-3 -2.2 21.3849521692747
-3 -2.1 21.494308573949
-3 -2 21.6248400280682
-3 -1.9 21.778039536752
-3 -1.8 21.9552620512085
-3 -1.7 22.1578542711205
-3 -1.6 22.3872340960563
-3 -1.5 22.6448386545723
-3 -1.4 22.9318926900055
-3 -1.3 23.2490097587487
-3 -1.2 23.5957047814042
-3 -1.1 23.9699402684644
-3 -0.999999999999997 24.3678299251756
-3 -0.899999999999997 24.7835803619937
-3 -0.799999999999997 25.2096824175744
-3 -0.699999999999998 25.6372973893153
-3 -0.599999999999998 26.0567452649257
-3 -0.499999999999998 26.4580002298163
-3 -0.399999999999998 26.8311233651455
-3 -0.299999999999998 27.1665945726626
-3 -0.199999999999998 27.4555301669901
-3 -0.0999999999999976 27.6897852850654
-3 2.41473507855972E-15 27.8619467438189
-3 0.100000000000002 27.9652296908294
-3 0.200000000000002 27.993303503186
-3 0.300000000000002 27.9400867222532
-3 0.400000000000002 27.7995629592822
-3 0.500000000000002 27.5656765494382
-3 0.600000000000002 27.2323677762714
-3 0.700000000000002 26.7938039976764
-3 0.800000000000002 26.2448563563398
-3 0.900000000000002 25.58186227615
-3 1 24.8037004739342
-3 1.1 23.9131849200724
-3 1.2 22.9187519371355
-3 1.3 21.8363620608241
-3 1.4 20.6914541907775
-3 1.5 19.5206651203543
-3 1.6 18.3728695913298
-3 1.7 17.3089461480585
-3 1.8 16.3996207157615
-3 1.9 15.7209016109025
-3 2 15.3470841622642
-3 2.1 15.3420365110077
-3 2.2 15.7502650661616
-3 2.3 16.5897457124453
-3 2.4 17.8483758844116
-3 2.5 19.4850803085548
-3 2.6 21.4353619324815
-3 2.7 23.6199286181287
-3 2.8 25.9543987683193
-3 2.9 28.358164376281
-3 3 30.761107581338
-3 3.1 33.107681479718
-3 3.2 35.3585518417098
-3 3.3 37.4903786260513
-3 3.4 39.4943878345916
-3 3.5 41.374247185619
-3 3.6 43.1435474223797
-3 3.7 44.8230147593729
-3 3.8 46.4374987611184
-3 3.9 48.0128020250967
-2.9 -4 50.9218033118553
-2.9 -3.9 21.0003443354301
-2.9 -3.8 21.000640377818
-2.9 -3.7 21.0011040504709
-2.9 -3.6 21.0018180004912
-2.9 -3.5 21.0029020286656
-2.9 -3.4 21.0045280199793
-2.9 -3.3 21.006939735709
-2.9 -3.2 21.0104782605297
-2.9 -3.1 21.0156134409464
-2.9 -3 21.0229806879561
-2.9 -2.9 21.033420868254
-2.9 -2.8 21.0480186031651
-2.9 -2.7 21.0681313485421
-2.9 -2.6 21.095398875235
-2.9 -2.5 21.131721624672
-2.9 -2.4 21.1791988418037
-2.9 -2.3 21.2400251727569
-2.9 -2.2 21.3163577427483
-2.9 -2.1 21.4101815575409
-2.9 -2 21.5232125379852
-2.9 -1.9 21.6568758595497
-2.9 -1.8 21.8123766557661
-2.9 -1.7 21.9908429557282
-2.9 -1.6 22.1934796928387
-2.9 -1.5 22.4216467087986
-2.9 -1.4 22.6767790561247
-2.9 -1.3 22.9601089376796
-2.9 -1.2 23.2722139533165
-2.9 -1.1 23.6124822078952
-2.9 -0.999999999999997 23.9786245574532
-2.9 -0.899999999999997 24.3663601059299
-2.9 -0.799999999999997 24.769353491289
-2.9 -0.699999999999998 25.179411109554
-2.9 -0.599999999999998 25.5868774743704
-2.9 -0.499999999999998 25.9811361536884
-2.9 -0.399999999999998 26.3511189529265
-2.9 -0.299999999999998 26.685751577786
-2.9 -0.199999999999998 26.9742956934347
-2.9 -0.0999999999999976 27.2065725724347
-2.9 2.41473507855972E-15 27.3730695647129
-2.9 0.100000000000002 27.4649424669383
-2.9 0.200000000000002 27.4739402022776
-2.9 0.300000000000002 27.3922943256621
-2.9 0.400000000000002 27.2126316386348
-2.9 0.500000000000002 26.9279793301046
-2.9 0.600000000000002 26.5319358738839
-2.9 0.700000000000002 26.0190769330648
-2.9 0.800000000000002 25.3856542896971
-2.9 0.900000000000002 24.6306273174068
-2.9 1 23.7570389888343
-2.9 1.1 22.7737076010454
-2.9 1.2 21.6971441522546
-2.9 1.3 20.5535145870688
-2.9 1.4 19.3803401738047
-2.9 1.5 18.2274774690546
-2.9 1.6 17.1567831663306
-2.9 1.7 16.23983299116
-2.9 1.8 15.5532392349944
-2.9 1.9 15.1715795371186
-2.9 2 15.1586742277715
-2.9 2.1 15.5587189724198
-2.9 2.2 16.3892473184662
-2.9 2.3 17.6377504751682
-2.9 2.4 19.2629495833895
-2.9 2.5 21.2004724670303
-2.9 2.6 23.3715326765194
-2.9 2.7 25.6925969917891
-2.9 2.8 28.0841250785487
-2.9 2.9 30.4771048890954
-2.9 3 32.8169367595842
-2.9 3.1 35.0649074393734
-2.9 3.2 37.1978682895755
-2.9 3.3 39.2067871994075
-2.9 3.4 41.0946882108346
-2.9 3.5 42.8742641254667
-2.9 3.6 44.5652580997623
-2.9 3.7 46.1916225322694
-2.9 3.8 47.7784870923548
-2.9 3.9 49.349071126953
-2.8 -4 52.2953176881806
-2.8 -3.9 21.0000405481575
-2.8 -3.8 21.0002202318368
-2.8 -3.7 21.0005194928585
-2.8 -3.6 21.0010008042113
-2.8 -3.5 21.0017556949434
-2.8 -3.4 21.0029168435612
-2.8 -3.3 21.004674363802
-2.8 -3.2 21.0072971592915
-2.8 -3.1 21.0111599811757
-2.8 -3 21.0167761915552
-2.8 -2.9 21.0248350263204
-2.8 -2.8 21.0362402092424
-2.8 -2.7 21.0521441060298
-2.8 -2.6 21.0739686051588
-2.8 -2.5 21.1034015541932
-2.8 -2.4 21.1423575405992
-2.8 -2.3 21.192896133963
-2.8 -2.2 21.2571008360225
-2.8 -2.1 21.336937133364
-2.8 -2 21.4341237626837
-2.8 -1.9 21.5500595995842
-2.8 -1.8 21.6858409411241
-2.8 -1.7 21.8423766205579
-2.8 -1.6 22.0205670808796
-2.8 -1.5 22.2214735478144
-2.8 -1.4 22.4463837631132
-2.8 -1.3 22.6966948023976
-2.8 -1.2 22.9735818400189
-2.8 -1.1 23.2774902323181
-2.8 -0.999999999999997 23.6075527366759
-2.8 -0.899999999999997 23.9610688352612
-2.8 -0.799999999999997 24.3331736251739
-2.8 -0.699999999999998 24.7167721652372
-2.8 -0.599999999999998 25.102742217205
-2.8 -0.499999999999998 25.4803429985544
-2.8 -0.399999999999998 25.8377323691349
-2.8 -0.299999999999998 26.1624952531185
-2.8 -0.199999999999998 26.44211105562
-2.8 -0.0999999999999976 26.6643201509887
-2.8 2.41473507855972E-15 26.8173771867709
-2.8 0.100000000000002 26.890199762875
-2.8 0.200000000000002 26.8724390202601
-2.8 0.300000000000002 26.7545173547295
-2.8 0.400000000000002 26.5276971385286
-2.8 0.500000000000002 26.1842588291497
-2.8 0.600000000000002 25.7178726146089
-2.8 0.700000000000002 25.1242419077439
-2.8 0.800000000000002 24.4020782763692
-2.8 0.900000000000002 23.554434598585
-2.8 1 22.5903736180985
-2.8 1.1 21.5268774913409
-2.8 1.2 20.3908039390748
-2.8 1.3 19.220563652945
-2.8 1.4 18.0670439761175
-2.8 1.5 16.993178038062
-2.8 1.6 16.0715382488013
-2.8 1.7 15.3795238590892
-2.8 1.8 14.9921883162932
-2.8 1.9 14.9734735289428
-2.8 2 15.3673741124587
-2.8 2.1 16.1910041531448
-2.8 2.2 17.4313742620395
-2.8 2.3 19.0468417557451
-2.8 2.4 20.9729469253256
-2.8 2.5 23.1311949879692
-2.8 2.6 25.4387413482041
-2.8 2.7 27.8170539201988
-2.8 2.8 30.1982900498171
-2.8 2.9 32.5289767729549
-2.8 3 34.7712835004603
-2.8 3.1 36.9025476747013
-2.8 3.2 38.9137556702829
-2.8 3.3 40.8075051370683
-2.8 3.4 42.5957245460088
-2.8 3.5 44.2972183355505
-2.8 3.6 45.9350075468382
-2.8 3.7 47.533457992603
-2.8 3.8 49.1152993335407
-2.8 3.9 50.6987808519882
-2.7 -4 53.6967163326695
-2.7 -3.9 20.9997570636538
-2.7 -3.8 20.9998358289461
-2.7 -3.7 20.9999943448857
-2.7 -3.6 21.0002786630213
-2.7 -3.5 21.0007572624648
-2.7 -3.4 21.0015307375398
-2.7 -3.3 21.0027450354007
-2.7 -3.2 21.0046091236762
-2.7 -3.1 21.0074178782565
-2.7 -3 21.0115806078212
-2.7 -2.9 21.0176547991902
-2.7 -2.8 21.0263831893398
-2.7 -2.7 21.0387300333836
-2.7 -2.6 21.0559095649358
-2.7 -2.5 21.0793967187069
-2.7 -2.4 21.1109084543247
-2.7 -2.3 21.1523453828751
-2.7 -2.2 21.205689861881
-2.7 -2.1 21.2728691592117
-2.7 -2 21.3556087328661
-2.7 -1.9 21.4553152611111
-2.7 -1.8 21.5730330465917
-2.7 -1.7 21.7095031657931
-2.7 -1.6 21.8653211951063
-2.7 -1.5 22.0411455176827
-2.7 -1.4 22.2378712106284
-2.7 -1.3 22.456672274855
-2.7 -1.2 22.6988376124465
-2.7 -1.1 22.9653806244859
-2.7 -0.999999999999997 23.2564725459918
-2.7 -0.899999999999997 23.5708116800532
-2.7 -0.799999999999997 23.9050710911045
-2.7 -0.699999999999998 24.2535529166003
-2.7 -0.599999999999998 24.608122610576
-2.7 -0.499999999999998 24.9584225835147
-2.7 -0.399999999999998 25.2923004561396
-2.7 -0.299999999999998 25.5963538031908
-2.7 -0.199999999999998 25.8564952167411
-2.7 -0.0999999999999976 26.0584677431603
-2.7 2.41473507855972E-15 26.1882750850863
-2.7 0.100000000000002 26.2325225222992
-2.7 0.200000000000002 26.1786909603407
-2.7 0.300000000000002 26.0153900540007
-2.7 0.400000000000002 25.7326578104596
-2.7 0.500000000000002 25.3223903459038
-2.7 0.600000000000002 24.7789909160573
-2.7 0.700000000000002 24.100316508703
-2.7 0.800000000000002 23.2889692135818
-2.7 0.900000000000002 22.3539252077327
-2.7 1 21.3124131622461
-2.7 1.1 20.1918429663605
-2.7 1.2 19.031446217552
-2.7 1.3 17.8831379730755
-2.7 1.4 16.8109893034927
-2.7 1.5 15.8886928548708
-2.7 1.6 15.194609703919
-2.7 1.7 14.8044728289046
-2.7 1.8 14.7825454612198
-2.7 1.9 15.172779654889
-2.7 2 15.9919539899241
-2.7 2.1 17.2265870761476
-2.7 2.2 18.834563833709
-2.7 2.3 20.7511517623473
-2.7 2.4 22.8979271509574
-2.7 2.5 25.1925329041232
-2.7 2.6 27.5573187203828
-2.7 2.7 29.9255996583947
-2.7 2.8 32.2451454654516
-2.7 2.9 34.4792339166036
-2.7 3 36.605981212867
-2.7 3.1 38.6166975037873
-2.7 3.2 40.5138205282457
-2.7 3.3 42.308705001395
-2.7 3.4 44.0193142630011
-2.7 3.5 45.6677455557636
-2.7 3.6 47.2775365900636
-2.7 3.7 48.8708179443484
-2.7 3.8 50.4655328529507
-2.7 3.9 52.0730729145942
-2.6 -4 55.1224230615719
-2.6 -3.9 20.9994785021139
-2.6 -3.8 20.9994659595147
-2.6 -3.7 20.9994992596885
-2.6 -3.6 20.999610904033
-2.6 -3.5 20.9998503744273
-2.6 -3.4 21.0002917930738
-2.6 -3.3 21.0010445379893
-2.6 -3.2 21.002267646237
-2.6 -3.1 21.0041888488469
-2.6 -3 21.0071288972979
-2.6 -2.9 21.0115313116998
-2.6 -2.8 21.0179966197468
-2.6 -2.7 21.0273183899778
-2.6 -2.6 21.0405158438701
-2.6 -2.5 21.0588548230389
-2.6 -2.4 21.083846203693
-2.6 -2.3 21.1172100099547
-2.6 -2.2 21.1607965368952
-2.6 -2.1 21.2164645585206
-2.6 -2 21.2859312402004
-2.6 -1.9 21.3706254029458
-2.6 -1.8 21.4715881218755
-2.6 -1.7 21.5894632825886
-2.6 -1.6 21.7245996076013
-2.6 -1.5 21.8772468700017
-2.6 -1.4 22.0477845169384
-2.6 -1.3 22.2368886923329
-2.6 -1.2 22.4455396261906
-2.6 -1.1 22.6748020451362
-2.6 -0.999999999999997 22.9253705266496
-2.6 -0.899999999999997 23.1969424229929
-2.6 -0.799999999999997 23.4875400161432
-2.6 -0.699999999999998 23.7929293845857
-2.6 -0.599999999999998 24.1062648804598
-2.6 -0.499999999999998 24.4180308866647
-2.6 -0.399999999999998 24.7162785773868
-2.6 -0.299999999999998 24.9870928496906
-2.6 -0.199999999999998 25.2151936543046
-2.6 -0.0999999999999976 25.3845802036752
-2.6 2.41473507855972E-15 25.4791550647603
-2.6 0.100000000000002 25.4833025999182
-2.6 0.200000000000002 25.3824320477116
-2.6 0.300000000000002 25.1635261343438
-2.6 0.400000000000002 24.8157607357344
-2.6 0.500000000000002 24.3312770555513
-2.6 0.600000000000002 23.706188947852
-2.6 0.700000000000002 22.9418867576167
-2.6 0.800000000000002 22.0466486202446
-2.6 0.900000000000002 21.0374859481317
-2.6 1 19.9420304359579
-2.6 1.1 18.8001207483223
-2.6 1.2 17.6645888925261
-2.6 1.3 16.6006271689153
-2.6 1.4 15.6831177680881
-2.6 1.5 14.9915262889507
-2.6 1.6 14.602459526225
-2.6 1.7 14.5807160467381
-2.6 1.8 14.9704007670532
-2.6 1.9 15.7880957463688
-2.6 2 17.0198807549084
-2.6 2.1 18.6231218496985
-2.6 2.2 20.5326743836299
-2.6 2.3 22.6699823948101
-2.6 2.4 24.9529568522588
-2.6 2.5 27.3046511380987
-2.6 2.6 29.6594538391374
-2.6 2.7 31.9664194673281
-2.6 2.8 34.1901042480782
-2.6 2.9 36.3096719410323
-2.6 3 38.3170728738893
-2.6 3.1 40.2148911186785
-2.6 3.2 42.0141544146548
-2.6 3.3 43.7321418577601
-2.6 3.4 45.3900858176682
-2.6 3.5 47.0106686845251
-2.6 3.6 48.6153333779021
-2.6 3.7 50.2215967449054
-2.6 3.8 51.840701946715
-2.6 3.9 53.4760046196752
-2.5 -4 56.5622868102122
-2.5 -3.9 20.999190684675
-2.5 -3.8 20.9990914150279
-2.5 -3.7 20.999008078148
-2.5 -3.6 20.9989617655493
-2.5 -3.5 20.9989860359742
-2.5 -3.4 20.9991328701517
-2.5 -3.3 20.9994810452267
-2.5 -3.2 21.0001476825764
-2.5 -3.1 21.0013037971821
-2.5 -3 21.0031946241601
-2.5 -2.9 21.0061651982838
-2.5 -2.8 21.0106909494464
-2.5 -2.7 21.0174117612218
-2.5 -2.6 21.0271658761871
-2.5 -2.5 21.0410172606091
-2.5 -2.4 21.0602670021138
-2.5 -2.3 21.0864370759524
-2.5 -2.2 21.1212151516241
-2.5 -2.1 21.16635413838
-2.5 -2 21.2235312932218
-2.5 -1.9 21.2941879934818
-2.5 -1.8 21.3793879888819
-2.5 -1.7 21.4797408633392
-2.5 -1.6 21.5954299046092
-2.5 -1.5 21.7263557843292
-2.5 -1.4 21.8723647626558
-2.5 -1.3 22.0334869350408
-2.5 -1.2 22.2100841040277
-2.5 -1.1 22.4028113710247
-2.5 -0.999999999999997 22.6123344149137
-2.5 -0.899999999999997 22.838807165775
-2.5 -0.799999999999997 23.0811847760637
-2.5 -0.699999999999998 23.3365026434531
-2.5 -0.599999999999998 23.5992740622543
-2.5 -0.499999999999998 23.8611373378093
-2.5 -0.399999999999998 24.110824705595
-2.5 -0.299999999999998 24.3344523403454
-2.5 -0.199999999999998 24.5160706529247
-2.5 -0.0999999999999976 24.6383861515301
-2.5 2.41473507855972E-15 24.6835731821211
-2.5 0.100000000000002 24.6341248189454
-2.5 0.200000000000002 24.4737317072361
-2.5 0.300000000000002 24.1882141887705
-2.5 0.400000000000002 23.7665601148953
-2.5 0.500000000000002 23.2021333805064
-2.5 0.600000000000002 22.4941094115225
-2.5 0.700000000000002 21.6491546086242
-2.5 0.800000000000002 20.6832889532596
-2.5 0.900000000000002 19.6237513827887
-2.5 1 18.51053303468
-2.5 1.1 17.3970789766161
-2.5 1.2 16.3495372588253
-2.5 1.3 15.443938955
-2.5 1.4 14.7609212535467
-2.5 1.5 14.378115447153
-2.5 1.6 14.36105675334
-2.5 1.7 14.7542147868254
-2.5 1.8 15.5741554229369
-2.5 1.9 16.8066315992874
-2.5 2 18.4085095926613
-2.5 2.1 20.3141521423802
-2.5 2.2 22.4447059248575
-2.5 2.3 24.7181367787849
-2.5 2.4 27.057993591003
-2.5 2.5 29.3995936384696
-2.5 2.6 31.6932425855418
-2.5 2.7 33.9048753049399
-2.5 2.8 36.014926616283
-2.5 2.9 38.0162932330036
-2.5 3 39.9120363777082
-2.5 3.1 41.713153567889
-2.5 3.2 43.4364580133305
-2.5 3.3 45.1024356431193
-2.5 3.4 46.7329340485955
-2.5 3.5 48.3486511886556
-2.5 3.6 49.9665719115987
-2.5 3.7 51.597667270713
-2.5 3.8 53.2452531067253
-2.5 3.9 54.9043587655341
-2.4 -4 58.0009716725716
-2.4 -3.9 20.9988798388574
-2.4 -3.8 20.9986939012193
-2.4 -3.7 20.9984963437895
-2.4 -3.6 20.99829837507
-2.4 -3.5 20.9981198787901
-2.4 -3.4 20.9979939323569
-2.4 -3.3 20.9979732698858
-2.4 -3.2 20.9981393498069
-2.4 -3.1 20.9986147952003
-2.4 -3 20.9995800076547
-2.4 -2.9 21.0012946208925
-2.4 -2.8 21.0041240207776
-2.4 -2.7 21.008570234143
-2.4 -2.6 21.0153048951375
-2.4 -2.5 21.0251996365433
-2.4 -2.4 21.0393462833133
-2.4 -2.3 21.0590562943141
-2.4 -2.2 21.0858273449691
-2.4 -2.1 21.1212667535442
-2.4 -2 21.1669686695829
-2.4 -1.9 21.2243553556359
-2.4 -1.8 21.2945103396653
-2.4 -1.7 21.3780465714963
-2.4 -1.6 21.4750570909323
-2.4 -1.5 21.5851814917151
-2.4 -1.4 21.7077876212331
-2.4 -1.3 21.8422230777151
-2.4 -1.2 21.9880511265005
-2.4 -1.1 22.1451672080502
-2.4 -0.999999999999997 22.3137051690778
-2.4 -0.899999999999997 22.4936863765255
-2.4 -0.799999999999997 22.6844299547315
-2.4 -0.699999999999998 22.8838115561584
-2.4 -0.599999999999998 23.087511100883
-2.4 -0.499999999999998 23.2884087891118
-2.4 -0.399999999999998 23.476265144331
-2.4 -0.299999999999998 23.6377623940213
-2.4 -0.199999999999998 23.7569133021215
-2.4 -0.0999999999999976 23.8157863723986
-2.4 2.41473507855972E-15 23.7954710757642
-2.4 0.100000000000002 23.677214989855
-2.4 0.200000000000002 23.443694406393
-2.4 0.300000000000002 23.0804142539061
-2.4 0.400000000000002 22.5772576958601
-2.4 0.500000000000002 21.9302097280951
-2.4 0.600000000000002 21.1432530275976
-2.4 0.700000000000002 20.2303690055522
-2.4 0.800000000000002 19.2174668050201
-2.4 0.900000000000002 18.1439129261602
-2.4 1 17.0631699402826
-2.4 1.1 16.0419301792983
-2.4 1.2 15.1571367034389
-2.4 1.3 14.4905176552483
-2.4 1.4 14.120777590494
-2.4 1.5 14.1143307233332
-2.4 1.6 14.5162038519028
-2.4 1.7 15.3431423434979
-2.4 1.8 16.5807269121905
-2.4 1.9 18.1854027382423
-2.4 2 20.091023177638
-2.4 2.1 22.2183256332759
-2.4 2.2 24.4851462629787
-2.4 2.3 26.8153155565776
-2.4 2.4 29.1448931414934
-2.4 2.5 31.4253342433096
-2.4 2.6 33.6239764323583
-2.4 2.7 35.7226862091262
-2.4 2.8 37.7155802629342
-2.4 2.9 39.6065324285688
-2.4 3 41.4068445221856
-2.4 3.1 43.1331409492551
-2.4 3.2 44.805344341601
-2.4 3.3 46.4445457535171
-2.4 3.4 48.0706835550793
-2.4 3.5 49.7001299221148
-2.4 3.6 51.343468980665
-2.4 3.7 53.0038564328158
-2.4 3.8 54.676327045734
-2.4 3.9 56.348260415216
-2.3 -4 59.4198706124956
-2.3 -3.9 20.9985318769768
-2.3 -3.8 20.9982550654204
-2.3 -3.7 20.997939989864
-2.3 -3.6 20.9975889785235
-2.3 -3.5 20.9972097810118
-2.3 -3.4 20.9968188683514
-2.3 -3.3 20.9964462607607
-2.3 -3.2 20.9961424443335
-2.3 -3.1 20.9959880592414
-2.3 -3 20.9961071247484
-2.3 -2.9 20.9966845433546
-2.3 -2.8 20.997988389449
-2.3 -2.7 21.0003968817705
-2.3 -2.6 21.004428775198
-2.3 -2.5 21.0107740177095
-2.3 -2.4 21.0203188743056
-2.3 -2.3 21.0341566302868
-2.3 -2.2 21.0535723374945
-2.3 -2.1 21.079989467499
-2.3 -2 21.1148699109962
-2.3 -1.9 21.1595683114548
-2.3 -1.8 21.2151571888862
-2.3 -1.7 21.2822571704395
-2.3 -1.6 21.3609195155382
-2.3 -1.5 21.4506069833964
-2.3 -1.4 21.5502980575361
-2.3 -1.3 21.6587007539936
-2.3 -1.2 21.7745171340527
-2.3 -1.1 21.8966648084803
-2.3 -0.999999999999997 22.0243515909267
-2.3 -0.899999999999997 22.1569204919846
-2.3 -0.799999999999997 22.2934314442881
-2.3 -0.699999999999998 22.4320128350246
-2.3 -0.599999999999998 22.569084151944
-2.3 -0.499999999999998 22.698602189192
-2.3 -0.399999999999998 22.8115006293434
-2.3 -0.299999999999998 22.8954689350139
-2.3 -0.199999999999998 22.9351590317268
-2.3 -0.0999999999999976 22.912838829425
-2.3 2.41473507855972E-15 22.8094555171632
-2.3 0.100000000000002 22.6060446110112
-2.3 0.200000000000002 22.2854221572509
-2.3 0.300000000000002 21.8341127128991
-2.3 0.400000000000002 21.2444749434394
-2.3 0.500000000000002 20.5169720037889
-2.3 0.600000000000002 19.6624820712963
-2.3 0.700000000000002 18.7044482916402
-2.3 0.800000000000002 17.6805306069966
-2.3 0.900000000000002 16.6432686110919
-2.3 1 15.6591501093245
-2.3 1.1 14.8054928357814
-2.3 1.2 14.1647865884412
-2.3 1.3 13.8166664888009
-2.3 1.4 13.8284339778679
-2.3 1.5 14.2457857393119
-2.3 1.6 15.0858112950977
-2.3 1.7 16.3340833876924
-2.3 1.8 17.9467444277306
-2.3 1.9 19.8571782301547
-2.3 2 21.9856596101571
-2.3 2.1 24.2497553315959
-2.3 2.2 26.5733807912487
-2.3 2.3 28.8931332321343
-2.3 2.4 31.161463673677
-2.3 2.5 33.347063283078
-2.3 2.6 35.4333172499902
-2.3 2.7 37.4157829391715
-2.3 2.8 39.2994643667462
-2.3 2.9 41.096322203127
-2.3 3 42.8231191313021
-2.3 3.1 44.4994631120008
-2.3 3.2 46.1458325648722
-2.3 3.3 47.7814457578639
-2.3 3.4 49.422018117356
-2.3 3.5 51.0776505275044
-2.3 3.6 52.7512217836725
-2.3 3.7 54.4376599407308
-2.3 3.8 56.1243292613246
-2.3 3.9 57.7925325215666
-2.2 -4 60.7992451729559
-2.2 -3.9 20.9981317052554
-2.2 -3.8 20.9977555812159
-2.2 -3.7 20.9973141226098
-2.2 -3.6 20.9968013204218
-2.2 -3.5 20.9962137122123
-2.2 -3.4 20.9955526344909
-2.2 -3.3 20.9948276385214
-2.2 -3.2 20.9940615330535
-2.2 -3.1 20.9932976386834
-2.2 -3 20.9926099456714
-2.2 -2.9 20.9921169135939
-2.2 -2.8 20.9919995560762
-2.2 -2.7 20.99252409122
-2.2 -2.6 20.9940686372266
-2.2 -2.5 20.9971520023448
-2.2 -2.4 21.002460422914
-2.2 -2.3 21.0108652105925
-2.2 -2.2 21.0234211728572
-2.2 -2.1 21.041333516815
-2.2 -2 21.0658815920948
-2.2 -1.9 21.0982934344583
-2.2 -1.8 21.1395769926163
-2.2 -1.7 21.1903310371578
-2.2 -1.6 21.250576113232
-2.2 -1.5 21.3196551553149
-2.2 -1.4 21.3962460209372
-2.2 -1.3 21.4785007195062
-2.2 -1.2 21.5642839466645
-2.2 -1.1 21.6514403427386
-2.2 -0.999999999999997 21.7379918553052
-2.2 -0.899999999999997 21.8221653253117
-2.2 -0.799999999999997 21.9021790649047
-2.2 -0.699999999999998 21.975770860029
-2.2 -0.599999999999998 22.0395179635479
-2.2 -0.499999999999998 22.0880676410579
-2.2 -0.399999999999998 22.1134474148292
-2.2 -0.299999999999998 22.1046413409397
-2.2 -0.199999999999998 22.0475949149476
-2.2 -0.0999999999999976 21.9257534129006
-2.2 2.41473507855972E-15 21.7211664978241
-2.2 0.100000000000002 21.416128305837
-2.2 0.200000000000002 20.9952793264272
-2.2 0.300000000000002 20.4480698975081
-2.2 0.400000000000002 19.7714576752053
-2.2 0.500000000000002 18.9726622876608
-2.2 0.600000000000002 18.0717151855827
-2.2 0.700000000000002 17.1034213211558
-2.2 0.800000000000002 16.1182140268776
-2.2 0.900000000000002 15.1812888515901
-2.2 1 14.3694323720008
-2.2 1.1 13.7652161997457
-2.2 1.2 13.4487602079984
-2.2 1.3 13.4880207672834
-2.2 1.4 13.9293041909299
-2.2 1.5 14.7901012934517
-2.2 1.6 16.0560917557929
-2.2 1.7 17.6832314057404
-2.2 1.8 19.6045057094506
-2.2 1.9 21.7397226577489
-2.2 2 24.0060896167335
-2.2 2.1 26.3274436928764
-2.2 2.2 28.64071886654
-2.2 2.3 30.8991766463379
-2.2 2.4 33.0727510304628
-2.2 2.5 35.1463571812277
-2.2 2.6 37.1171459978581
-2.2 2.7 38.9915291679609
-2.2 2.8 40.7824791066205
-2.2 2.9 42.5072590853312
-2.2 3 44.1854716149707
-2.2 3.1 45.8371962659891
-2.2 3.2 47.4810350240668
-2.2 3.3 49.1320514899923
-2.2 3.4 50.799797010605
-2.2 3.5 52.4867691384794
-2.2 3.6 54.1876762611308
-2.2 3.7 55.8897660607726
-2.2 3.8 57.574249411094
-2.2 3.9 59.2185922138384
-2.1 -4 62.1202662362291
-2.1 -3.9 20.9976625259939
-2.1 -3.8 20.9971742402521
-2.1 -3.7 20.9965918341799
-2.1 -3.6 20.9959010874586
-2.1 -3.5 20.9950876898331
-2.1 -3.4 20.994138573515
-2.1 -3.3 20.9930440894757
-2.1 -3.2 20.9918013983442
-2.1 -3.1 20.9904195588945
-2.1 -3 20.9889269109397
-2.1 -2.9 20.9873814340789
-2.1 -2.8 20.9858847610995
-2.1 -2.7 20.9846003380671
-2.1 -2.6 20.9837757086571
-2.1 -2.5 20.9837678744816
-2.1 -2.4 20.9850689627201
-2.1 -2.3 20.9883269337707
-2.1 -2.2 20.9943529790679
-2.1 -2.1 21.0041043026848
-2.1 -2 21.0186295707971
-2.1 -1.9 21.0389665087404
-2.1 -1.8 21.0659889803387
-2.1 -1.7 21.1002150897613
-2.1 -1.6 21.1416060339535
-2.1 -1.5 21.1894012838262
-2.1 -1.4 21.2420403000965
-2.1 -1.3 21.297207095804
-2.1 -1.2 21.352000948268
-2.1 -1.1 21.4031930344392
-2.1 -0.999999999999997 21.4474897584175
-2.1 -0.899999999999997 21.4817038431724
-2.1 -0.799999999999997 21.5027422728795
-2.1 -0.699999999999998 21.5073561004937
-2.1 -0.599999999999998 21.4916549893331
-2.1 -0.499999999999998 21.4504592676221
-2.1 -0.399999999999998 21.3766308806917
-2.1 -0.299999999999998 21.2605752654894
-2.1 -0.199999999999998 21.0901223669343
-2.1 -0.0999999999999976 20.8509676722699
-2.1 2.41473507855972E-15 20.527787620139
-2.1 0.100000000000002 20.1060544437502
-2.1 0.200000000000002 19.5744819246194
-2.1 0.300000000000002 18.9279445505001
-2.1 0.400000000000002 18.170623148407
-2.1 0.500000000000002 17.3190279757833
-2.1 0.600000000000002 16.4044301820495
-2.1 0.700000000000002 15.4741111729156
-2.1 0.800000000000002 14.5907662273957
-2.1 0.900000000000002 13.8294561455581
-2.1 1 13.2717821373373
-2.1 1.1 12.9975155999599
-2.1 1.2 13.0746811207149
-2.1 1.3 13.5498416125212
-2.1 1.4 14.4407279077348
-2.1 1.5 15.73309822022
-2.1 1.6 17.3827621159427
-2.1 1.7 19.3223564150268
-2.1 1.8 21.4712345281086
-2.1 1.9 23.7461904394942
-2.1 2 26.0708560819382
-2.1 2.1 28.3823200550903
-2.1 2.2 30.6344575737408
-2.1 2.3 32.798289807959
-2.1 2.4 34.860203645135
-2.1 2.5 36.8190210376816
-2.1 2.6 38.682780033674
-2.1 2.7 40.4657928267806
-2.1 2.8 42.1862009067341
-2.1 2.9 43.8639599758505
-2.1 3 45.5190335287284
-2.1 3.1 47.1695828720626
-2.1 3.2 48.830085758693
-2.1 3.3 50.509520601484
-2.1 3.4 52.2099228315066
-2.1 3.5 53.9256752989372
-2.1 3.6 55.6438036664387
-2.1 3.7 57.3453370692792
-2.1 3.8 59.0075377429195
-2.1 3.9 60.6065924762897
-2 -4 63.3666782615313
-2 -3.9 20.9971050974772
-2 -3.8 20.9964870047372
-2 -3.7 20.995742984259
-2 -3.6 20.994850335926
-2 -3.5 20.9937837439887
-2 -3.4 20.9925157776195
-2 -3.3 20.9910179520203
-2 -3.2 20.9892626344605
-2 -3.1 20.9872261778843
-2 -3 20.9848937735219
-2 -2.9 20.9822666141246
-2 -2.8 20.9793720113258
-2 -2.7 20.9762770429986
-2 -2.6 20.973106005572
-2 -2.5 20.9700612515387
-2 -2.4 20.9674457127754
-2 -2.3 20.9656833831681
-2 -2.2 20.9653312522877
-2 -2.1 20.9670729996028
-2 -2 20.9716821329687
-2 -1.9 20.9799418775016
-2 -1.8 20.9925131744258
-2 -1.7 21.0097524086922
-2 -1.6 21.0314967543776
-2 -1.5 21.0568535720194
-2 -1.4 21.0840436120842
-2 -1.3 21.1103470303418
-2 -1.2 21.1321810293608
-2 -1.1 21.1453009573272
-2 -0.999999999999997 21.1450742668077
-2 -0.899999999999997 21.1267443111771
-2 -0.799999999999997 21.0855910615529
-2 -0.699999999999998 21.0169134851109
-2 -0.599999999999998 20.9158013239081
-2 -0.499999999999998 20.7767258542779
-2 -0.399999999999998 20.5930507106177
-2 -0.299999999999998 20.3566320658698
-2 -0.199999999999998 20.0577247327412
-2 -0.0999999999999976 19.6854180320801
-2 2.41473507855972E-15 19.228779723498
-2 0.100000000000002 18.6787880200499
-2 0.200000000000002 18.0309934430507
-2 0.300000000000002 17.2886915439608
-2 0.400000000000002 16.4662186769019
-2 0.500000000000002 15.5918180394523
-2 0.600000000000002 14.7093835999545
-2 0.700000000000002 13.8783216998424
-2 0.800000000000002 13.1708504468015
-2 0.900000000000002 12.666371721768
-2 1 12.4431427229689
-2 1.1 12.5682711986336
-2 1.2 13.0878293669676
-2 1.3 14.0192829681982
-2 1.4 15.3481713275204
-2 1.5 17.0300106032558
-2 1.6 18.9970269293849
-2 1.7 21.1680815666745
-2 1.8 23.4594948080259
-2 1.9 25.7945827845254
-2 2 28.1104240962983
-2 2.1 30.3613109635479
-2 2.2 32.519167161409
-2 2.3 34.5717348417837
-2 2.4 36.5195091292025
-2 2.5 38.3723013071207
-2 2.6 40.1460446470431
-2 2.7 41.860128587705
-2 2.8 43.5352528365439
-2 2.9 45.1916094338598
-2 3 46.8471694254065
-2 3.1 48.5159619813632
-2 3.2 50.2064254285288
-2 3.3 51.9200885567225
-2 3.4 53.6509201691791
-2 3.5 55.3856211689017
-2 3.6 57.1049425948384
-2 3.7 58.7858634708565
-2 3.8 60.40424625926
-2 3.9 61.9374825460988
-1.9 -4 64.5259134849655
-1.9 -3.9 20.9964369165565
-1.9 -3.8 20.9956659752246
-1.9 -3.7 20.9947328915323
-1.9 -3.6 20.9936058268819
-1.9 -3.5 20.992247792826
-1.9 -3.4 20.9906163712621
-1.9 -3.3 20.9886637390977
-1.9 -3.2 20.9863372020785
-1.9 -3.1 20.983580524096
-1.9 -3 20.980336434704
-1.9 -2.9 20.9765507978718
-1.9 -2.8 20.9721790034655
-1.9 -2.7 20.9671951494957
-1.9 -2.6 20.961604432005
-1.9 -2.5 20.9554587194079
-1.9 -2.4 20.9488743838201
-1.9 -2.3 20.942049902974
-1.9 -2.2 20.9352784082371
-1.9 -2.1 20.9289473352136
-1.9 -2 20.9235141831275
-1.9 -1.9 20.9194453356219
-1.9 -1.8 20.9171058784891
-1.9 -1.7 20.9165945689037
-1.9 -1.6 20.9175308638679
-1.9 -1.5 20.9188189201653
-1.9 -1.4 20.9184316097435
-1.9 -1.3 20.9132675167028
-1.9 -1.2 20.8991274736607
-1.9 -1.1 20.8708316532126
-1.9 -0.999999999999997 20.8224595392907
-1.9 -0.899999999999997 20.7476566718011
-1.9 -0.799999999999997 20.6399286676113
-1.9 -0.699999999999998 20.4928441860468
-1.9 -0.599999999999998 20.3000958036258
-1.9 -0.499999999999998 20.0554168586918
-1.9 -0.399999999999998 19.7524161501824
-1.9 -0.299999999999998 19.3844614593551
-1.9 -0.199999999999998 18.9448027097888
-1.9 -0.0999999999999976 18.4271550818896
-1.9 2.41473507855972E-15 17.82693771547
-1.9 0.100000000000002 17.1432675332883
-1.9 0.200000000000002 16.3816390091447
-1.9 0.300000000000002 15.5569978081747
-1.9 0.400000000000002 14.6966746187624
-1.9 0.500000000000002 13.842435040698
-1.9 0.600000000000002 13.0507881879858
-1.9 0.700000000000002 12.390763500219
-1.9 0.800000000000002 11.9386944146924
-1.9 0.900000000000002 11.7701726168347
-1.9 1 11.9501741009178
-1.9 1.1 12.5231664155711
-1.9 1.2 13.5054346860219
-1.9 1.3 14.8816158162702
-1.9 1.4 16.606464405608
-1.9 1.5 18.6114950073294
-1.9 1.6 20.8148817780438
-1.9 1.7 23.1323227402707
-1.9 1.8 25.4866691118326
-1.9 1.9 27.8148132909701
-1.9 2 30.0712599755155
-1.9 2.1 32.2286277976113
-1.9 2.2 34.2758491269513
-1.9 2.3 36.2150230706367
-1.9 2.4 38.0578019660413
-1.9 2.5 39.8219562234707
-1.9 2.6 41.5284607615887
-1.9 2.7 43.1991599915018
-1.9 2.8 44.8548670836178
-1.9 2.9 46.5136851405682
-1.9 3 48.1894099721138
-1.9 3.1 49.8900413829507
-1.9 3.2 51.6166074491967
-1.9 3.3 53.3626043171968
-1.9 3.4 55.1143174483247
-1.9 3.5 56.8521227953785
-1.9 3.6 58.5526287209807
-1.9 3.7 60.1913021460327
-1.9 3.8 61.7451067308767
-1.9 3.9 63.1947042855198
-1.8 -4 65.5896079815933
-1.8 -3.9 20.9956312872832
-1.8 -3.8 20.9946782269189
-1.8 -3.7 20.9935208752304
-1.8 -3.6 20.9921171926811
-1.8 -3.5 20.9904173310783
-1.8 -3.4 20.9883625903183
-1.8 -3.3 20.9858844417669
-1.8 -3.2 20.9829037492474
-1.8 -3.1 20.9793303825215
-1.8 -3 20.9750634979095
-1.8 -2.9 20.9699928510281
-1.8 -2.8 20.9640015919348
-1.8 -2.7 20.9569710397658
-1.8 -2.6 20.9487878804154
-1.8 -2.5 20.9393539754856
-1.8 -2.4 20.9285983655346
-1.8 -2.3 20.916489909948
-1.8 -2.2 20.9030471514509
-1.8 -2.1 20.8883393618089
-1.8 -2 20.8724695542106
-1.8 -1.9 20.855527319245
-1.8 -1.8 20.8374981694354
-1.8 -1.7 20.818118804634
-1.8 -1.6 20.7966764163828
-1.8 -1.5 20.7717654480336
-1.8 -1.4 20.7410345966654
-1.8 -1.3 20.700973876273
-1.8 -1.2 20.6467975816417
-1.8 -1.1 20.5724673291273
-1.8 -0.999999999999997 20.4708702593096
-1.8 -0.899999999999997 20.3341300414006
-1.8 -0.799999999999997 20.153996988063
-1.8 -0.699999999999998 19.9222512559744
-1.8 -0.599999999999998 19.6310654302499
-1.8 -0.499999999999998 19.2733075195705
-1.8 -0.399999999999998 18.8428156111911
-1.8 -0.299999999999998 18.3347323051785
-1.8 -0.199999999999998 17.7460387218973
-1.8 -0.0999999999999976 17.0764559991006
-1.8 2.41473507855972E-15 16.329861164886
-1.8 0.100000000000002 15.5162680978002
-1.8 0.200000000000002 14.6542407736817
-1.8 0.300000000000002 13.7733522064524
-1.8 0.400000000000002 12.9160336697998
-1.8 0.500000000000002 12.1379663377192
-1.8 0.600000000000002 11.5061641194852
-1.8 0.700000000000002 11.0941845790239
-1.8 0.800000000000002 10.9745231971666
-1.8 0.900000000000002 11.2091050415462
-1.8 1 11.8396335109311
-1.8 1.1 12.8800250550626
-1.8 1.2 14.3129444266514
-1.8 1.3 16.0915087200658
-1.8 1.4 18.1458527203783
-1.8 1.5 20.3929744394889
-1.8 1.6 22.7475891617714
-1.8 1.7 25.1317966559842
-1.8 1.8 27.4820456366751
-1.8 1.9 29.7527997990002
-1.8 2 31.9171239997339
-1.8 2.1 33.9649240110454
-1.8 2.2 35.8997629813193
-1.8 2.3 37.7351179755182
-1.8 2.4 39.4907320421286
-1.8 2.5 41.1894470438336
-1.8 2.6 42.8546367120018
-1.8 2.7 44.5081553578492
-1.8 2.8 46.1686222739829
-1.8 2.9 47.8498943072193
-1.8 3 49.5597128401007
-1.8 3.1 51.2986757006871
-1.8 3.2 53.0597919838595
-1.8 3.3 54.8288649676329
-1.8 3.4 56.5858062656672
-1.8 3.5 58.3067631927927
-1.8 3.6 59.9667274189352
-1.8 3.7 61.5421698621149
-1.8 3.8 63.0132579835482
-1.8 3.9 64.3653440153104
-1.7 -4 66.5535816072213
-1.7 -3.9 20.9946562356077
-1.7 -3.8 20.9934844641138
-1.7 -3.7 20.9920585831325
-1.7 -3.6 20.9903248544987
-1.7 -3.5 20.9882188303825
-1.7 -3.4 20.9856635299814
-1.7 -3.3 20.9825674543296
-1.7 -3.2 20.9788225011795
-1.7 -3.1 20.9743018879512
-1.7 -3 20.9688582516674
-1.7 -2.9 20.9623221689161
-1.7 -2.8 20.9545014177726
-1.7 -2.7 20.945181366174
-1.7 -2.6 20.9341268751094
-1.7 -2.5 20.9210859755955
-1.7 -2.4 20.9057951984611
-1.7 -2.3 20.8879856428301
-1.7 -2.2 20.8673874746504
-1.7 -2.1 20.8437284020004
-1.7 -2 20.8167188060135
-1.7 -1.9 20.7860130321253
-1.7 -1.8 20.7511339177063
-1.7 -1.7 20.7113477536343
-1.7 -1.6 20.6654818260562
-1.7 -1.5 20.611688258912
-1.7 -1.4 20.547175812176
-1.7 -1.3 20.4679517498478
-1.7 -1.2 20.3686314333707
-1.7 -1.1 20.2423755069321
-1.7 -0.999999999999997 20.0809988679494
-1.7 -0.899999999999997 19.8752655363657
-1.7 -0.799999999999997 19.615350472569
-1.7 -0.699999999999998 19.291427372805
-1.7 -0.599999999999998 18.8943398116381
-1.7 -0.499999999999998 18.4163322209256
-1.7 -0.399999999999998 17.8518498015226
-1.7 -0.299999999999998 17.1984515918785
-1.7 -0.199999999999998 16.4579062353477
-1.7 -0.0999999999999976 15.6375404535676
-1.7 2.41473507855972E-15 14.7518661628482
-1.7 0.100000000000002 13.8244028812512
-1.7 0.200000000000002 12.8894293446834
-1.7 0.300000000000002 11.9931668144334
-1.7 0.400000000000002 11.1936903038275
-1.7 0.500000000000002 10.5588019932242
-1.7 0.600000000000002 10.1613113456173
-1.7 0.700000000000002 10.0717168642633
-1.7 0.800000000000002 10.3491044713188
-1.7 0.900000000000002 11.0319183755689
-1.7 1 12.130752505843
-1.7 1.1 13.6251344338347
-1.7 1.2 15.4653667511768
-1.7 1.3 17.5791440407043
-1.7 1.4 19.8814027178957
-1.7 1.5 22.285168391207
-1.7 1.6 24.7112306132232
-1.7 1.7 27.0951402274864
-1.7 1.8 29.3909309240819
-1.7 1.9 31.5717679667172
-1.7 2 33.6282308046282
-1.7 2.1 35.5651201977133
-1.7 2.2 37.3976258265335
-1.7 2.3 39.1475019207686
-1.7 2.4 40.83965838366
-1.7 2.5 42.4993377151711
-1.7 2.6 44.1498558218104
-1.7 2.7 45.8107759104111
-1.7 2.8 47.496383260081
-1.7 2.9 49.2144244408124
-1.7 3 50.9652143597018
-1.7 3.1 52.7413199483657
-1.7 3.2 54.5280335933675
-1.7 3.3 56.3047320775587
-1.7 3.4 58.0470157268502
-1.7 3.5 59.729316921826
-1.7 3.6 61.3275405595548
-1.7 3.7 62.8213001131284
-1.7 3.8 64.1954350385885
-1.7 3.9 65.4406848180552
-1.6 -4 67.4174145873301
-1.6 -3.9 20.9934732249822
-1.6 -3.8 20.9920374364378
-1.6 -3.7 20.9902880356715
-1.6 -3.6 20.9881576028815
-1.6 -3.5 20.9855647413869
-1.6 -3.4 20.9824114241483
-1.6 -3.3 20.9785799503481
-1.6 -3.2 20.9739295080657
-1.6 -3.1 20.9682923675785
-1.6 -3 20.9614697710021
-1.6 -2.9 20.9532276383868
-1.6 -2.8 20.9432922744099
-1.6 -2.7 20.9313463213661
-1.6 -2.6 20.9170252360634
-1.6 -2.5 20.8999145186144
-1.6 -2.4 20.8795477025489
-1.6 -2.3 20.8554045966175
-1.6 -2.2 20.8269082774423
-1.6 -2.1 20.7934176909734
-1.6 -2 20.7542103348909
-1.6 -1.9 20.7084465193129
-1.6 -1.8 20.6551037835492
-1.6 -1.7 20.5928685411807
-1.6 -1.6 20.5199740217371
-1.6 -1.5 20.4339813946672
-1.6 -1.4 20.3315159424558
-1.6 -1.3 20.2079909781393
-1.6 -1.2 20.0573737424069
-1.6 -1.1 19.872061635924
-1.6 -0.999999999999997 19.6429362794416
-1.6 -0.899999999999997 19.3596449728728
-1.6 -0.799999999999997 19.0111303700742
-1.6 -0.699999999999998 18.5864017727171
-1.6 -0.599999999999998 18.0755265661449
-1.6 -0.499999999999998 17.4708212020452
-1.6 -0.399999999999998 16.7682308021754
-1.6 -0.299999999999998 15.9688910740148
-1.6 -0.199999999999998 15.080850608512
-1.6 -0.0999999999999976 14.1208830743455
-1.6 2.41473507855972E-15 13.1162289101227
-1.6 0.100000000000002 12.1059742212703
-1.6 0.200000000000002 11.1416174816942
-1.6 0.300000000000002 10.2862409525652
-1.6 0.400000000000002 9.61168172138918
-1.6 0.500000000000002 9.19329638646832
-1.6 0.600000000000002 9.10240648359055
-1.6 0.700000000000002 9.39725249007766
-1.6 0.800000000000002 10.1140536393476
-1.6 0.900000000000002 11.2602209325922
-1.6 1 12.8115890479069
-1.6 1.1 14.7146502298091
-1.6 1.2 16.89346558687
-1.6 1.3 19.2597061855341
-1.6 1.4 21.7236092768195
-1.6 1.5 24.2037105387432
-1.6 1.6 26.6338765459616
-1.6 1.7 28.9670584057978
-1.6 1.8 31.1759750023943
-1.6 1.9 33.2514226050347
-1.6 2 35.1990781842492
-1.6 2.1 37.0356037467229
-1.6 2.2 38.7846789656168
-1.6 2.3 40.4733725169667
-1.6 2.4 42.1290557094957
-1.6 2.5 43.7768926652398
-1.6 2.6 45.4378342108929
-1.6 2.7 47.1270187218541
-1.6 2.8 48.8525425288221
-1.6 2.9 50.6146698852508
-1.6 3 52.4056437931693
-1.6 3.1 54.2102704869421
-1.6 3.2 56.0073536880083
-1.6 3.3 57.7718752886634
-1.6 3.4 59.4776264694626
-1.6 3.5 61.0998678730739
-1.6 3.6 62.6175913981854
-1.6 3.7 64.0150690919482
-1.6 3.8 65.2825580834017
-1.6 3.9 66.4162161083379
-1.5 -4 68.1837787866595
-1.5 -3.9 20.9920356205937
-1.5 -3.8 20.9902800522307
-1.5 -3.7 20.9881393060245
-1.5 -3.6 20.9855297420137
-1.5 -3.5 20.982349974533
-1.5 -3.4 20.9784773038118
-1.5 -3.3 20.973763521163
-1.5 -3.2 20.968030019201
-1.5 -3.1 20.9610621499872
-1.5 -3 20.9526027953336
-1.5 -2.9 20.9423451465104
-1.5 -2.8 20.9299247348794
-1.5 -2.7 20.9149108049146
-1.5 -2.6 20.8967971609639
-1.5 -2.5 20.874992615666
-1.5 -2.4 20.848811060424
-1.5 -2.3 20.8174608683587
-1.5 -2.2 20.7800326869281
-1.5 -2.1 20.7354835112237
-1.5 -2 20.6826131036858
-1.5 -1.9 20.6200263367352
-1.5 -1.8 20.5460722171001
-1.5 -1.7 20.4587481325153
-1.5 -1.6 20.3555579462325
-1.5 -1.5 20.2333172979769
-1.5 -1.4 20.0879110940369
-1.5 -1.3 19.9140273718537
-1.5 -1.2 19.7049159725294
-1.5 -1.1 19.4522433431691
-1.5 -0.999999999999997 19.1461277766167
-1.5 -0.899999999999997 18.7754360056979
-1.5 -0.799999999999997 18.3284022939832
-1.5 -0.699999999999998 17.7936023255336
-1.5 -0.599999999999998 17.1612862973551
-1.5 -0.499999999999998 16.4250535663802
-1.5 -0.399999999999998 15.5838293929719
-1.5 -0.299999999999998 14.6440678289329
-1.5 -0.199999999999998 13.6220368530592
-1.5 -0.0999999999999976 12.5459338399369
-1.5 2.41473507855972E-15 11.4574397470119
-1.5 0.100000000000002 10.4121807754864
-1.5 0.200000000000002 9.478484919232
-1.5 0.300000000000002 8.73387830646907
-1.5 0.400000000000002 8.25904488942393
-1.5 0.500000000000002 8.12951136608134
-1.5 0.600000000000002 8.40604913980187
-1.5 0.700000000000002 9.12549147570917
-1.5 0.800000000000002 10.2940257933225
-1.5 0.900000000000002 11.8847602190648
-1.5 1 13.8404362210749
-1.5 1.1 16.0808480718763
-1.5 1.2 18.5133347515988
-1.5 1.3 21.0440840941031
-1.5 1.4 23.5881026256922
-1.5 1.5 26.076393357873
-1.5 1.6 28.4597909992588
-1.5 1.7 30.7096888461224
-1.5 1.8 32.8163676589984
-1.5 1.9 34.7857906306486
-1.5 2 36.6356541494748
-1.5 2.1 38.3912999896025
-1.5 2.2 40.0818892469214
-1.5 2.3 41.7370566155896
-1.5 2.4 43.3841219120114
-1.5 2.5 45.0458435439706
-1.5 2.6 46.7386666405697
-1.5 2.7 48.4714492952675
-1.5 2.8 50.2447227150122
-1.5 2.9 52.0506078357373
-1.5 3 53.8735178825115
-1.5 3.1 55.6916927066829
-1.5 3.2 57.479451426526
-1.5 3.3 59.209873264469
-1.5 3.4 60.8574970436431
-1.5 3.5 62.4006205490386
-1.5 3.6 63.8228867437599
-1.5 3.7 65.1140216251622
-1.5 3.8 66.2697725618285
-1.5 3.9 67.2912304535917
-1.4 -4 68.8576699454606
-1.4 -3.9 20.9902868406902
-1.4 -3.8 20.9881431133619
-1.4 -3.7 20.9855277430434
-1.4 -3.6 20.9823376830265
-1.4 -3.5 20.9784477183594
-1.4 -3.4 20.9737058608515
-1.4 -3.3 20.9679278637885
-1.4 -3.2 20.9608907226665
-1.4 -3.1 20.9523250232313
-1.4 -3 20.9419059999406
-1.4 -2.9 20.9292431791971
-1.4 -2.8 20.9138685040407
-1.4 -2.7 20.8952228695183
-1.4 -2.6 20.8726410337616
-1.4 -2.5 20.8453348905851
-1.4 -2.4 20.8123750576063
-1.4 -2.3 20.7726705830739
-1.4 -2.2 20.7249462014314
-1.4 -2.1 20.667715833418
-1.4 -2 20.5992497838388
-1.4 -1.9 20.5175312586512
-1.4 -1.8 20.4201955390379
-1.4 -1.7 20.3044429951303
-1.4 -1.6 20.1669163724188
-1.4 -1.5 20.0035355128675
-1.4 -1.4 19.8092914199111
-1.4 -1.3 19.5780183152721
-1.4 -1.2 19.3021868041642
-1.4 -1.1 18.972789417422
-1.4 -0.999999999999997 18.5794137569887
-1.4 -0.899999999999997 18.1106090585313
-1.4 -0.799999999999997 17.5546431183848
-1.4 -0.699999999999998 16.9007184573861
-1.4 -0.599999999999998 16.1406745906886
-1.4 -0.499999999999998 15.2711515540562
-1.4 -0.399999999999998 14.2961250047343
-1.4 -0.299999999999998 13.229633491422
-1.4 -0.199999999999998 12.0983919703489
-1.4 -0.0999999999999976 10.9438253202053
-1.4 2.41473507855972E-15 9.8228946560756
-1.4 0.100000000000002 8.80699832301006
-1.4 0.200000000000002 7.97830711651302
-1.4 0.300000000000002 7.42323190356657
-1.4 0.400000000000002 7.22334920821104
-1.4 0.500000000000002 7.44492609351806
-1.4 0.600000000000002 8.12893614437346
-1.4 0.700000000000002 9.28380050659304
-1.4 0.800000000000002 10.882751830138
-1.4 0.900000000000002 12.8666935444975
-1.4 1 15.1520331403387
-1.4 1.1 17.6417305021278
-1.4 1.2 20.2371778478695
-1.4 1.3 22.8486738132067
-1.4 1.4 25.4029873861497
-1.4 1.5 27.8474545062498
-1.4 1.6 30.1508604191713
-1.4 1.7 32.3018448005298
-1.4 1.8 34.3057132476585
-1.4 1.9 36.1804491181042
-1.4 2 37.9525223596562
-1.4 2.1 39.6528848665987
-1.4 2.2 41.3133740262827
-1.4 2.3 42.9636289926376
-1.4 2.4 44.6285541886298
-1.4 2.5 46.3263382557233
-1.4 2.6 48.0670509178468
-1.4 2.7 49.8518810717423
-1.4 2.8 51.673115314379
-1.4 2.9 53.514946768897
-1.4 3 55.355122969853
-1.4 3.1 57.1672973623693
-1.4 3.2 58.923789074053
-1.4 3.3 60.5983461918237
-1.4 3.4 62.1684997839495
-1.4 3.5 63.6171976262912
-1.4 3.6 64.933580010768
-1.4 3.7 66.112942578928
-1.4 3.8 67.1560672642802
-1.4 3.9 68.0681652633849
-1.3 -4 69.4456537197858
-1.3 -3.9 20.9881581217635
-1.3 -3.8 20.9855425818102
-1.3 -3.7 20.9823506272015
-1.3 -3.6 20.9784558518903
-1.3 -3.5 20.9737044307847
-1.3 -3.4 20.9679093160909
-1.3 -3.3 20.9608432727919
-1.3 -3.2 20.9522305520934
-1.3 -3.1 20.9417369806717
-1.3 -3 20.9289582265756
-1.3 -2.9 20.9134059926544
-1.3 -2.8 20.8944918887543
-1.3 -2.7 20.8715087473263
-1.3 -2.6 20.8436091736877
-1.3 -2.5 20.8097811561148
-1.3 -2.4 20.7688205848533
-1.3 -2.3 20.7193005066109
-1.3 -2.2 20.6595368085891
-1.3 -2.1 20.587549689087
-1.3 -2 20.5010196155672
-1.3 -1.9 20.3972354055284
-1.3 -1.8 20.2730306275162
-1.3 -1.7 20.1247030552837
-1.3 -1.6 19.9479113198031
-1.3 -1.5 19.7375448655256
-1.3 -1.4 19.4875702369803
-1.3 -1.3 19.1908711366118
-1.3 -1.2 18.8391228915695
-1.3 -1.1 18.4227720953257
-1.3 -0.999999999999997 17.9312228818313
-1.3 -0.899999999999997 17.3533522185056
-1.3 -0.799999999999997 16.6784766104377
-1.3 -0.699999999999998 15.8978639259981
-1.3 -0.599999999999998 15.0068244115388
-1.3 -0.499999999999998 14.0073253876271
-1.3 -0.399999999999998 12.9109544949493
-1.3 -0.299999999999998 11.7419047404027
-1.3 -0.199999999999998 10.5394755893192
-1.3 -0.0999999999999976 9.35940558421549
-1.3 2.41473507855972E-15 8.27323930651214
-1.3 0.100000000000002 7.36498780530019
-1.3 0.200000000000002 6.72467450420511
-1.3 0.300000000000002 6.43901404437099
-1.3 0.400000000000002 6.58035592380311
-1.3 0.500000000000002 7.19586885316869
-1.3 0.600000000000002 8.29936694475082
-1.3 0.700000000000002 9.86787764474741
-1.3 0.800000000000002 11.8439950175486
-1.3 0.900000000000002 14.1435844022372
-1.3 1 16.6670651114336
-1.3 1.1 19.311791355009
-1.3 1.2 21.9831582286227
-1.3 1.3 24.6027984698892
-1.3 1.4 27.1132198132224
-1.3 1.5 29.4790909742485
-1.3 1.6 31.6859086359623
-1.3 1.7 33.736946567119
-1.3 1.8 35.6493012707045
-1.3 1.9 37.4496422461484
-1.3 2 39.1700588745794
-1.3 2.1 40.8442295401487
-1.3 2.2 42.5040364362742
-1.3 2.3 44.1767009900605
-1.3 2.4 45.8825031839588
-1.3 2.5 47.6331587080395
-1.3 2.6 49.4309458255251
-1.3 2.7 51.2686779948533
-1.3 2.8 53.1305834283255
-1.3 2.9 54.9940623423122
-1.3 3 56.8321549940374
-1.3 3.1 58.6164078458221
-1.3 3.2 60.3197280781447
-1.3 3.3 61.9188142928909
-1.3 3.4 63.3958527859616
-1.3 3.5 64.7393401192881
-1.3 3.6 65.9440746217084
-1.3 3.7 67.0104971891059
-1.3 3.8 67.943627355592
-1.3 3.9 68.7518369479378
-1.2 -4 69.9551981431782
-1.2 -3.9 20.9855658098236
-1.2 -3.8 20.9823762709021
-1.2 -3.7 20.9784831289174
-1.2 -3.6 20.9737317526516
-1.2 -3.5 20.9679338094905
-1.2 -3.4 20.9608600559336
-1.2 -3.3 20.9522316503116
-1.2 -3.2 20.9417097149879
-1.2 -3.1 20.9288828389123
-1.2 -3 20.9132521765948
-1.2 -2.9 20.8942137699291
-1.2 -2.8 20.871037699659
-1.2 -2.7 20.8428436696334
-1.2 -2.6 20.8085726458209
-1.2 -2.5 20.7669542186686
-1.2 -2.4 20.7164694329604
-1.2 -2.3 20.6553089260495
-1.2 -2.2 20.5813263104793
-1.2 -2.1 20.4919867880475
-1.2 -2 20.3843109299351
-1.2 -1.9 20.2548133488433
-1.2 -1.8 20.0994356427456
-1.2 -1.7 19.9134727253178
-1.2 -1.6 19.6914920990291
-1.2 -1.5 19.4272480342645
-1.2 -1.4 19.1135990042818
-1.2 -1.3 18.7424495706828
-1.2 -1.2 18.3047591531676
-1.2 -1.1 17.7906893085429
-1.2 -0.999999999999997 17.1899933346362
-1.2 -0.899999999999997 16.4927766062951
-1.2 -0.799999999999997 15.6907581100937
-1.2 -0.699999999999998 14.7791279251556
-1.2 -0.599999999999998 13.7590112699291
-1.2 -0.499999999999998 12.6404143895546
-1.2 -0.399999999999998 11.4453470490053
-1.2 -0.299999999999998 10.2106078848446
-1.2 -0.199999999999998 8.98951809476834
-1.2 -0.0999999999999976 7.85176099658673
-1.2 2.41473507855972E-15 6.88052639797706
-1.2 0.100000000000002 6.16647326072464
-1.2 0.200000000000002 5.79866309578881
-1.2 0.300000000000002 5.85350076350593
-1.2 0.400000000000002 6.38359529972775
-1.2 0.500000000000002 7.40894703189939
-1.2 0.600000000000002 8.91265532555479
-1.2 0.700000000000002 10.8423618385625
-1.2 0.800000000000002 13.1171959642053
-1.2 0.900000000000002 15.6386150184431
-1.2 1 18.3027383116528
-1.2 1.1 21.0117762883512
-1.2 1.2 23.6828112164328
-1.2 1.3 26.253132345005
-1.2 1.4 28.6821972414565
-1.2 1.5 30.9508577295751
-1.2 1.6 33.0587076209121
-1.2 1.7 35.0203607307747
-1.2 1.8 36.861279685947
-1.2 1.9 38.6135632003242
-1.2 2 40.3119327813554
-1.2 2.1 41.9900640496905
-1.2 2.2 43.6773745879375
-1.2 2.3 45.3963851795918
-1.2 2.4 47.1607878814749
-1.2 2.5 48.9743599853982
-1.2 2.6 50.8308395301418
-1.2 2.7 52.7148125390978
-1.2 2.8 54.6035511549544
-1.2 2.9 56.4695995250718
-1.2 3 58.2837663028894
-1.2 3.1 60.0180972796027
-1.2 3.2 61.6484081588281
-1.2 3.3 63.1560630742155
-1.2 3.4 64.5288570142447
-1.2 3.5 65.7610433325891
-1.2 3.6 66.8526874638752
-1.2 3.7 67.8085962978901
-1.2 3.8 68.6370710927713
-1.2 3.9 69.3486825948198
-1.1 -4 70.3941286079065
-1.1 -3.9 20.9824080721812
-1.1 -3.8 20.9785198327191
-1.1 -3.7 20.973773413047
-1.1 -3.6 20.9679799963586
-1.1 -3.5 20.9609095115209
-1.1 -3.4 20.9522817595739
-1.1 -3.3 20.9417556990315
-1.1 -3.2 20.9289165401568
-1.1 -3.1 20.9132602472755
-1.1 -3 20.8941749971358
-1.1 -2.9 20.8709190947476
-1.1 -2.8 20.8425948127761
-1.1 -2.7 20.8081176060725
-1.1 -2.6 20.7661801724007
-1.1 -2.5 20.7152109005143
-1.1 -2.4 20.6533263871484
-1.1 -2.3 20.578277936296
-1.1 -2.2 20.4873922970444
-1.1 -2.1 20.3775073655831
-1.1 -2 20.2449041837861
-1.1 -1.9 20.085237328517
-1.1 -1.8 19.8934667617889
-1.1 -1.7 19.6637955822696
-1.1 -1.6 19.3896203222198
-1.1 -1.5 19.0635043504453
-1.1 -1.4 18.6771920276788
-1.1 -1.3 18.2216934239621
-1.1 -1.2 17.6874882886622
-1.1 -1.1 17.0649233347204
-1.1 -0.999999999999997 16.3449043047468
-1.1 -0.899999999999997 15.5200028812867
-1.1 -0.799999999999997 14.5860908407209
-1.1 -0.699999999999998 13.5445593178479
-1.1 -0.599999999999998 12.4050631365166
-1.1 -0.499999999999998 11.1885456985276
-1.1 -0.399999999999998 9.93006768291007
-1.1 -0.299999999999998 8.68072995982373
-1.1 -0.199999999999998 7.5078260279929
-1.1 -0.0999999999999976 6.49238500068396
-1.1 2.41473507855972E-15 5.723573405295
-1.1 0.100000000000002 5.29005570219978
-1.1 0.200000000000002 5.26928453821319
-1.1 0.300000000000002 5.71655222607585
-1.1 0.400000000000002 6.65612474610999
-1.1 0.500000000000002 8.07659323048432
-1.1 0.600000000000002 9.93166200073552
-1.1 0.700000000000002 12.1462329929593
-1.1 0.800000000000002 14.6263525877668
-1.1 0.900000000000002 17.2708255666751
-1.1 1 19.9822656817522
-1.1 1.1 22.6759128889928
-1.1 1.2 25.2853808961512
-1.1 1.3 27.7652809311749
-1.1 1.4 30.0912003863058
-1.1 1.5 32.2577510069201
-1.1 1.6 34.2753992852104
-1.1 1.7 36.1666538176731
-1.1 1.8 37.9620085063118
-1.1 1.9 39.6958953535309
-1.1 2 41.4028185862977
-1.1 2.1 43.11382274979
-1.1 2.2 44.8534682933943
-1.1 2.3 46.6375157343928
-1.1 2.4 48.4715220045696
-1.1 2.5 50.3505087185177
-1.1 2.6 52.2597652841549
-1.1 2.7 54.1767092633261
-1.1 2.8 56.0735669594861
-1.1 2.9 57.9204969483282
-1.1 3 59.6887013636136
-1.1 3.1 61.3530861142597
-1.1 3.2 62.8941445819108
-1.1 3.3 64.2989170728072
-1.1 3.4 65.56106523242
-1.1 3.5 66.6802442378247
-1.1 3.6 67.6610271418002
-1.1 3.7 68.5116362230798
-1.1 3.8 69.2426874314825
-1.1 3.9 69.8660841574997
-0.999999999999997 -4 70.7702138203936
-0.999999999999997 -3.9 20.9785609024554
-0.999999999999997 -3.8 20.9738218871774
-0.999999999999997 -3.7 20.9680367022952
-0.999999999999997 -3.6 20.9609750691549
-0.999999999999997 -3.5 20.9523563487435
-0.999999999999997 -3.4 20.9418386879278
-0.999999999999997 -3.3 20.92900590409
-0.999999999999997 -3.2 20.9133516746064
-0.999999999999997 -3.1 20.8942605329738
-0.999999999999997 -3 20.8709851085794
-0.999999999999997 -2.9 20.8426189880872
-0.999999999999997 -2.8 20.8080645326892
-0.999999999999997 -2.7 20.7659949715171
-0.999999999999997 -2.6 20.7148101284471
-0.999999999999997 -2.5 20.6525852570936
-0.999999999999997 -2.4 20.5770126972501
-0.999999999999997 -2.3 20.4853364779037
-0.999999999999997 -2.2 20.3742806429588
-0.999999999999997 -2.1 20.2399730450342
-0.999999999999997 -2 20.0778677326077
-0.999999999999997 -1.9 19.8826709548319
-0.999999999999997 -1.8 19.6482783624622
-0.999999999999997 -1.7 19.3677343862252
-0.999999999999997 -1.6 19.0332293357795
-0.999999999999997 -1.5 18.6361559906514
-0.999999999999997 -1.4 18.1672561025144
-0.999999999999997 -1.3 17.6168991624549
-0.999999999999997 -1.2 16.9755514049073
-0.999999999999997 -1.1 16.2345109104805
-0.999999999999997 -0.999999999999997 15.3869994560956
-0.999999999999997 -0.899999999999997 14.4297018038398
-0.999999999999997 -0.799999999999997 13.3648098782035
-0.999999999999997 -0.699999999999998 12.2025408949309
-0.999999999999997 -0.599999999999998 10.9639394596169
-0.999999999999997 -0.499999999999998 9.68354959744985
-0.999999999999997 -0.399999999999998 8.41129548964024
-0.999999999999997 -0.299999999999998 7.21272460852528
-0.999999999999997 -0.199999999999998 6.1667619210941
-0.999999999999997 -0.0999999999999976 5.36041264437042
-0.999999999999997 2.41473507855972E-15 4.88047943675026
-0.999999999999997 0.100000000000002 4.80323447416246
-0.999999999999997 0.200000000000002 5.18384408761596
-0.999999999999997 0.300000000000002 6.04781550250858
-0.999999999999997 0.400000000000002 7.38652217182972
-0.999999999999997 0.500000000000002 9.15793347813597
-0.999999999999997 0.600000000000002 11.2923374780266
-0.999999999999997 0.700000000000002 13.7016218632198
-0.999999999999997 0.800000000000002 16.2900182053944
-0.999999999999997 0.900000000000002 18.9642680645901
-0.999999999999997 1 21.6417599682872
-0.999999999999997 1.1 24.2559705257622
-0.999999999999997 1.2 26.7592163692348
-0.999999999999997 1.3 29.1231356851855
-0.999999999999997 1.4 31.337468686904
-0.999999999999997 1.5 33.4076768272403
-0.999999999999997 1.6 35.3518260485443
-0.999999999999997 1.7 37.1970336632699
-0.999999999999997 1.8 38.9756865299093
-0.999999999999997 1.9 40.7216000578909
-0.999999999999997 2 42.4663021046252
-0.999999999999997 2.1 44.2356731475255
-0.999999999999997 2.2 46.0472206000885
-0.999999999999997 2.3 47.9082738255049
-0.999999999999997 2.4 49.8153307587675
-0.999999999999997 2.5 51.7546619268973
-0.999999999999997 2.6 53.7041019713268
-0.999999999999997 2.7 55.6357700036737
-0.999999999999997 2.8 57.5193045176604
-0.999999999999997 2.9 59.325119383395
-0.999999999999997 3 61.027211049224
-0.999999999999997 3.1 62.6051702355384
-0.999999999999997 3.2 64.0452381935481
-0.999999999999997 3.3 65.3404421147777
-0.999999999999997 3.4 66.4899940186775
-0.999999999999997 3.5 67.4982134862812
-0.999999999999997 3.6 68.37323753658
-0.999999999999997 3.7 69.1257325361748
-0.999999999999997 3.8 69.767751905704
-0.999999999999997 3.9 70.3118133121
-0.899999999999997 -4 71.090873429098
-0.899999999999997 -3.9 20.973873265294
-0.899999999999997 -3.8 20.9680981069115
-0.899999999999997 -3.7 20.9610480749653
-0.899999999999997 -3.6 20.9524425688887
-0.899999999999997 -3.5 20.9419396340539
-0.899999999999997 -3.4 20.9291227453634
-0.899999999999997 -3.3 20.9134848411448
-0.899999999999997 -3.2 20.8944090830533
-0.899999999999997 -3.1 20.8711457416011
-0.899999999999997 -3 20.8427845324873
-0.899999999999997 -2.9 20.8082216646517
-0.899999999999997 -2.8 20.766120820706
-0.899999999999997 -2.7 20.714867295422
-0.899999999999997 -2.6 20.6525146001778
-0.899999999999997 -2.5 20.5767230469468
-0.899999999999997 -2.4 20.4846902198186
-0.899999999999997 -2.3 20.3730739143184
-0.899999999999997 -2.2 20.237909192766
-0.899999999999997 -2.1 20.0745228173138
-0.899999999999997 -2 19.8774506627218
-0.899999999999997 -1.9 19.6403669865269
-0.899999999999997 -1.8 19.3560388665823
-0.899999999999997 -1.7 19.0163249170489
-0.899999999999997 -1.6 18.6122447295162
-0.899999999999997 -1.5 18.1341544121852
-0.899999999999997 -1.4 17.5720739361782
-0.899999999999997 -1.3 16.9162230457684
-0.899999999999997 -1.2 16.1578324426114
-0.899999999999997 -1.1 15.2903018261607
-0.899999999999997 -0.999999999999997 14.3107684670101
-0.899999999999997 -0.899999999999997 13.2221165773731
-0.899999999999997 -0.799999999999997 12.0353817096628
-0.899999999999997 -0.699999999999998 10.7723696516093
-0.899999999999997 -0.599999999999998 9.46811305511656
-0.899999999999997 -0.499999999999998 8.17255985727684
-0.899999999999997 -0.399999999999998 6.95070030755017
-0.899999999999997 -0.299999999999998 5.88031255341953
-0.899999999999997 -0.199999999999998 5.04676620594587
-0.899999999999997 -0.0999999999999976 4.53493076711726
-0.899999999999997 2.41473507855972E-15 4.41910629642365
-0.899999999999997 0.100000000000002 4.75275866696332
-0.899999999999997 0.200000000000002 5.56031801097665
-0.899999999999997 0.300000000000002 6.83307238985748
-0.899999999999997 0.400000000000002 8.53022434714169
-0.899999999999997 0.500000000000002 10.5848027377418
-0.899999999999997 0.600000000000002 12.9128843702397
-0.899999999999997 0.700000000000002 15.4239546308598
-0.899999999999997 0.800000000000002 18.0303769612249
-0.899999999999997 0.900000000000002 20.6546430314145
-0.899999999999997 1 23.233945918072
-0.899999999999997 1.1 25.722308437452
-0.899999999999997 1.2 28.0908451993491
-0.899999999999997 1.3 30.3267675794785
-0.899999999999997 1.4 32.4315878634735
-0.899999999999997 1.5 34.4187826195345
-0.899999999999997 1.6 36.311028430781
-0.899999999999997 1.7 38.1370614403646
-0.899999999999997 1.8 39.9282324889254
-0.899999999999997 1.9 41.7149088292887
-0.899999999999997 2 43.5229783496809
-0.899999999999997 2.1 45.3708029153106
-0.899999999999997 2.2 47.2670022937897
-0.899999999999997 2.3 49.2093982556762
-0.899999999999997 2.4 51.1853039002245
-0.899999999999997 2.5 53.1731316163304
-0.899999999999997 2.6 55.1450647684775
-0.899999999999997 2.7 57.0703522886934
-0.899999999999997 2.8 58.9186915000997
-0.899999999999997 2.9 60.6631877330994
-0.899999999999997 3 62.2825108373629
-0.899999999999997 3.1 63.7620671450356
-0.899999999999997 3.2 65.0942114333706
-0.899999999999997 3.3 66.2776826987126
-0.899999999999997 3.4 67.316530263117
-0.899999999999997 3.5 68.2188031590558
-0.899999999999997 3.6 68.9952279455235
-0.899999999999997 3.7 69.6580275339566
-0.899999999999997 3.8 70.2199610522873
-0.899999999999997 3.9 70.6936069558894
-0.799999999999997 -4 71.362988744512
-0.799999999999997 -3.9 20.9681611957445
-0.799999999999997 -3.8 20.9611240345063
-0.799999999999997 -3.7 20.9525337279599
-0.799999999999997 -3.6 20.9420485872967
-0.799999999999997 -3.5 20.9292522924055
-0.799999999999997 -3.4 20.9136378555578
-0.799999999999997 -3.3 20.8945882692623
-0.799999999999997 -3.2 20.8713532169736
-0.799999999999997 -3.1 20.8430211415095
-0.799999999999997 -3 20.8084858887283
-0.799999999999997 -2.9 20.7664070860014
-0.799999999999997 -2.8 20.7151633966127
-0.799999999999997 -2.7 20.6527978437473
-0.799999999999997 -2.6 20.5769545680896
-0.799999999999997 -2.5 20.4848067396012
-0.799999999999997 -2.4 20.3729759838365
-0.799999999999997 -2.3 20.2374447399753
-0.799999999999997 -2.2 20.0734646197977
-0.799999999999997 -2.1 19.875466311323
-0.799999999999997 -2 19.6369801407755
-0.799999999999997 -1.9 19.350581371557
-0.799999999999997 -1.8 19.0078809581728
-0.799999999999997 -1.7 18.5995909531619
-0.799999999999997 -1.6 18.1157039812991
-0.799999999999997 -1.5 17.5458375207314
-0.799999999999997 -1.4 16.8798046467588
-0.799999999999997 -1.3 16.1084804830807
-0.799999999999997 -1.2 15.2250329169777
-0.799999999999997 -1.1 14.2265695399849
-0.799999999999997 -0.999999999999997 13.1162096922301
-0.799999999999997 -0.899999999999997 11.9055083994042
-0.799999999999997 -0.799999999999997 10.6170274023806
-0.799999999999997 -0.699999999999998 9.28666776126574
-0.799999999999997 -0.599999999999998 7.96517396308345
-0.799999999999997 -0.499999999999998 6.71805581090841
-0.799999999999997 -0.399999999999998 5.62315803203022
-0.799999999999997 -0.299999999999998 4.76535882924228
-0.799999999999997 -0.199999999999998 4.22846489288941
-0.799999999999997 -0.0999999999999976 4.08522023796
-0.799999999999997 2.41473507855972E-15 4.38720225343915
-0.799999999999997 0.100000000000002 5.15685761265867
-0.799999999999997 0.200000000000002 6.38370822573871
-0.799999999999997 0.300000000000002 8.02578429641495
-0.799999999999997 0.400000000000002 10.0159381875335
-0.799999999999997 0.500000000000002 12.2714147612977
-0.799999999999997 0.600000000000002 14.70439630969
-0.799999999999997 0.700000000000002 17.2313814987615
-0.799999999999997 0.800000000000002 19.7800096177134
-0.799999999999997 0.900000000000002 22.2929063912469
-0.799999999999997 1 24.7289257224995
-0.799999999999997 1.1 27.0625833324948
-0.799999999999997 1.2 29.2825118255832
-0.799999999999997 1.3 31.3895367402584
-0.799999999999997 1.4 33.3946502498927
-0.799999999999997 1.5 35.3168875278697
-0.799999999999997 1.6 37.1809713853181
-0.799999999999997 1.7 39.0145988428801
-0.799999999999997 1.8 40.8453662960646
-0.799999999999997 1.9 42.6975101039882
-0.799999999999997 2 44.5888108743956
-0.799999999999997 2.1 46.528110847181
-0.799999999999997 2.2 48.5138806016057
-0.799999999999997 2.3 50.534132085939
-0.799999999999997 2.4 52.5677384547581
-0.799999999999997 2.5 54.5869500993988
-0.799999999999997 2.6 56.5606663587381
-0.799999999999997 2.7 58.4578969155375
-0.799999999999997 2.8 60.2508562705433
-0.799999999999997 2.9 61.9172678490301
-0.799999999999997 3 63.4416637662679
-0.799999999999997 3.1 64.815686602768
-0.799999999999997 3.2 66.0375720636965
-0.799999999999997 3.3 67.1110838264441
-0.799999999999997 3.4 68.0441836525272
-0.799999999999997 3.5 68.8476734459322
-0.799999999999997 3.6 69.5339719965141
-0.799999999999997 3.7 70.1161138494192
-0.799999999999997 3.8 70.6069969444381
-0.799999999999997 3.9 71.018865001404
-0.699999999999998 -4 71.59279483804
-0.699999999999998 -3.9 20.9612006305059
-0.699999999999998 -3.8 20.9526263639309
-0.699999999999998 -3.7 20.942160383383
-0.699999999999998 -3.6 20.9293868536126
-0.699999999999998 -3.5 20.9137992804129
-0.699999999999998 -3.4 20.8947811134395
-0.699999999999998 -3.3 20.8715823799831
-0.699999999999998 -3.2 20.8432916276036
-0.699999999999998 -3.1 20.8088023683253
-0.699999999999998 -3 20.7667731479257
-0.699999999999998 -2.9 20.7155803299894
-0.699999999999998 -2.8 20.6532627160384
-0.699999999999998 -2.7 20.5774572660157
-0.699999999999998 -2.6 20.4853255056678
-0.699999999999998 -2.5 20.3734708071116
-0.699999999999998 -2.4 20.2378477442729
-0.699999999999998 -2.3 20.0736663444721
-0.699999999999998 -2.2 19.8752965286248
-0.699999999999998 -2.1 19.6361816633633
-0.699999999999998 -2 19.3487752930082
-0.699999999999998 -1.9 19.0045221316358
-0.699999999999998 -1.8 18.5939135267208
-0.699999999999998 -1.7 18.1066588128054
-0.699999999999998 -1.6 17.5320265986813
-0.699999999999998 -1.5 16.8594223223967
-0.699999999999998 -1.4 16.0792768829728
-0.699999999999998 -1.3 15.184319910757
-0.699999999999998 -1.2 14.1712914646245
-0.699999999999998 -1.1 13.0430962386423
-0.699999999999998 -0.999999999999997 11.8113127203923
-0.699999999999998 -0.899999999999997 10.4988284777094
-0.699999999999998 -0.799999999999997 9.14218726629807
-0.699999999999998 -0.699999999999998 7.79303448699376
-0.699999999999998 -0.599999999999998 6.51790116655394
-0.699999999999998 -0.499999999999998 5.39557477406906
-0.699999999999998 -0.399999999999998 4.5115779333775
-0.699999999999998 -0.299999999999998 3.94987097756706
-0.699999999999998 -0.199999999999998 3.78273712899707
-0.699999999999998 -0.0999999999999976 4.06064869681301
-0.699999999999998 2.41473507855972E-15 4.80437604566286
-0.699999999999998 0.100000000000002 6.00136912717628
-0.699999999999998 0.200000000000002 7.6074633246392
-0.699999999999998 0.300000000000002 9.55355073014069
-0.699999999999998 0.400000000000002 11.7555640122069
-0.699999999999998 0.500000000000002 14.1254367803006
-0.699999999999998 0.600000000000002 16.5808162907844
-0.699999999999998 0.700000000000002 19.0520366519821
-0.699999999999998 0.800000000000002 21.485833965896
-0.699999999999998 0.900000000000002 23.846133418361
-0.699999999999998 1 26.1127502115622
-0.699999999999998 1.1 28.2789822495631
-0.699999999999998 1.2 30.3489111506114
-0.699999999999998 1.3 32.3349000602173
-0.699999999999998 1.4 34.2554187441563
-0.699999999999998 1.5 36.1330530715161
-0.699999999999998 1.6 37.9924386454544
-0.699999999999998 1.7 39.8579124039954
-0.699999999999998 1.8 41.7508615715173
-0.699999999999998 1.9 43.6869866899547
-0.699999999999998 2 45.6738907680292
-0.699999999999998 2.1 47.7094810935789
-0.699999999999998 2.2 49.7815862671933
-0.699999999999998 2.3 51.8689662895004
-0.699999999999998 2.4 53.9435961034734
-0.699999999999998 2.5 55.9738261478499
-0.699999999999998 2.6 57.9278511877306
-0.699999999999998 2.7 59.7768963425024
-0.699999999999998 2.8 61.4976506528933
-0.699999999999998 2.9 63.0736927909832
-0.699999999999998 3 64.4958878274681
-0.699999999999998 3.1 65.7619224725793
-0.699999999999998 3.2 66.8752516646472
-0.699999999999998 3.3 67.8437490358609
-0.699999999999998 3.4 68.6783101897146
-0.699999999999998 3.5 69.3915828782219
-0.699999999999998 3.6 69.9969200251215
-0.699999999999998 3.7 70.5075874360778
-0.699999999999998 3.8 70.9362145119194
-0.699999999999998 3.9 71.2944523671095
-0.599999999999998 -4 71.7858330147287
-0.599999999999998 -3.9 20.9527187035077
-0.599999999999998 -3.8 20.942272365317
-0.599999999999998 -3.7 20.9295224556626
-0.599999999999998 -3.6 20.9139631847934
-0.599999999999998 -3.5 20.894978778432
-0.599999999999998 -3.4 20.8718200871741
-0.599999999999998 -3.3 20.8435764804433
-0.599999999999998 -3.2 20.8091422036958
-0.599999999999998 -3.1 20.7671763015778
-0.599999999999998 -3 20.7160551661352
-0.599999999999998 -2.9 20.6538167870896
-0.599999999999998 -2.8 20.5780959052476
-0.599999999999998 -2.7 20.4860495669335
-0.599999999999998 -2.6 20.3742731440548
-0.599999999999998 -2.5 20.2387078590358
-0.599999999999998 -2.4 20.0745424269244
-0.599999999999998 -2.3 19.8761138522459
-0.599999999999998 -2.2 19.6368160177604
-0.599999999999998 -2.1 19.3490298569514
-0.599999999999998 -2 19.0040960106819
-0.599999999999998 -1.9 18.5923602501979
-0.599999999999998 -1.8 18.1033336500537
-0.599999999999998 -1.7 17.5260229528523
-0.599999999999998 -1.6 16.8495000849776
-0.599999999999998 -1.5 16.0637898008642
-0.599999999999998 -1.4 15.1611547078486
-0.599999999999998 -1.3 14.137837908019
-0.599999999999998 -1.2 12.9962726139443
-0.599999999999998 -1.1 11.7476720282544
-0.599999999999998 -0.999999999999997 10.4147631116349
-0.599999999999998 -0.899999999999997 9.03423102974761
-0.599999999999998 -0.799999999999997 7.65823129558802
-0.599999999999998 -0.699999999999998 6.35417633367475
-0.599999999999998 -0.599999999999998 5.20201964722552
-0.599999999999998 -0.499999999999998 4.28855523341528
-0.599999999999998 -0.399999999999998 3.69887386006875
-0.599999999999998 -0.299999999999998 3.50598554323265
-0.599999999999998 -0.199999999999998 3.76046693840175
-0.599999999999998 -0.0999999999999976 4.48244663435768
-0.599999999999998 2.41473507855972E-15 5.65798683596485
-0.599999999999998 0.100000000000002 7.24091642046465
-0.599999999999998 0.200000000000002 9.15974059410226
-0.599999999999998 0.300000000000002 11.3279490841527
-0.599999999999998 0.400000000000002 13.6553587646337
-0.599999999999998 0.500000000000002 16.0582344853432
-0.599999999999998 0.600000000000002 18.4666510949201
-0.599999999999998 0.700000000000002 20.8285097569969
-0.599999999999998 0.800000000000002 23.1104481990695
-0.599999999999998 0.900000000000002 25.2963977138709
-0.599999999999998 1 27.3847212101598
-0.599999999999998 1.1 29.3847954767034
-0.599999999999998 1.2 31.3136768461416
-0.599999999999998 1.3 33.1931976529184
-0.599999999999998 1.4 35.0475532989929
-0.599999999999998 1.5 36.9012244783507
-0.599999999999998 1.6 38.7769932302266
-0.599999999999998 1.7 40.6938779586027
-0.599999999999998 1.8 42.6650003405447
-0.599999999999998 1.9 44.6956237735736
-0.599999999999998 2 46.78176468131
-0.599999999999998 2.1 48.9097930697924
-0.599999999999998 2.2 51.0572849500462
-0.599999999999998 2.3 53.1951144910071
-0.599999999999998 2.4 55.2904752328077
-0.599999999999998 2.5 57.3103019570359
-0.599999999999998 2.6 59.2244973032436
-0.599999999999998 2.7 61.0084599842029
-0.599999999999998 2.8 62.6446178939735
-0.599999999999998 2.9 64.1229118402074
-0.599999999999998 3 65.4403795871857
-0.599999999999998 3.1 66.6001104657588
-0.599999999999998 3.2 67.6098708213407
-0.599999999999998 3.3 68.4806615279016
-0.599999999999998 3.4 69.2253938598337
-0.599999999999998 3.5 69.857789139662
-0.599999999999998 3.6 70.3915399173948
-0.599999999999998 3.7 70.8397237098265
-0.599999999999998 3.8 71.2144340877998
-0.599999999999998 3.9 71.5265835893536
-0.499999999999998 -4 71.9469453701168
-0.499999999999998 -3.9 20.9423831854853
-0.499999999999998 -3.8 20.9296570706901
-0.499999999999998 -3.7 20.914126525284
-0.499999999999998 -3.6 20.8951767074392
-0.499999999999998 -3.5 20.8720595306142
-0.499999999999998 -3.4 20.8438655500879
-0.499999999999998 -3.3 20.8094902939708
-0.499999999999998 -3.2 20.7675941293584
-0.499999999999998 -3.1 20.7165547045665
-0.499999999999998 -3 20.6544110174562
-0.499999999999998 -2.9 20.5787982713082
-0.499999999999998 -2.8 20.486872958898
-0.499999999999998 -2.7 20.3752281580051
-0.499999999999998 -2.6 20.239799964129
-0.499999999999998 -2.5 20.0757675182589
-0.499999999999998 -2.4 19.8774514634658
-0.499999999999998 -2.3 19.6382192097907
-0.499999999999998 -2.2 19.3504104932818
-0.499999999999998 -2.1 19.0053038018665
-0.499999999999998 -2 18.5931536651322
-0.499999999999998 -1.9 18.1033406750934
-0.499999999999998 -1.8 17.5246899470297
-0.499999999999998 -1.7 16.8460279560091
-0.499999999999998 -1.6 16.0570588402991
-0.499999999999998 -1.5 15.1496431264803
-0.499999999999998 -1.4 14.1195446760818
-0.499999999999998 -1.3 12.9686623512777
-0.499999999999998 -1.2 11.7076670539899
-0.499999999999998 -1.1 10.3588124723175
-0.499999999999998 -0.999999999999997 8.95848402787588
-0.499999999999998 -0.899999999999997 7.55882907653634
-0.499999999999998 -0.799999999999997 6.22764709403227
-0.499999999999998 -0.699999999999998 5.04572433096004
-0.499999999999998 -0.599999999999998 4.10109229038639
-0.499999999999998 -0.499999999999998 3.48033061692914
-0.499999999999998 -0.399999999999998 3.25793532512579
-0.499999999999998 -0.299999999999998 3.48565948182993
-0.499999999999998 -0.199999999999998 4.18421205825255
-0.499999999999998 -0.0999999999999976 5.33944523333609
-0.499999999999998 2.41473507855972E-15 6.90413044400528
-0.499999999999998 0.100000000000002 8.80495477592212
-0.499999999999998 0.200000000000002 10.9530333021119
-0.499999999999998 0.300000000000002 13.2555337907236
-0.499999999999998 0.400000000000002 15.6261251177217
-0.499999999999998 0.500000000000002 17.9926953552844
-0.499999999999998 0.600000000000002 20.3017419886126
-0.499999999999998 0.700000000000002 22.5196480260372
-0.499999999999998 0.800000000000002 24.6315360523094
-0.499999999999998 0.900000000000002 26.6385390964087
-0.499999999999998 1 28.5542520795022
-0.499999999999998 1.1 30.40095316943
-0.499999999999998 1.2 32.2059908174217
-0.499999999999998 1.3 33.9985524070398
-0.499999999999998 1.4 35.8068757812456
-0.499999999999998 1.5 37.6558528245181
-0.499999999999998 1.6 39.5649335075687
-0.499999999999998 1.7 41.5462894129617
-0.499999999999998 1.8 43.6033213772561
-0.499999999999998 1.9 45.7297345397776
-0.499999999999998 2 47.9094715877669
-0.499999999999998 2.1 50.1177299937083
-0.499999999999998 2.2 52.3230912831951
-0.499999999999998 2.3 54.49052652045
-0.499999999999998 2.4 56.5848147820367
-0.499999999999998 2.5 58.5738090312544
-0.499999999999998 2.6 60.4310408160009
-0.499999999999998 2.7 62.1373409432323
-0.499999999999998 2.8 63.6813933416535
-0.499999999999998 2.9 65.0593533866455
-0.499999999999998 3 66.2737964849766
-0.499999999999998 3.1 67.3323039468885
-0.499999999999998 3.2 68.2459598354885
-0.499999999999998 3.3 69.0279581219217
-0.499999999999998 3.4 69.6924359556424
-0.499999999999998 3.5 70.2535773686656
-0.499999999999998 3.6 70.7249814219057
-0.499999999999998 3.7 71.1192599058849
-0.499999999999998 3.8 71.4478177921556
-0.499999999999998 3.9 71.7207689740364
-0.399999999999998 -4 72.080296603564
-0.399999999999998 -3.9 20.9297896856412
-0.399999999999998 -3.8 20.9142877673412
-0.399999999999998 -3.7 20.8953725849608
-0.399999999999998 -3.6 20.872297227847
-0.399999999999998 -3.5 20.8441536140052
-0.399999999999998 -3.4 20.8098388274103
-0.399999999999998 -3.3 20.7680149752859
-0.399999999999998 -3.2 20.7170615952808
-0.399999999999998 -3.1 20.6550196457226
-0.399999999999998 -3 20.5795262151168
-0.399999999999998 -2.9 20.4877393541019
-0.399999999999998 -2.8 20.3762529585314
-0.399999999999998 -2.7 20.2410025512344
-0.399999999999998 -2.6 20.0771643102761
-0.399999999999998 -2.5 19.879052026206
-0.399999999999998 -2.4 19.6400201656902
-0.399999999999998 -2.3 19.3523862676719
-0.399999999999998 -2.2 19.0073929288915
-0.399999999999998 -2.1 18.595239023556
-0.399999999999998 -2 18.1052216895689
-0.399999999999998 -1.9 17.5260445850666
-0.399999999999998 -1.8 16.8463624734185
-0.399999999999998 -1.7 16.0556439909768
-0.399999999999998 -1.6 15.1454373883313
-0.399999999999998 -1.5 14.1111084517973
-0.399999999999998 -1.4 12.954072474759
-0.399999999999998 -1.3 11.6844482178757
-0.399999999999998 -1.2 10.3239103679293
-0.399999999999998 -1.1 8.90831150702913
-0.399999999999998 -0.999999999999997 7.48941722665536
-0.399999999999998 -0.899999999999997 6.13492254528547
-0.399999999999998 -0.799999999999997 4.92590856428402
-0.399999999999998 -0.699999999999998 3.95117941024567
-0.399999999999998 -0.599999999999998 3.29855644827673
-0.399999999999998 -0.499999999999998 3.04412010062842
-0.399999999999998 -0.399999999999998 3.24130760596361
-0.399999999999998 -0.299999999999998 3.91229485773618
-0.399999999999998 -0.199999999999998 5.04386724121982
-0.399999999999998 -0.0999999999999976 6.58896007008741
-0.399999999999998 2.41473507855972E-15 8.47355481813715
-0.399999999999998 0.100000000000002 10.6072369223606
-0.399999999999998 0.200000000000002 12.8949815802811
-0.399999999999998 0.300000000000002 15.2478321798883
-0.399999999999998 0.400000000000002 17.5908816197113
-0.399999999999998 0.500000000000002 19.8679496540247
-0.399999999999998 0.600000000000002 22.0431814294588
-0.399999999999998 0.700000000000002 24.1002674319095
-0.399999999999998 0.800000000000002 26.0400993134396
-0.399999999999998 0.900000000000002 27.8775513391239
-0.399999999999998 1 29.6378633113895
-0.399999999999998 1.1 31.3529090368271
-0.399999999999998 1.2 33.0575147561565
-0.399999999999998 1.3 34.7859432937504
-0.399999999999998 1.4 36.5686548963226
-0.399999999999998 1.5 38.4294676486431
-0.399999999999998 1.6 40.3832563532713
-0.399999999999998 1.7 42.4343475667776
-0.399999999999998 1.8 44.5757839387482
-0.399999999999998 1.9 46.7896195122291
-0.399999999999998 2 49.0483356606493
-0.399999999999998 2.1 51.317318069309
-0.399999999999998 2.2 53.558133814866
-0.399999999999998 2.3 55.7321610873873
-0.399999999999998 2.4 57.8040300131529
-0.399999999999998 2.5 59.7443768525907
-0.399999999999998 2.6 61.5315833875118
-0.399999999999998 2.7 63.1524064524586
-0.399999999999998 2.8 64.6016207184273
-0.399999999999998 2.9 65.8809422105808
-0.399999999999998 3 66.9975504835479
-0.399999999999998 3.1 67.9624988466976
-0.399999999999998 3.2 68.7892275954446
-0.399999999999998 3.3 69.4923083031036
-0.399999999999998 3.4 70.0864711116496
-0.399999999999998 3.5 70.5859123500785
-0.399999999999998 3.6 71.0038477290738
-0.399999999999998 3.7 71.3522625245086
-0.399999999999998 3.8 71.6418086379149
-0.399999999999998 3.9 71.8818038124517
-0.299999999999998 -4 72.1894117115855
-0.299999999999998 -3.9 20.9144461625198
-0.299999999999998 -3.8 20.8955652651916
-0.299999999999998 -3.7 20.8725314352998
-0.299999999999998 -3.6 20.8444380319812
-0.299999999999998 -3.5 20.810183822382
-0.299999999999998 -3.4 20.7684328558621
-0.299999999999998 -3.3 20.7175668745575
-0.299999999999998 -3.2 20.6556292825272
-0.299999999999998 -3.1 20.5802597927683
-0.299999999999998 -3 20.4886191297939
-0.299999999999998 -2.9 20.3773036785342
-0.299999999999998 -2.8 20.2422508717341
-0.299999999999998 -2.7 20.0786375842098
-0.299999999999998 -2.6 19.8807761046921
-0.299999999999998 -2.5 19.6420157091773
-0.299999999999998 -2.4 19.3546628573927
-0.299999999999998 -2.3 19.0099400072894
-0.299999999999998 -2.2 18.5980123754626
-0.299999999999998 -2.1 18.1081238252099
-0.299999999999998 -2 17.5288970571636
-0.299999999999998 -1.9 16.8488679664189
-0.299999999999998 -1.8 16.0573361574081
-0.299999999999998 -1.7 15.1456171792754
-0.299999999999998 -1.6 14.1087675066477
-0.299999999999998 -1.5 12.9478074601183
-0.299999999999998 -1.4 11.6723751811836
-0.299999999999998 -1.3 10.3035951104582
-0.299999999999998 -1.2 8.87673970304144
-0.299999999999998 -1.1 7.44303418071173
-0.299999999999998 -0.999999999999997 6.06977325156344
-0.299999999999998 -0.899999999999997 4.83789948411482
-0.299999999999998 -0.799999999999997 3.83646067514061
-0.299999999999998 -0.699999999999998 3.15398781237836
-0.299999999999998 -0.599999999999998 2.86774366763773
-0.299999999999998 -0.499999999999998 3.0327198710908
-0.299999999999998 -0.399999999999998 3.67280679225893
-0.299999999999998 -0.299999999999998 4.77637395838449
-0.299999999999998 -0.199999999999998 6.2975056635579
-0.299999999999998 -0.0999999999999976 8.1626514769145
-0.299999999999998 2.41473507855972E-15 10.2810517762247
-0.299999999999998 0.100000000000002 12.5565200918108
-0.299999999999998 0.200000000000002 14.8982237360486
-0.299999999999998 0.300000000000002 17.2288312712621
-0.299999999999998 0.400000000000002 19.4893866929136
-0.299999999999998 0.500000000000002 21.6411287481026
-0.299999999999998 0.600000000000002 23.6649746142308
-0.299999999999998 0.700000000000002 25.5595080765465
-0.299999999999998 0.800000000000002 27.3381659958517
-0.299999999999998 0.900000000000002 29.0260570497294
-0.299999999999998 1 30.6566017165595
-0.299999999999998 1.1 32.2680285855215
-0.299999999999998 1.2 33.89972471936
-0.299999999999998 1.3 35.5885020363554
-0.299999999999998 1.4 37.3649640224196
-0.299999999999998 1.5 39.2502796626462
-0.299999999999998 1.6 41.2537403241089
-0.299999999999998 1.7 43.3714575010446
-0.299999999999998 1.8 45.5864500549684
-0.299999999999998 1.9 47.8701871139209
-0.299999999999998 2 50.1854296413813
-0.299999999999998 2.1 52.489992795604
-0.299999999999998 2.2 54.7408844489662
-0.299999999999998 2.3 56.8982131922636
-0.299999999999998 2.4 58.9283292811342
-0.299999999999998 2.5 60.8058489856721
-0.299999999999998 2.6 62.5144592649834
-0.299999999999998 2.7 64.0466307040574
-0.299999999999998 2.8 65.4025228718669
-0.299999999999998 2.9 66.5884247581078
-0.299999999999998 3 67.6150468039242
-0.299999999999998 3.1 68.495903701489
-0.299999999999998 3.2 69.2459340675967
-0.299999999999998 3.3 69.8804199248611
-0.299999999999998 3.4 70.4142081309734
-0.299999999999998 3.5 70.8611993433351
-0.299999999999998 3.6 71.234053593146
-0.299999999999998 3.7 71.5440588024495
-0.299999999999998 3.8 71.8011137449702
-0.299999999999998 3.9 72.0137856155911
-0.199999999999998 -4 72.2772212388251
-0.199999999999998 -3.9 20.8957542108526
-0.199999999999998 -3.8 20.8727613156482
-0.199999999999998 -3.7 20.8447175122087
-0.199999999999998 -3.6 20.8105233015173
-0.199999999999998 -3.5 20.768844763263
-0.199999999999998 -3.4 20.7180659906108
-0.199999999999998 -3.3 20.65623306949
-0.199999999999998 -3.2 20.5809887097071
-0.199999999999998 -3.1 20.4894968871232
-0.199999999999998 -3 20.3783573597955
-0.199999999999998 -2.9 20.2435108090191
-0.199999999999998 -2.8 20.0801368137136
-0.199999999999998 -2.7 19.8825491435604
-0.199999999999998 -2.6 19.6440962760441
-0.199999999999998 -2.5 19.3570799981433
-0.199999999999998 -2.4 19.0127118771839
-0.199999999999998 -2.3 18.6011366662634
-0.199999999999998 -2.2 18.1115635203861
-0.199999999999998 -2.1 17.532559881032
-0.199999999999998 -2 16.8525776339489
-0.199999999999998 -1.9 16.0607934584667
-0.199999999999998 -1.8 15.1483492505314
-0.199999999999998 -1.7 14.1100646484635
