-4 -4 3.20731275760583
-4 -3.9 200.295892432845
-4 -3.8 198.670248740186
-4 -3.7 196.705637875131
-4 -3.6 194.335664702844
-4 -3.5 191.483158387492
-4 -3.4 188.059524130119
-4 -3.3 183.964663197708
-4 -3.2 179.087833155906
-4 -3.1 173.309952515891
-4 -3 166.507996844528
-4 -2.9 158.562259137457
-4 -2.8 149.367303546299
-4 -2.7 138.847342976231
-4 -2.6 126.976396928897
-4 -2.5 113.802794624058
-4 -2.4 99.4762634080054
-4 -2.3 84.2739839723612
-4 -2.2 68.6198526440935
-4 -2.1 53.0893982625234
-4 -2 38.3923861528576
-4 -1.9 25.3272832735209
-4 -1.8 14.7071798633848
-4 -1.7 7.26491927059535
-4 -1.6 3.55375528492959
-4 -1.5 3.86518920472821
-4 -1.4 8.18443690893114
-4 -1.3 16.1954163951695
-4 -1.2 27.3339521919525
-4 -1.1 40.8752393250624
-4 -0.999999999999997 56.0343608269686
-4 -0.899999999999997 72.0588322163456
-4 -0.799999999999997 88.2983208284152
-4 -0.699999999999998 104.245370156122
-4 -0.599999999999998 119.548718068879
-4 -0.499999999999998 134.005666507885
-4 -0.399999999999998 147.541645719117
-4 -0.299999999999998 160.184396061971
-4 -0.199999999999998 172.038162606468
-4 -0.0999999999999976 183.260899497806
-4 2.41473507855972E-15 194.045344194356
-4 0.100000000000002 204.60331650033
-4 0.200000000000002 215.151900931012
-4 0.300000000000002 225.900283219288
-4 0.400000000000002 237.036741299254
-4 0.500000000000002 248.716277170217
-4 0.600000000000002 261.050188098349
-4 0.700000000000002 274.099169113982
-4 0.800000000000002 287.871192461956
-4 0.900000000000002 302.324565504309
-4 1 317.375550494427
-4 1.1 332.909093310132
-4 1.2 348.790806941625
-4 1.3 364.878471639235
-4 1.4 381.031848705649
-4 1.5 397.120312108222
-4 1.6 413.028372094459
-4 1.7 428.659367653425
-4 1.8 443.937422498661
-4 1.9 458.80741228752
-4 2 473.232513832942
-4 2.1 487.189150424188
-4 2.2 500.659822282546
-4 2.3 513.625160934916
-4 2.4 526.057153675782
-4 2.5 537.915473186341
-4 2.6 549.148094536714
-4 2.7 559.696122251833
-4 2.8 569.501486676591
-4 2.9 578.515413086595
-4 3 586.705570840929
-4 3.1 594.060464030103
-4 3.2 600.590571672326
-4 3.3 606.326598797418
-4 3.4 611.315720799745
-4 3.5 615.616848485029
-4 3.6 619.295805271135
-4 3.7 622.421033790035
-4 3.8 625.060158207403
-4 3.9 627.277492755402
-3.9 -4 308.99660529995
-3.9 -3.9 208.452339325391
-3.9 -3.8 208.640312145381
-3.9 -3.7 208.891671343813
-3.9 -3.6 209.22202206718
-3.9 -3.5 209.648783961203
-3.9 -3.4 210.19097529488
-3.9 -3.3 210.869091934466
-3.9 -3.2 211.705205314436
-3.9 -3.1 212.723354734073
-3.9 -3 213.950201874803
-3.9 -2.9 215.41576783151
-3.9 -2.8 217.153922293933
-3.9 -2.7 219.202186823788
-3.9 -2.6 221.60039481646
-3.9 -2.5 224.387857898112
-3.9 -2.4 227.598945361616
-3.9 -2.3 231.257381573025
-3.9 -2.2 235.370042136287
-3.9 -2.1 239.92144815666
-3.9 -2 244.870336227006
-3.9 -1.9 250.149464900644
-3.9 -1.8 255.669182207198
-3.9 -1.7 261.324388644864
-3.9 -1.6 267.003693223888
-3.9 -1.5 272.599079679125
-3.9 -1.4 278.014422098385
-3.9 -1.3 283.171644748668
-3.9 -1.2 288.013989076774
-3.9 -1.1 292.506486245578
-3.9 -0.999999999999997 296.634171183114
-3.9 -0.899999999999997 300.398766996556
-3.9 -0.799999999999997 303.814563746912
-3.9 -0.699999999999998 306.904101374591
-3.9 -0.599999999999998 309.694122886049
-3.9 -0.499999999999998 312.212133217614
-3.9 -0.399999999999998 314.483784102881
-3.9 -0.299999999999998 316.531187595089
-3.9 -0.199999999999998 318.372128318932
-3.9 -0.0999999999999976 320.020007790905
-3.9 2.41473507855972E-15 321.484244457443
-3.9 0.100000000000002 322.770803695379
-3.9 0.200000000000002 323.88255853364
-3.9 0.300000000000002 324.819274336519
-3.9 0.400000000000002 325.577139215193
-3.9 0.500000000000002 326.147888775229
-3.9 0.600000000000002 326.517664814945
-3.9 0.700000000000002 326.665780579955
-3.9 0.800000000000002 326.563536263616
-3.9 0.900000000000002 326.173155747901
-3.9 1 325.446836861278
-3.9 1.1 324.325868544449
-3.9 1.2 322.739804896237
-3.9 1.3 320.605807304065
-3.9 1.4 317.828450334337
-3.9 1.5 314.300493560379
-3.9 1.6 309.905306966164
-3.9 1.7 304.521768970532
-3.9 1.8 298.032507878513
-3.9 1.9 290.336295922207
-3.9 2 281.365169218051
-3.9 2.1 271.106339709261
-3.9 2.2 259.628066253269
-3.9 2.3 247.107268309197
-3.9 2.4 233.854826978731
-3.9 2.5 220.332508766743
-3.9 2.6 207.153921983679
-3.9 2.7 195.061890784666
-3.9 2.8 184.877212038587
-3.9 2.9 177.419527950397
-3.9 3 173.409287698353
-3.9 3.1 173.368042572642
-3.9 3.2 177.539003310806
-3.9 3.3 185.847795888544
-3.9 3.4 197.914175618231
-3.9 3.5 213.112074270687
-3.9 3.6 230.662972310673
-3.9 3.7 249.740876704043
-3.9 3.8 269.567866471066
-3.9 3.9 289.485579186725
-3.8 -4 325.798721914339
-3.8 -3.9 208.326472359807
-3.8 -3.8 208.469958355502
-3.8 -3.7 208.665064035339
-3.8 -3.6 208.925835830992
-3.8 -3.5 209.268352986397
-3.8 -3.4 209.710499504657
-3.8 -3.3 210.271702559446
-3.8 -3.2 210.972760874543
-3.8 -3.1 211.83589550801
-3.8 -3 212.885108073297
-3.8 -2.9 214.146823032402
-3.8 -2.8 215.650639327439
-3.8 -2.7 217.429859514986
-3.8 -2.6 219.52134867989
-3.8 -2.5 221.964248347306
-3.8 -2.4 224.797174314195
-3.8 -2.3 228.053788927161
-3.8 -2.2 231.75705095334
-3.8 -2.1 235.912941915567
-3.8 -2 240.504902866283
-3.8 -1.9 245.490397582552
-3.8 -1.8 250.800787967482
-3.8 -1.7 256.345045121614
-3.8 -1.6 262.016901376181
-3.8 -1.5 267.70419327181
-3.8 -1.4 273.298662605633
-3.8 -1.3 278.70451755761
-3.8 -1.2 283.844532958228
-3.8 -1.1 288.663159257313
-3.8 -0.999999999999997 293.126762455324
-3.8 -0.899999999999997 297.221565534919
-3.8 -0.799999999999997 300.950060500149
-3.8 -0.699999999999998 304.326658002444
-3.8 -0.599999999999998 307.373226030969
-3.8 -0.499999999999998 310.115015399735
-3.8 -0.399999999999998 312.57731561553
-3.8 -0.299999999999998 314.783034425128
-3.8 -0.199999999999998 316.751240710583
-3.8 -0.0999999999999976 318.496557272898
-3.8 2.41473507855972E-15 320.029159947181
-3.8 0.100000000000002 321.355063252022
-3.8 0.200000000000002 322.476371111035
-3.8 0.300000000000002 323.391242192675
-3.8 0.400000000000002 324.093438754318
-3.8 0.500000000000002 324.571458632014
-3.8 0.600000000000002 324.807355331284
-3.8 0.700000000000002 324.775405242446
-3.8 0.800000000000002 324.440777139718
-3.8 0.900000000000002 323.758313470481
-3.8 1 322.671480950092
-3.8 1.1 321.111532125778
-3.8 1.2 318.996971904828
-3.8 1.3 316.23355103416
-3.8 1.4 312.715192221274
-3.8 1.5 308.32645576115
-3.8 1.6 302.947326585876
-3.8 1.7 296.461210180675
-3.8 1.8 288.767010496898
-3.8 1.9 279.795957059846
-3.8 2 269.533348707099
-3.8 2.1 258.044467435594
-3.8 2.2 245.50249753665
-3.8 2.3 232.21439678147
-3.8 2.4 218.638597649058
-3.8 2.5 205.386830233447
-3.8 2.6 193.202283873377
-3.8 2.7 182.908882928325
-3.8 2.8 175.332241710816
-3.8 2.9 171.20117734952
-3.8 3 171.047047888502
-3.8 3.1 175.123000243568
-3.8 3.2 183.363324715259
-3.8 3.3 195.393968814172
-3.8 3.4 210.591820267669
-3.8 3.5 228.17786026928
-3.8 3.6 247.322434358985
-3.8 3.7 267.241466505002
-3.8 3.8 287.268815658617
-3.8 3.9 306.898588938916
-3.7 -4 341.828337695133
-3.7 -3.9 208.232152873035
-3.7 -3.8 208.340218911108
-3.7 -3.7 208.489572040957
-3.7 -3.6 208.692531792883
-3.7 -3.5 208.963607178204
-3.7 -3.4 209.31935272492
-3.7 -3.3 209.778098727463
-3.7 -3.2 210.359638864886
-3.7 -3.1 211.085006014468
-3.7 -3 211.976478854202
-3.7 -2.9 213.0579150477
-3.7 -2.8 214.35539591958
-3.7 -2.7 215.89801047966
-3.7 -2.6 217.718441390548
-3.7 -2.5 219.852890553981
-3.7 -2.4 222.339847825298
-3.7 -2.3 225.217308767988
-3.7 -2.2 228.518317036523
-3.7 -2.1 232.265137512963
-3.7 -2 236.462884832533
-3.7 -1.9 241.09388477299
-3.7 -1.8 246.11423020759
-3.7 -1.7 251.4537450701
-3.7 -1.6 257.019874179075
-3.7 -1.5 262.70506346461
-3.7 -1.4 268.396317799117
-3.7 -1.3 273.985140575429
-3.7 -1.2 279.376114367895
-3.7 -1.1 284.49289043841
-3.7 -0.999999999999997 289.281076017325
-3.7 -0.899999999999997 293.708182583955
-3.7 -0.799999999999997 297.761256850367
-3.7 -0.699999999999998 301.443015755882
-3.7 -0.599999999999998 304.767299058251
-3.7 -0.499999999999998 307.754524938016
-3.7 -0.399999999999998 310.427657992282
-3.7 -0.299999999999998 312.80901307473
-3.7 -0.199999999999998 314.918034085767
-3.7 -0.0999999999999976 316.770009928318
-3.7 2.41473507855972E-15 318.375536287466
-3.7 0.100000000000002 319.740427300556
-3.7 0.200000000000002 320.865748045661
-3.7 0.300000000000002 321.747682364157
-3.7 0.400000000000002 322.377053778052
-3.7 0.500000000000002 322.738446623082
-3.7 0.600000000000002 322.808992305115
-3.7 0.700000000000002 322.556963008868
-3.7 0.800000000000002 321.94034217773
-3.7 0.900000000000002 320.905530123347
-3.7 1 319.386324930859
-3.7 1.1 317.303330191545
-3.7 1.2 314.564009354838
-3.7 1.3 311.063737747868
-3.7 1.4 306.688379483928
-3.7 1.5 301.319100168343
-3.7 1.6 294.840266632267
-3.7 1.7 287.151317145318
-3.7 1.8 278.183323677368
-3.7 1.9 267.920499030056
-3.7 2 256.425999019687
-3.7 2.1 243.869939974406
-3.7 2.2 230.555628879707
-3.7 2.3 216.937880767542
-3.7 2.4 203.625645511324
-3.7 2.5 191.361025698482
-3.7 2.6 180.969277209462
-3.7 2.7 173.280162030543
-3.7 2.8 169.029376440874
-3.7 2.9 168.757259974919
-3.7 3 172.726938735523
-3.7 3.1 180.882299846119
-3.7 3.2 192.857134150577
-3.7 3.3 208.033342388694
-3.7 3.4 225.63350533308
-3.7 3.5 244.826126927199
-3.7 3.6 264.822304170615
-3.7 3.7 284.948868469552
-3.7 3.8 304.691640719588
-3.7 3.9 323.709969642299
-3.6 -4 357.037553140637
-3.6 -3.9 208.162320684909
-3.6 -3.8 208.242689966741
-3.6 -3.7 208.355530055581
-3.6 -3.6 208.511365933323
-3.6 -3.5 208.722957160993
-3.6 -3.4 209.005284984197
-3.6 -3.3 209.375372986209
-3.6 -3.2 209.851969454218
-3.6 -3.1 210.455179991056
-3.6 -3 211.20619058721
-3.6 -2.9 212.127235562089
-3.6 -2.8 213.241917385933
-3.6 -2.7 214.575870222391
-3.6 -2.6 216.157594413768
-3.6 -2.5 218.019114364341
-3.6 -2.4 220.19597807633
-3.6 -2.3 222.726076453735
-3.6 -2.2 225.646864089766
-3.6 -2.1 228.99084451241
-3.6 -2 232.779635141986
-3.6 -1.9 237.017471510165
-3.6 -1.8 241.685481493867
-3.6 -1.7 246.738243581692
-3.6 -1.6 252.103869744238
-3.6 -1.5 257.688115644543
-3.6 -1.4 263.382025793063
-3.6 -1.3 269.071721302037
-3.6 -1.2 274.64846128997
-3.6 -1.1 280.017195751761
-3.6 -0.999999999999997 285.102378528121
-3.6 -0.899999999999997 289.850567285405
-3.6 -0.799999999999997 294.230033438022
-3.6 -0.699999999999998 298.228068266615
-3.6 -0.599999999999998 301.846863027368
-3.6 -0.499999999999998 305.098816293195
-3.6 -0.399999999999998 308.001969586902
-3.6 -0.299999999999998 310.57606620718
-3.6 -0.199999999999998 312.839510609225
-3.6 -0.0999999999999976 314.807297613333
-3.6 2.41473507855972E-15 316.489798318185
-3.6 0.100000000000002 317.89215375245
-3.6 0.200000000000002 319.01395943831
-3.6 0.300000000000002 319.848934659239
-3.6 0.400000000000002 320.384350263598
-3.6 0.500000000000002 320.600110650658
-3.6 0.600000000000002 320.467513048712
-3.6 0.700000000000002 319.947809533189
-3.6 0.800000000000002 318.990760344665
-3.6 0.900000000000002 317.533397791019
-3.6 1 315.499241746265
-3.6 1.1 312.79824936987
-3.6 1.2 309.327864589609
-3.6 1.3 304.975661144383
-3.6 1.4 299.624228251336
-3.6 1.5 293.159088000505
-3.6 1.6 285.480490630445
-3.6 1.7 276.519811529527
-3.6 1.8 266.260847089095
-3.6 1.9 254.765437206456
-3.6 2 242.201427658805
-3.6 2.1 228.869053489117
-3.6 2.2 215.219665896167
-3.6 2.3 201.859013520778
-3.6 2.4 189.527076264592
-3.6 2.5 179.048891140736
-3.6 2.6 171.256543897338
-3.6 2.7 166.890855486923
-3.6 2.8 166.499833574364
-3.6 2.9 170.356018733562
-3.6 3 178.413236378077
-3.6 3.1 190.314327888632
-3.6 3.2 205.448052519651
-3.6 3.3 223.040728141173
-3.6 3.4 242.261079883457
-3.6 3.5 262.317068628817
-3.6 3.6 282.529641410217
-3.6 3.7 302.376880090283
-3.6 3.8 321.509549507942
-3.6 3.9 339.743696253375
-3.5 -4 371.476303380047
-3.5 -3.9 208.111138799867
-3.5 -3.8 208.170197480278
-3.5 -3.7 208.254405012228
-3.5 -3.6 208.372533101791
-3.5 -3.5 208.535515199025
-3.5 -3.4 208.756566819234
-3.5 -3.3 209.051145106237
-3.5 -3.2 209.436727430888
-3.5 -3.1 209.932440037058
-3.5 -3 210.558632687426
-3.5 -2.9 211.336550970157
-3.5 -2.8 212.288273760337
-3.5 -2.7 213.437033767041
-3.5 -2.6 214.807917694866
-3.5 -2.5 216.428768668382
-3.5 -2.4 218.330928430567
-3.5 -2.3 220.549313634607
-3.5 -2.2 223.121275996934
-3.5 -2.1 226.08380370081
-3.5 -2 229.468918159871
-3.5 -1.9 233.297598444178
-3.5 -1.8 237.573138568223
-3.5 -1.7 242.275331656119
-3.5 -1.6 247.357051548001
-3.5 -1.5 252.744494059958
-3.5 -1.4 258.341550400739
-3.5 -1.3 264.037743958382
-3.5 -1.2 269.71824329267
-3.5 -1.1 275.274005496083
-3.5 -0.999999999999997 280.610236000517
-3.5 -0.899999999999997 285.651953678863
-3.5 -0.799999999999997 290.34624741481
-3.5 -0.699999999999998 294.661522579276
-3.5 -0.599999999999998 298.584493789378
-3.5 -0.499999999999998 302.11585187134
-3.5 -0.399999999999998 305.265480600363
-3.5 -0.299999999999998 308.047915578495
-3.5 -0.199999999999998 310.47850143942
-3.5 -0.0999999999999976 312.570463205322
-3.5 2.41473507855972E-15 314.33289122951
-3.5 0.100000000000002 315.769467928849
-3.5 0.200000000000002 316.877658312067
-3.5 0.300000000000002 317.648058801859
-3.5 0.400000000000002 318.063648723273
-3.5 0.500000000000002 318.098796359541
-3.5 0.600000000000002 317.718004701715
-3.5 0.700000000000002 316.874509552654
-3.5 0.800000000000002 315.508945774318
-3.5 0.900000000000002 313.548375278453
-3.5 1 310.906036270191
-3.5 1.1 307.482245904381
-3.5 1.2 303.166981437869
-3.5 1.3 297.844777251585
-3.5 1.4 291.402682698256
-3.5 1.5 283.742072742369
-3.5 1.6 274.794995663234
-3.5 1.7 264.545348535307
-3.5 1.8 253.054342766504
-3.5 1.9 240.488343471305
-3.5 2 227.145253325356
-3.5 2.1 213.473445105711
-3.5 2.2 200.075497158885
-3.5 2.3 187.688708834418
-3.5 2.4 177.136737290363
-3.5 2.5 169.252362827574
-3.5 2.6 164.779709383241
-3.5 2.7 164.272804643383
-3.5 2.8 168.012500307087
-3.5 2.9 175.96227904688
-3.5 3 187.774676994325
-3.5 3.1 202.846777378549
-3.5 3.2 220.410642421438
-3.5 3.3 239.63739649974
-3.5 3.4 259.733853075862
-3.5 3.5 280.016606836632
-3.5 3.6 299.956939548481
-3.5 3.7 319.197366242232
-3.5 3.8 337.545305951707
-3.5 3.9 354.951000733286
-3.4 -4 385.261475900468
-3.4 -3.9 208.073914256658
-3.4 -3.8 208.116801819417
-3.4 -3.7 208.178902799167
-3.4 -3.6 208.267365978803
-3.4 -3.5 208.391333569287
-3.4 -3.4 208.562167477566
-3.4 -3.3 208.793550448163
-3.4 -3.2 209.101411491503
-3.4 -3.1 209.503655652768
-3.4 -3 210.019733789828
-3.4 -2.9 210.670157938725
-3.4 -2.8 211.47612726816
-3.4 -2.7 212.459445899014
-3.4 -2.6 213.642860276161
-3.4 -2.5 215.050814208223
-3.4 -2.4 216.710435189097
-3.4 -2.3 218.652369740217
-3.4 -2.2 220.91093408169
-3.4 -2.1 223.5229994186
-3.4 -2 226.525146046354
-3.4 -1.9 229.948937101642
-3.4 -1.8 233.814671302692
-3.4 -1.7 238.124577445483
-3.4 -1.6 242.856916674577
-3.4 -1.5 247.962619501856
-3.4 -1.4 253.365729734396
-3.4 -1.3 258.968077535097
-3.4 -1.2 264.657516612768
-3.4 -1.1 270.318133646531
-3.4 -0.999999999999997 275.840412527104
-3.4 -0.899999999999997 281.129526182673
-3.4 -0.799999999999997 286.110588529267
-3.4 -0.699999999999998 290.730530988324
-3.4 -0.599999999999998 294.9569853745
-3.4 -0.499999999999998 298.774994219803
-3.4 -0.399999999999998 302.182509777014
-3.4 -0.299999999999998 305.185556427634
-3.4 -0.199999999999998 307.79371771862
-3.4 -0.0999999999999976 310.016351356105
-3.4 2.41473507855972E-15 311.859686005557
-3.4 0.100000000000002 313.324744016574
-3.4 0.200000000000002 314.405886035971
-3.4 0.300000000000002 315.089703129276
-3.4 0.400000000000002 315.35399522974
-3.4 0.500000000000002 315.166660904926
-3.4 0.600000000000002 314.484457199173
-3.4 0.700000000000002 313.251739290134
-3.4 0.800000000000002 311.399434221609
-3.4 0.900000000000002 308.844630361512
-3.4 1 305.491275195328
-3.4 1.1 301.232574091431
-3.4 1.2 295.955773666795
-3.4 1.3 289.550083554752
-3.4 1.4 281.918501176835
-3.4 1.5 272.994176868482
-3.4 1.6 262.761567958301
-3.4 1.7 251.281829245082
-3.4 1.8 238.720548908089
-3.4 1.9 225.374064413925
-3.4 2 211.688448366578
-3.4 2.1 198.263496959078
-3.4 2.2 185.83373531597
-3.4 2.3 175.220749447975
-3.4 2.4 167.256740551695
-3.4 2.5 162.687450885379
-3.4 2.6 162.071141754052
-3.4 2.7 165.695471485544
-3.4 2.8 173.532719170112
-3.4 2.9 185.24513654953
-3.4 3 200.239075472912
-3.4 3.1 217.754043352602
-3.4 3.2 236.96569559476
-3.4 3.3 257.081874846875
-3.4 3.4 277.416700206637
-3.4 3.5 297.435998354797
-3.4 3.6 316.774752491984
-3.4 3.7 335.231869302649
-3.4 3.8 352.749217807615
-3.4 3.9 369.381425070551
-3.3 -4 398.547450702826
-3.3 -3.9 208.046964886962
-3.3 -3.8 208.077718835854
-3.3 -3.7 208.122974037213
-3.3 -3.6 208.188443707165
-3.3 -3.5 208.281605475122
-3.3 -3.4 208.411994062122
-3.3 -3.3 208.591416320864
-3.3 -3.2 208.834027129413
-3.3 -3.1 209.156213632081
-3.3 -3 209.576269562804
-3.3 -2.9 210.113902068473
-3.3 -2.8 210.789688488579
-3.3 -2.7 211.624662980978
-3.3 -2.6 212.640228010727
-3.3 -2.5 213.858526067014
-3.3 -2.4 215.303267458427
-3.3 -2.3 217.000813981707
-3.3 -2.2 218.98111175387
-3.3 -2.1 221.277907980852
-3.3 -2 223.927639340386
-3.3 -1.9 226.966505808464
-3.3 -1.8 230.425585329638
-3.3 -1.7 234.324387697097
-3.3 -1.6 238.663879926382
-3.3 -1.5 243.420526597671
-3.3 -1.4 248.543022239686
-3.3 -1.3 253.952979909544
-3.3 -1.2 259.549925379111
-3.3 -1.1 265.219819597773
-3.3 -0.999999999999997 270.845411825367
-3.3 -0.899999999999997 276.316349702967
-3.3 -0.799999999999997 281.53723010957
-3.3 -0.699999999999998 286.43248944567
-3.3 -0.599999999999998 290.94788726113
-3.3 -0.499999999999998 295.049044748782
-3.3 -0.399999999999998 298.717907601542
-3.3 -0.299999999999998 301.948105239686
-3.3 -0.199999999999998 304.740059390543
-3.3 -0.0999999999999976 307.096460005736
-3.3 2.41473507855972E-15 309.018459903337
-3.3 0.100000000000002 310.502694559631
-3.3 0.200000000000002 311.539041951568
-3.3 0.300000000000002 312.108920630032
-3.3 0.400000000000002 312.18389506009
-3.3 0.500000000000002 311.724414911462
-3.3 0.600000000000002 310.67864251139
-3.3 0.700000000000002 308.981492362854
-3.3 0.800000000000002 306.554189875499
-3.3 0.900000000000002 303.304831007564
-3.3 1 299.130575348937
-3.3 1.1 293.922220364445
-3.3 1.2 287.571967956746
-3.3 1.3 279.985174535764
-3.3 1.4 271.096709876983
-3.3 1.5 260.892133434605
-3.3 1.6 249.433091440353
-3.3 1.7 236.885021415304
-3.3 1.8 223.543415360895
-3.3 1.9 209.852788954815
-3.3 2 196.41077080625
-3.3 2.1 183.949400232722
-3.3 2.2 173.287973888422
-3.3 2.3 165.257295432021
-3.3 2.4 160.603355052817
-3.3 2.5 159.886934519829
-3.3 2.6 163.400783275755
-3.3 2.7 171.124653440099
-3.3 2.8 182.72992370674
-3.3 2.9 197.632549878994
-3.3 3 215.08072028725
-3.3 3.1 234.256528233646
-3.3 3.2 254.371060327397
-3.3 3.3 274.738091655888
-3.3 3.4 294.819721567212
-3.3 3.5 314.24453370672
-3.3 3.6 332.803406444431
-3.3 3.7 350.429731331537
-3.3 3.8 367.170347195028
-3.3 3.9 383.15209413021
-3.2 -4 411.49982156046
-3.2 -3.9 208.027460943491
-3.2 -3.8 208.049186194415
-3.2 -3.7 208.081735639779
-3.2 -3.6 208.129599178114
-3.2 -3.5 208.198775929041
-3.2 -3.4 208.297094602054
-3.2 -3.3 208.434501811886
-3.2 -3.2 208.623260638851
-3.2 -3.1 208.877994499572
-3.2 -3 209.215522858306
-3.2 -2.9 209.654473958567
-3.2 -2.8 210.21472604706
-3.2 -2.7 210.91680856713
-3.2 -2.6 211.781459110448
-3.2 -2.5 212.829543974572
-3.2 -2.4 214.082482390624
-3.2 -2.3 215.563163558483
-3.2 -2.2 217.297137550825
-3.2 -2.1 219.313644545388
-3.2 -2 221.645882819467
-3.2 -1.9 224.329871810242
-3.2 -1.8 227.401408688259
-3.2 -1.7 230.890988756402
-3.2 -1.6 234.817140272693
-3.2 -1.5 239.179285578665
-3.2 -1.4 243.951749444758
-3.2 -1.3 249.080628474811
-3.2 -1.2 254.484755230169
-3.2 -1.1 260.061012667077
-3.2 -0.999999999999997 265.693101095077
-3.2 -0.899999999999997 271.261964152257
-3.2 -0.799999999999997 276.655766942081
-3.2 -0.699999999999998 281.777646350574
-3.2 -0.599999999999998 286.550213528424
-3.2 -0.499999999999998 290.916651219695
-3.2 -0.399999999999998 294.838932070867
-3.2 -0.299999999999998 298.294053740814
-3.2 -0.199999999999998 301.269253912944
-3.2 -0.0999999999999976 303.7570268706
-3.2 2.41473507855972E-15 305.750520430888
-3.2 0.100000000000002 307.239630032796
-3.2 0.200000000000002 308.207877741238
-3.2 0.300000000000002 308.63000075602
-3.2 0.400000000000002 308.470098648108
-3.2 0.500000000000002 307.680210717514
-3.2 0.600000000000002 306.199307445679
-3.2 0.700000000000002 303.952859460847
-3.2 0.800000000000002 300.853360537711
-3.2 0.900000000000002 296.802392477515
-3.2 1 291.694994723247
-3.2 1.1 285.427204628554
-3.2 1.2 277.907622279418
-3.2 1.3 269.073665303959
-3.2 1.4 258.912723637005
-3.2 1.5 247.487584638693
-3.2 1.6 234.964170128873
-3.2 1.7 221.63780776221
-3.2 1.8 207.952192873296
-3.2 1.9 194.503505748421
-3.2 2 182.021849584843
-3.2 2.1 171.324419388961
-3.2 2.2 163.240280738044
-3.2 2.3 158.514735442026
-3.2 2.4 157.709638190896
-3.2 2.5 161.121118432223
-3.2 2.6 168.734794560712
-3.2 2.7 180.230067079665
-3.2 2.8 195.032205265422
-3.2 2.9 212.39873428008
-3.2 3 231.519695245107
-3.2 3.1 251.611495830899
-3.2 3.2 271.989819531815
-3.2 3.3 292.115080549174
-3.2 3.4 311.61100642958
-3.2 3.5 330.261344760802
-3.2 3.6 347.991252041712
-3.2 3.7 364.839460801576
-3.2 3.8 380.925942018601
-3.2 3.9 396.418378106918
-3.1 -4 424.273177016666
-3.1 -3.9 208.01326445207
-3.1 -3.8 208.0283040176
-3.1 -3.7 208.051336882839
-3.1 -3.6 208.085841346476
-3.1 -3.5 208.136550874864
-3.1 -3.4 208.209771472879
-3.1 -3.3 208.313703105194
-3.1 -3.2 208.458719350336
-3.1 -3.1 208.657543381052
-3.1 -3 208.925252406144
-3.1 -2.9 209.279057440934
-3.1 -2.8 209.737849112522
-3.1 -2.7 210.32157243567
-3.1 -2.6 211.050577907841
-3.1 -2.5 211.945160900889
-3.1 -2.4 213.025508169748
-3.1 -2.3 214.312192441897
-3.1 -2.2 215.827192648969
-3.1 -2.1 217.595197256083
-3.1 -2 219.644722394863
-3.1 -1.9 222.008409105425
-3.1 -1.8 224.721826723365
-3.1 -1.7 227.820273075563
-3.1 -1.6 231.333469189932
-3.1 -1.5 235.278664212271
-3.1 -1.4 239.653347884589
-3.1 -1.3 244.429261872683
-3.1 -1.2 249.549441050606
-3.1 -1.1 254.929464507127
-3.1 -0.999999999999997 260.463063298645
-3.1 -0.899999999999997 266.031069464716
-3.1 -0.799999999999997 271.511836436582
-3.1 -0.699999999999998 276.791016954633
-3.1 -0.599999999999998 281.768973881222
-3.1 -0.499999999999998 286.36488851389
-3.1 -0.399999999999998 290.517484977078
-3.1 -0.299999999999998 294.182940184192
-3.1 -0.199999999999998 297.330883024577
-3.1 -0.0999999999999976 299.939430341524
-3.1 2.41473507855972E-15 301.990058980567
-3.1 0.100000000000002 303.462876908763
-3.1 0.200000000000002 304.332611094941
-3.1 0.300000000000002 304.565428434756
-3.1 0.400000000000002 304.116584571791
-3.1 0.500000000000002 302.928876134779
-3.1 0.600000000000002 300.931958472002
-3.1 0.700000000000002 298.042765344867
-3.1 0.800000000000002 294.167491920879
-3.1 0.900000000000002 289.205827431085
-3.1 1 283.058290074259
-3.1 1.1 275.637556629513
-3.1 1.2 266.884513067283
-3.1 1.3 256.789284554913
-3.1 1.4 245.416627514456
-3.1 1.5 232.933699372627
-3.1 1.6 219.636383604451
-3.1 1.7 205.968292194653
-3.1 1.8 192.524912239159
-3.1 1.9 180.035106965415
-3.1 2 169.314454392136
-3.1 2.1 161.190369483022
-3.1 2.2 156.407007208536
-3.1 2.3 155.526253437794
-3.1 2.4 158.846116398222
-3.1 2.5 166.35640590502
-3.1 2.6 177.74308611845
-3.1 2.7 192.439888857592
-3.1 2.8 209.713704990725
-3.1 2.9 228.763498583448
-3.1 3 248.812757632419
-3.1 3.1 269.181279401152
-3.1 3.2 289.330034645238
-3.1 3.3 308.879803588263
-3.1 3.4 327.608530073889
-3.1 3.5 345.433781732551
-3.1 3.6 362.38618515596
-3.1 3.7 378.578325145823
-3.1 3.8 394.172229035388
-3.1 3.9 409.347668442539
-3 -4 436.993433285083
-3 -3.9 208.002781145611
-3 -3.8 208.01287285541
-3 -3.7 208.028799136949
-3 -3.6 208.053221210908
-3 -3.5 208.089820515838
-3 -3.4 208.143592640647
-3 -3.3 208.221169628163
-3 -3.2 208.331139109589
-3 -3.1 208.484310097385
-3 -3 208.693859427228
-3 -2.9 208.975288852487
-3 -2.8 209.34614165538
-3 -2.7 209.825477350587
-3 -2.6 210.433181244359
-3 -2.5 211.189273425793
-3 -2.4 212.11344476914
-3 -2.3 213.225046917825
-3 -2.2 214.543673622466
-3 -2.1 216.090294327206
-3 -2 217.888669202638
-3 -1.9 219.966541359656
-3 -1.8 222.355934101967
-3 -1.7 225.091855504644
-3 -1.6 228.208903445732
-3 -1.5 231.735709685455
-3 -1.4 235.68781405522
-3 -1.3 240.060251149485
-3 -1.2 244.821596984014
-3 -1.1 249.911201227642
-3 -0.999999999999997 255.240711420155
-3 -0.899999999999997 260.699923054839
-3 -0.799999999999997 266.16583615109
-3 -0.699999999999998 271.512996918181
-3 -0.599999999999998 276.623025737191
-3 -0.499999999999998 281.39167001246
-3 -0.399999999999998 285.732521763283
-3 -0.299999999999998 289.577375062845
-3 -0.199999999999998 292.873819399003
-3 -0.0999999999999976 295.580977467809
-3 2.41473507855972E-15 297.664335155521
-3 0.100000000000002 299.090473663711
-3 0.200000000000002 299.822298029067
-3 0.300000000000002 299.815140708885
-3 0.400000000000002 299.013959940995
-3 0.500000000000002 297.351788326643
-3 0.600000000000002 294.749633891093
-3 0.700000000000002 291.118182337138
-3 0.800000000000002 286.361854263623
-3 0.900000000000002 280.385967403786
-3 1 273.107852362193
-3 1.1 264.472663564346
-3 1.2 254.474194790352
-3 1.3 243.180132481676
-3 1.4 230.759782605095
-3 1.5 217.510429382783
-3 1.6 203.876404516206
-3 1.7 190.453295969476
-3 1.8 177.969502899668
-3 1.9 167.239660891883
-3 2 159.089954632593
-3 2.1 154.263381348184
-3 2.2 153.321288518372
-3 2.3 156.562431999287
-3 2.4 163.97928591073
-3 2.5 175.262777461444
-3 2.6 189.853832743038
-3 2.7 207.028145243395
-3 2.8 225.993965191414
-3 2.9 245.98314542744
-3 3 266.321572598634
-3 3.1 286.473060143395
-3 3.2 306.057621810987
-3 3.3 324.849130981141
-3 3.4 342.758649952548
-3 3.5 359.809085098576
-3 3.6 376.105402149935
-3 3.7 391.803281824216
-3 3.8 407.078257518523
-3 3.9 422.097115248262
-2.9 -4 449.745126923146
-2.9 -3.9 207.994832614919
-2.9 -3.8 208.001243991758
-2.9 -3.7 208.011852428206
-2.9 -3.6 208.028670688364
-2.9 -3.5 208.054525352981
-2.9 -3.4 208.093316218756
-2.9 -3.3 208.150317617512
-2.9 -3.2 208.232503181911
-2.9 -3.1 208.348858463554
-2.9 -3 208.510626681985
-2.9 -2.9 208.731417828795
-2.9 -2.8 209.027110140547
-2.9 -2.7 209.415496810361
-2.9 -2.6 209.915686888405
-2.9 -2.5 210.547353093985
-2.9 -2.4 211.330009004136
-2.9 -2.3 212.282557222542
-2.9 -2.2 213.423339909481
-2.9 -2.1 214.770820439902
-2.9 -2 216.344835295032
-2.9 -1.9 218.168112922859
-2.9 -1.8 220.267517199935
-2.9 -1.7 222.674308615676
-2.9 -1.6 225.422707977088
-2.9 -1.5 228.546270486707
-2.9 -1.4 232.072062271311
-2.9 -1.3 236.013311103984
-2.9 -1.2 240.361891030829
-2.9 -1.1 245.082425180466
-2.9 -0.999999999999997 250.109705461775
-2.9 -0.899999999999997 255.35045139997
-2.9 -0.799999999999997 260.689335896886
-2.9 -0.699999999999998 265.998076064618
-2.9 -0.599999999999998 271.145639591664
-2.9 -0.499999999999998 276.007495083786
-2.9 -0.399999999999998 280.472303350141
-2.9 -0.299999999999998 284.445248802738
-2.9 -0.199999999999998 287.848028842567
-2.9 -0.0999999999999976 290.61612589656
-2.9 2.41473507855972E-15 292.694300241799
-2.9 0.100000000000002 294.031298154128
-2.9 0.200000000000002 294.574659703597
-2.9 0.300000000000002 294.266329177304
-2.9 0.400000000000002 293.039598087026
-2.9 0.500000000000002 290.817803928352
-2.9 0.600000000000002 287.515198636688
-2.9 0.700000000000002 283.040485609595
-2.9 0.800000000000002 277.303658645176
-2.9 0.900000000000002 270.226873687495
-2.9 1 261.760021400074
-2.9 1.1 251.901296576736
-2.9 1.2 240.722230713814
-2.9 1.3 228.395269357854
-2.9 1.4 215.220076634609
-2.9 1.5 201.642631869906
-2.9 1.6 188.259506165559
-2.9 1.7 175.799486373606
-2.9 1.8 165.077064413497
-2.9 1.9 156.917849297994
-2.9 2 152.06403776369
-2.9 2.1 151.076332901999
-2.9 2.2 154.253567109201
-2.9 2.3 161.589678486966
-2.9 2.4 172.779036903606
-2.9 2.5 187.268278032117
-2.9 2.6 204.340861366675
-2.9 2.7 223.214077814774
-2.9 2.8 243.128849946469
-2.9 2.9 263.418728676893
-2.9 3 283.552521211879
-2.9 3.1 303.151789827005
-2.9 3.2 321.988407229285
-2.9 3.3 339.968450096454
-2.9 3.4 357.107924880077
-2.9 3.5 373.504304101278
-2.9 3.6 389.30647529488
-2.9 3.7 404.684902026548
-2.9 3.8 419.803609515012
-2.9 3.9 434.795802245193
-2.8 -4 462.564062905529
-2.8 -3.9 207.988550978035
-2.8 -3.8 207.992189843081
-2.8 -3.7 207.998783999328
-2.8 -3.6 208.009837703491
-2.8 -3.5 208.027494216555
-2.8 -3.4 208.054756656936
-2.8 -3.3 208.095756030734
-2.8 -3.2 208.156058186908
-2.8 -3.1 208.242987734221
-2.8 -3 208.365928886085
-2.8 -2.9 208.536543926246
-2.8 -2.8 208.768836376788
-2.8 -2.7 209.078988402536
-2.8 -2.6 209.484931638592
-2.8 -2.5 210.00567328878
-2.8 -2.4 210.660487867582
-2.8 -2.3 211.468174716384
-2.8 -2.2 212.446634302934
-2.8 -2.1 213.612994544689
-2.8 -2 214.984401981416
-2.8 -1.9 216.579390191922
-2.8 -1.8 218.41948629442
-2.8 -1.7 220.530474533319
-2.8 -1.6 222.942579569145
-2.8 -1.5 225.688846599276
-2.8 -1.4 228.801253725532
-2.8 -1.3 232.304611466623
-2.8 -1.2 236.209000530371
-2.8 -1.1 240.502170824046
-2.8 -0.999999999999997 245.143702322772
-2.8 -0.899999999999997 250.062584723923
-2.8 -0.799999999999997 255.159154591478
-2.8 -0.699999999999998 260.311228300496
-2.8 -0.599999999999998 265.383169307921
-2.8 -0.499999999999998 270.235927667765
-2.8 -0.399999999999998 274.736007997608
-2.8 -0.299999999999998 278.76181045362
-2.8 -0.199999999999998 282.206594494838
-2.8 -0.0999999999999976 284.978135264174
-2.8 2.41473507855972E-15 286.995762464706
-2.8 0.100000000000002 288.185813533373
-2.8 0.200000000000002 288.476627235923
-2.8 0.300000000000002 287.794133982899
-2.8 0.400000000000002 286.05895748475
-2.8 0.500000000000002 283.185805963055
-2.8 0.600000000000002 279.085848002181
-2.8 0.700000000000002 273.672744221717
-2.8 0.800000000000002 266.872993764331
-2.8 0.900000000000002 258.641148656651
-2.8 1 248.980094690169
-2.8 1.1 237.96582042398
-2.8 1.2 225.77476444029
-2.8 1.3 212.709957361664
-2.8 1.4 199.22004678356
-2.8 1.5 185.903583122779
-2.8 1.6 173.490696075797
-2.8 1.7 162.796642361988
-2.8 1.8 154.647278000456
-2.8 1.9 149.784634968325
-2.8 2 148.769067609457
-2.8 2.1 151.899288657732
-2.8 2.2 159.169940627347
-2.8 2.3 170.277591803257
-2.8 2.4 184.67311158906
-2.8 2.5 201.646401533955
-2.8 2.6 220.423029102339
-2.8 2.7 240.253082798047
-2.8 2.8 260.478822648573
-2.8 2.9 280.575886304659
-2.8 3 300.1696631547
-2.8 3.1 319.032314504312
-2.8 3.2 337.066842131487
-2.8 3.3 354.28362720932
-2.8 3.4 370.773196230163
-2.8 3.5 386.67752172955
-2.8 3.6 402.161367875736
-2.8 3.7 417.385069720442
-2.8 3.8 432.480433807595
-2.8 3.9 447.531773006537
-2.7 -4 475.435576562611
-2.7 -3.9 207.983295030737
-2.7 -3.8 207.984796828512
-2.7 -3.7 207.98830675426
-2.7 -3.6 207.994932826757
-2.7 -3.5 208.00627775499
-2.7 -3.4 208.024621864746
-2.7 -3.3 208.053152870294
-2.7 -3.2 208.096241328777
-2.7 -3.1 208.159750705474
-2.7 -3 208.251356112087
-2.7 -2.9 208.380826943485
-2.7 -2.8 208.560209694514
-2.7 -2.7 208.803835852811
-2.7 -2.6 209.128086799972
-2.7 -2.5 209.55088374927
-2.7 -2.4 210.090939821467
-2.7 -2.3 210.766903305795
-2.7 -2.2 211.596608648958
-2.7 -2.1 212.596695936386
-2.7 -2 213.782824772367
-2.7 -1.9 215.17057802495
-2.7 -1.8 216.776936703221
-2.7 -1.7 218.621948704077
-2.7 -1.6 220.729973423168
-2.7 -1.5 223.12974126202
-2.7 -1.4 225.852508964911
-2.7 -1.3 228.927885111969
-2.7 -1.2 232.37744752711
-2.7 -1.1 236.206975154274
-2.7 -0.999999999999997 240.398763479297
-2.7 -0.899999999999997 244.905824123794
-2.7 -0.799999999999997 249.649579374834
-2.7 -0.699999999999998 254.521918401055
-2.7 -0.599999999999998 259.391385109334
-2.7 -0.499999999999998 264.112194751293
-2.7 -0.399999999999998 268.534110883639
-2.7 -0.299999999999998 272.511162737626
-2.7 -0.199999999999998 275.907694203357
-2.7 -0.0999999999999976 278.601064242621
-2.7 2.41473507855972E-15 280.481172296261
-2.7 0.100000000000002 281.447648683158
-2.7 0.200000000000002 281.405943779373
-2.7 0.300000000000002 280.263689851991
-2.7 0.400000000000002 277.928668953338
-2.7 0.500000000000002 274.309582080022
-2.7 0.600000000000002 269.320639969795
-2.7 0.700000000000002 262.890800232339
-2.7 0.800000000000002 254.978211423496
-2.7 0.900000000000002 245.589975825488
-2.7 1 234.806544764614
-2.7 1.1 222.808763107249
-2.7 1.2 209.903759208885
-2.7 1.3 196.543784381688
-2.7 1.4 183.330397017497
-2.7 1.5 170.996113096368
-2.7 1.6 160.35797133109
-2.7 1.7 152.243035637949
-2.7 1.8 147.394018509466
-2.7 1.9 146.371542071348
-2.7 2 149.4744349174
-2.7 2.1 156.697764545143
-2.7 2.2 167.739466987114
-2.7 2.3 182.053388224414
-2.7 2.4 198.934483526404
-2.7 2.5 217.615480585522
-2.7 2.6 237.355180246376
-2.7 2.7 257.505006108433
-2.7 2.8 277.548799307682
-2.7 2.9 297.117836930857
-2.7 3 315.986921359003
-2.7 3.1 334.058188028037
-2.7 3.2 351.338101477394
-2.7 3.3 367.911249676696
-2.7 3.4 383.912966441674
-2.7 3.5 399.501971509231
-2.7 3.6 414.834137359324
-2.7 3.7 430.03889165478
-2.7 3.8 445.200219802424
-2.7 3.9 460.344333905833
-2.6 -4 488.298304351181
-2.6 -3.9 207.978585115198
-2.6 -3.8 207.978379710432
-2.6 -3.7 207.979450048177
-2.6 -3.6 207.982595476527
-2.6 -3.5 207.988992874765
-2.6 -3.4 208.000344857646
-2.6 -3.3 208.019071193582
-2.6 -3.2 208.048546651667
-2.6 -3.1 208.09338195983
-2.6 -3 208.159733469764
-2.6 -2.9 208.255611155018
-2.6 -2.8 208.391135256416
-2.6 -2.7 208.578673883993
-2.6 -2.6 208.832785608593
-2.6 -2.5 209.16990358423
-2.6 -2.4 209.607740672895
-2.6 -2.3 210.164469895989
-2.6 -2.2 210.857828077282
-2.6 -2.1 211.704373253529
-2.6 -2 212.719159781945
-2.6 -1.9 213.916046108658
-2.6 -1.8 215.308706114315
-2.6 -1.7 216.912190679901
-2.6 -1.6 218.744623667783
-2.6 -1.5 220.828381463275
-2.6 -1.4 223.189980733094
-2.6 -1.3 225.857970685219
-2.6 -1.2 228.858450830951
-2.6 -1.1 232.208400855342
-2.6 -0.999999999999997 235.907704298941
-2.6 -0.899999999999997 239.931365937203
-2.6 -0.799999999999997 244.223716199198
-2.6 -0.699999999999998 248.696174649406
-2.6 -0.599999999999998 253.229386501241
-2.6 -0.499999999999998 257.679454220958
-2.6 -0.399999999999998 261.88693234689
-2.6 -0.299999999999998 265.686615713188
-2.6 -0.199999999999998 268.916134856359
-2.6 -0.0999999999999976 271.421929681496
-2.6 2.41473507855972E-15 273.062061410862
-2.6 0.100000000000002 273.70624760106
-2.6 0.200000000000002 273.234240160292
-2.6 0.300000000000002 271.534107117652
-2.6 0.400000000000002 268.502123822652
-2.6 0.500000000000002 264.045881388004
-2.6 0.600000000000002 258.091937560215
-2.6 0.700000000000002 250.598890576476
-2.6 0.800000000000002 241.576111148702
-2.6 0.900000000000002 231.107420484369
-2.6 1 219.377634945309
-2.6 1.1 206.698081325514
-2.6 1.2 193.525138251831
-2.6 1.3 180.464192077579
-2.6 1.4 168.251135400362
-2.6 1.5 157.705849023425
-2.6 1.6 149.657665903191
-2.6 1.7 144.850982564486
-2.6 1.8 143.847551442304
-2.6 1.9 146.946911693901
-2.6 2 154.144732708884
-2.6 2.1 165.139965373945
-2.6 2.2 179.38855311068
-2.6 2.3 196.189272029691
-2.6 2.4 214.780756763699
-2.6 2.5 234.429659081169
-2.6 2.6 254.49645622691
-2.6 2.7 274.474012928713
-2.6 2.8 294.001172910345
-2.6 2.9 312.857617871281
-2.6 3 330.946986194834
-2.6 3.1 348.27390123393
-2.6 3.2 364.91848419856
-2.6 3.3 381.010160576591
-2.6 3.4 396.701626537332
-2.6 3.5 412.143759307123
-2.6 3.6 427.462738312452
-2.6 3.7 442.741233548594
-2.6 3.8 458.005763287588
-2.6 3.9 473.221940881415
-2.5 -4 501.052798129624
-2.5 -3.9 207.974053324768
-2.5 -3.8 207.972414644157
-2.5 -3.7 207.97147185877
-2.5 -3.6 207.971782231013
-2.5 -3.5 207.974186276879
-2.5 -3.4 207.979925567098
-2.5 -3.3 207.990798487065
-2.5 -3.2 208.009359496378
-2.5 -3.1 208.039163538843
-2.5 -3 208.085049636867
-2.5 -2.9 208.153445398221
-2.5 -2.8 208.252657222393
-2.5 -2.7 208.393091620128
-2.5 -2.6 208.587336735871
-2.5 -2.5 208.850028940295
-2.5 -2.4 209.197448107645
-2.5 -2.3 209.646834988691
-2.5 -2.2 210.215503566505
-2.5 -2.1 210.919914154629
-2.5 -2 211.774948326783
-2.5 -1.9 212.793647418048
-2.5 -1.8 213.987612908458
-2.5 -1.7 215.36811050331
-2.5 -1.6 216.947687876555
-2.5 -1.5 218.741853567004
-2.5 -1.4 220.770140032771
-2.5 -1.3 223.055771620705
-2.5 -1.2 225.623258863991
-2.5 -1.1 228.493589784469
-2.5 -0.999999999999997 231.677262986025
-2.5 -0.899999999999997 235.166091251136
-2.5 -0.799999999999997 238.925298493766
-2.5 -0.699999999999998 242.887701017256
-2.5 -0.599999999999998 246.951524375027
-2.5 -0.499999999999998 250.982640318504
-2.5 -0.399999999999998 254.820917844653
-2.5 -0.299999999999998 258.289343532747
-2.5 -0.199999999999998 261.203963940835
-2.5 -0.0999999999999976 263.382747982696
-2.5 2.41473507855972E-15 264.652110627951
-2.5 0.100000000000002 264.850825928011
-2.5 0.200000000000002 263.832066512429
-2.5 0.300000000000002 261.465079868432
-2.5 0.400000000000002 257.638409022689
-2.5 0.500000000000002 252.266551475952
-2.5 0.600000000000002 245.301544884069
-2.5 0.700000000000002 236.750192139139
-2.5 0.800000000000002 226.696482682053
-2.5 0.900000000000002 215.327202784598
-2.5 1 202.956785721986
-2.5 1.1 190.045365491614
-2.5 1.2 177.202352903665
-2.5 1.3 165.167632417124
-2.5 1.4 154.764813929949
-2.5 1.5 146.826531318135
-2.5 1.6 142.099941065224
-2.5 1.7 141.148953758165
-2.5 1.8 144.274687521926
-2.5 1.9 151.473980684497
-2.5 2 162.446918913299
-2.5 2.1 176.651129986661
-2.5 2.2 193.388311766292
-2.5 2.3 211.901840417481
-2.5 2.4 231.465151204688
-2.5 2.5 251.447214122214
-2.5 2.6 271.350177360276
-2.5 2.7 290.821634021228
-2.5 2.8 309.64809735828
-2.5 2.9 327.737071749034
-2.5 3 345.093667855202
-2.5 3.1 361.795436125043
-2.5 3.2 377.967105127386
-2.5 3.3 393.755804591621
-2.5 3.4 409.307210053475
-2.5 3.5 424.743575671262
-2.5 3.6 440.1453359421
-2.5 3.7 455.538357606521
-2.5 3.8 470.888677757857
-2.5 3.9 486.105622392166
-2.4 -4 513.573705705935
-2.4 -3.9 207.969405700234
-2.4 -3.8 207.966487529795
-2.4 -3.7 207.96378957537
-2.4 -3.6 207.961676320167
-2.4 -3.5 207.960719716144
-2.4 -3.4 207.961791081219
-2.4 -3.3 207.966185169643
-2.4 -3.2 207.975782875412
-2.4 -3.1 207.993257031493
-2.4 -3 208.022320945272
-2.4 -2.9 208.068010508883
-2.4 -2.8 208.136977208147
-2.4 -2.7 208.237751673364
-2.4 -2.6 208.380918530275
-2.4 -2.5 208.579129525604
-2.4 -2.4 208.846882674837
-2.4 -2.3 209.200020712672
-2.4 -2.2 209.654958360485
-2.4 -2.1 210.227730332569
-2.4 -2 210.933041620728
-2.4 -1.9 211.783567082434
-2.4 -1.8 212.78975405256
-2.4 -1.7 213.960304251497
-2.4 -1.6 215.303344327192
-2.4 -1.5 216.828058300708
-2.4 -1.4 218.54629713793
-2.4 -1.3 220.473471117875
-2.4 -1.2 222.627952254323
-2.4 -1.1 225.028340101542
-2.4 -0.999999999999997 227.688310312475
-2.4 -0.899999999999997 230.609341544101
-2.4 -0.799999999999997 233.772290436449
-2.4 -0.699999999999998 237.129365012631
-2.4 -0.599999999999998 240.598303520674
-2.4 -0.499999999999998 244.060316955348
-2.4 -0.399999999999998 247.362579674631
-2.4 -0.299999999999998 250.324964286401
-2.4 -0.199999999999998 252.749704496278
-2.4 -0.0999999999999976 254.432130965808
-2.4 2.41473507855972E-15 255.170770930971
-2.4 0.100000000000002 254.775861140862
-2.4 0.200000000000002 253.076398741362
-2.4 0.300000000000002 249.926871587026
-2.4 0.400000000000002 245.215454321278
-2.4 0.500000000000002 238.875541128257
-2.4 0.600000000000002 230.90193958361
-2.4 0.700000000000002 221.371878845957
-2.4 0.800000000000002 210.469248304031
-2.4 0.900000000000002 198.508321222124
-2.4 1 185.950954708317
-2.4 1.1 173.409522784911
-2.4 1.2 161.627607169095
-2.4 1.3 151.432833894601
-2.4 1.4 143.661830093044
-2.4 1.5 139.065450425615
-2.4 1.6 138.210809055236
-2.4 1.7 141.401624674955
-2.4 1.8 148.636759044779
-2.4 1.9 159.617961955231
-2.4 2 173.804610281423
-2.4 2.1 190.500867582984
-2.4 2.2 208.953966967355
-2.4 2.3 228.443077580033
-2.4 2.4 248.3448328172
-2.4 2.5 268.170445568835
-2.4 2.6 287.576905239867
-2.4 2.7 306.35908800248
-2.4 2.8 324.430547937228
-2.4 2.9 341.799314039988
-2.4 3 358.542599140536
-2.4 3.1 374.782114715595
-2.4 3.2 390.660365309897
-2.4 3.3 406.318026299312
-2.4 3.4 421.87303069262
-2.4 3.5 437.402801940932
-2.4 3.6 452.931625165424
-2.4 3.7 468.425059347034
-2.4 3.8 483.792460769067
-2.4 3.9 498.897327412647
-2.3 -4 525.723770722444
-2.3 -3.9 207.96439343653
-2.3 -3.8 207.960254276396
-2.3 -3.7 207.955925964657
-2.3 -3.6 207.951615522809
-2.3 -3.5 207.947676078085
-2.3 -3.4 207.944677009834
-2.3 -3.3 207.943500590357
-2.3 -3.2 207.945471612304
-2.3 -3.1 207.952525757131
-2.3 -3 207.967419700263
-2.3 -2.9 207.993980063419
-2.3 -2.8 208.037378265316
-2.3 -2.7 208.10440368001
-2.3 -2.6 208.20368944336
-2.3 -2.5 208.345827541023
-2.3 -2.4 208.543299509484
-2.3 -2.3 208.810155708747
-2.3 -2.2 209.161408655734
-2.3 -2.1 209.612167620442
-2.3 -2 210.176624837226
-2.3 -1.9 210.867087319192
-2.3 -1.8 211.693301826842
-2.3 -1.7 212.662312823413
-2.3 -1.6 213.779003181387
-2.3 -1.5 215.04729297873
-2.3 -1.4 216.471735544381
-2.3 -1.3 218.05900081795
-2.3 -1.2 219.818544558182
-2.3 -1.1 221.761706590194
-2.3 -0.999999999999997 223.898627685935
-2.3 -0.899999999999997 226.23275171192
-2.3 -0.799999999999997 228.753257686611
-2.3 -0.699999999999998 231.426439278532
-2.3 -0.599999999999998 234.187630792042
-2.3 -0.499999999999998 236.935537018288
-2.3 -0.399999999999998 239.530573941184
-2.3 -0.299999999999998 241.79805237971
-2.3 -0.199999999999998 243.535964328298
-2.3 -0.0999999999999976 244.526172017137
-2.3 2.41473507855972E-15 244.547354685821
-2.3 0.100000000000002 243.388321272483
-2.3 0.200000000000002 240.861118298574
-2.3 0.300000000000002 236.814375775985
-2.3 0.400000000000002 231.148087074681
-2.3 0.500000000000002 223.831139411763
-2.3 0.600000000000002 214.922195154656
-2.3 0.700000000000002 204.592956177866
-2.3 0.800000000000002 193.150612443688
-2.3 0.900000000000002 181.053817030659
-2.3 1 168.91458982914
-2.3 1.1 157.478180079122
-2.3 1.2 147.575225749159
-2.3 1.3 140.046138002366
-2.3 1.4 135.645840232938
-2.3 1.5 134.945400733934
-2.3 1.6 138.252085902625
-2.3 1.7 145.56774881001
-2.3 1.8 156.59661286854
-2.3 1.9 170.80028006627
-2.3 2 187.485390776635
-2.3 2.1 205.902556979847
-2.3 2.2 225.335851249076
-2.3 2.3 245.168688362387
-2.3 2.4 264.920805939231
-2.3 2.5 284.258748354566
-2.3 2.6 302.986795651566
-2.3 2.7 321.026406798192
-2.3 2.8 338.390895279282
-2.3 2.9 355.159577927307
-2.3 3 371.453239252877
-2.3 3.1 387.411198107907
-2.3 3.2 403.169805394626
-2.3 3.3 418.842648125404
-2.3 3.4 434.503596118399
-2.3 3.5 450.17452130969
-2.3 3.6 465.819594973201
-2.3 3.7 481.347369683585
-2.3 3.8 496.620559818469
-2.3 3.9 511.471961361433
-2.2 -4 537.367733485873
-2.2 -3.9 207.958790597065
-2.2 -3.8 207.95340993643
-2.2 -3.7 207.947466863131
-2.2 -3.6 207.941034977792
-2.2 -3.5 207.934283470696
-2.2 -3.4 207.927529073993
-2.2 -3.3 207.921309255733
-2.2 -3.2 207.916482668003
-2.2 -3.1 207.914362901483
-2.2 -3 207.916890263087
-2.2 -2.9 207.926842632785
-2.2 -2.8 207.948079385557
-2.2 -2.7 207.98580101913
-2.2 -2.6 208.046791534191
-2.2 -2.5 208.13959264345
-2.2 -2.4 208.274543176598
-2.2 -2.3 208.463611199724
-2.2 -2.2 208.719959522831
-2.2 -2.1 209.057224573119
-2.2 -2 209.488554286653
-2.2 -1.9 210.025532000191
-2.2 -1.8 210.677188363637
-2.2 -1.7 211.449343531571
-2.2 -1.6 212.344500334721
-2.2 -1.5 213.362408941883
-2.2 -1.4 214.501245509353
-2.2 -1.3 215.759115627965
-2.2 -1.2 217.135357284301
-2.2 -1.1 218.630946096449
-2.2 -0.999999999999997 220.247271201596
-2.2 -0.899999999999997 221.982713044246
-2.2 -0.799999999999997 223.826841804826
-2.2 -0.699999999999998 225.752642311394
-2.2 -0.599999999999998 227.707857677662
-2.2 -0.499999999999998 229.607143004277
-2.2 -0.399999999999998 231.326993848393
-2.2 -0.299999999999998 232.705172897032
-2.2 -0.199999999999998 233.545595731338
-2.2 -0.0999999999999976 233.62859727403
-2.2 2.41473507855972E-15 232.725599973324
-2.2 0.100000000000002 230.616815939659
-2.2 0.200000000000002 227.110850045276
-2.2 0.300000000000002 222.065700032933
-2.2 0.400000000000002 215.411203536004
-2.2 0.500000000000002 207.172959817432
-2.2 0.600000000000002 197.496830023931
-2.2 0.700000000000002 186.671286311213
-2.2 0.800000000000002 175.142530965605
-2.2 0.900000000000002 163.515264498983
-2.2 1 152.531419102665
-2.2 1.1 143.021308771031
-2.2 1.2 135.827135811726
-2.2 1.3 131.706964257139
-2.2 1.4 131.23569194111
-2.2 1.5 134.72456384441
-2.2 1.6 142.179175218894
-2.2 1.7 153.307067211311
-2.2 1.8 167.572785368897
-2.2 1.9 184.285846253186
-2.2 2 202.70019827518
-2.2 2.1 222.104340848225
-2.2 2.2 241.887736947297
-2.2 2.3 261.577987441117
-2.2 2.4 280.850988844947
-2.2 2.5 299.520988041289
-2.2 2.6 317.518779798417
-2.2 2.7 334.865106618069
-2.2 2.8 351.643884611438
-2.2 2.9 367.977369465558
-2.2 3 384.003604106806
-2.2 3.1 399.85580397815
-2.2 3.2 415.643637661737
-2.2 3.3 431.437206515548
-2.2 3.4 447.255321823082
-2.2 3.5 463.05991366739
-2.2 3.6 478.757859602801
-2.2 3.7 494.210323605017
-2.2 3.8 509.248243655815
-2.2 3.9 523.691381515804
-2.1 -4 548.384397822598
-2.1 -3.9 207.952376305547
-2.1 -3.8 207.94566413311
-2.1 -3.7 207.938027472687
-2.1 -3.6 207.929421376257
-2.1 -3.5 207.919853764162
-2.1 -3.4 207.909422060017
-2.1 -3.3 207.898366357016
-2.1 -3.2 207.887144384336
-2.1 -3.1 207.8765340178
-2.1 -3 207.867768663721
-2.1 -2.9 207.862708774638
-2.1 -2.8 207.864048047715
-2.1 -2.7 207.875544499892
-2.1 -2.6 207.902254017789
-2.1 -2.5 207.95072772475
-2.1 -2.4 208.029117268164
-2.1 -2.3 208.147119345722
-2.1 -2.2 208.315690322842
-2.1 -2.1 208.546481861522
-2.1 -2 208.850993823248
-2.1 -1.9 209.239508317682
-2.1 -1.8 209.719945555478
-2.1 -1.7 210.296846444591
-2.1 -1.6 210.970713403585
-2.1 -1.5 211.737907339806
-2.1 -1.4 212.591192169726
-2.1 -1.3 213.520841469427
-2.1 -1.2 214.515999487166
-2.1 -1.1 215.56576909737
-2.1 -0.999999999999997 216.659347725909
-2.1 -0.899999999999997 217.784517817085
-2.1 -0.799999999999997 218.92397853124
-2.1 -0.699999999999998 220.049410532277
-2.1 -0.599999999999998 221.113777083849
-2.1 -0.499999999999998 222.043084064512
-2.1 -0.399999999999998 222.729456143936
-2.1 -0.299999999999998 223.027687826562
-2.1 -0.199999999999998 222.7572030866
-2.1 -0.0999999999999976 221.710602155601
-2.1 2.41473507855972E-15 219.66892905249
-2.1 0.100000000000002 216.422840007178
-2.1 0.200000000000002 211.798287977122
-2.1 0.300000000000002 205.685172174313
-2.1 0.400000000000002 198.06732382715
-2.1 0.500000000000002 189.051750187069
-2.1 0.600000000000002 178.893915385331
-2.1 0.700000000000002 168.01408833655
-2.1 0.800000000000002 156.99808820223
-2.1 0.900000000000002 146.575267183832
-2.1 1 137.568598465483
-2.1 1.1 130.817059764218
-2.1 1.2 127.078537939779
-2.1 1.3 126.929830125768
-2.1 1.4 130.685310782024
-2.1 1.5 138.354248436436
-2.1 1.6 149.647919617472
-2.1 1.7 164.034434345658
-2.1 1.8 180.826746873043
-2.1 1.9 199.282430408334
-2.1 2 218.694311233146
-2.1 2.1 238.45744905821
-2.1 2.2 258.106716038912
-2.1 2.3 277.326971039482
-2.1 2.4 295.942603589556
-2.1 2.5 313.894728235942
-2.1 2.6 331.213322275288
-2.1 2.7 347.989292850856
-2.1 2.8 364.348937112971
-2.1 2.9 380.431329635945
-2.1 3 396.36825494524
-2.1 3.1 412.26640491678
-2.1 3.2 428.192318476302
-2.1 3.3 444.161379461587
-2.1 3.4 460.132560059128
-2.1 3.5 476.010210128918
-2.1 3.6 491.653115638514
-2.1 3.7 506.889647069746
-2.1 3.8 521.536572709084
-2.1 3.9 535.41842725789
-2 -4 558.675612353968
-2 -3.9 207.944919794238
-2 -3.8 207.936720662524
-2 -3.7 207.927224580333
-2 -3.6 207.916275298602
-2 -3.5 207.903731926912
-2 -3.4 207.889492454775
-2 -3.3 207.873529632662
-2 -3.2 207.855943626813
-2 -3.1 207.837036541512
-2 -3 207.817414038419
-2 -2.9 207.798118286181
-2 -2.8 207.780793517689
-2 -2.7 207.76787957378
-2 -2.6 207.762819104555
-2 -2.5 207.770250375972
-2 -2.4 207.796141140606
-2 -2.3 207.847803305293
-2 -2.2 207.933719266112
-2 -2.1 208.063116500158
-2 -2 208.24525399104
-2 -1.9 208.488434189755
-2 -1.8 208.798821378212
-2 -1.7 209.179217019751
-2 -1.6 209.627994953061
-2 -1.5 210.138413190566
-2 -1.4 210.69847707582
-2 -1.3 211.291420762744
-2 -1.2 211.896704170799
-2 -1.1 212.491214738418
-2 -0.999999999999997 213.050163743771
-2 -0.899999999999997 213.547038140074
-2 -0.799999999999997 213.951977737652
-2 -0.699999999999998 214.228153355055
-2 -0.599999999999998 214.326160075905
-2 -0.499999999999998 214.17709592095
-2 -0.399999999999998 213.685767469758
-2 -0.299999999999998 212.726143042209
-2 -0.199999999999998 211.141492885028
-2 -0.0999999999999976 208.751400203284
-2 2.41473507855972E-15 205.366965872918
-2 0.100000000000002 200.814257499428
-2 0.200000000000002 194.964681679263
-2 0.300000000000002 187.76971367665
-2 0.400000000000002 179.296303057449
-2 0.500000000000002 169.758122813402
-2 0.600000000000002 159.536572818478
-2 0.700000000000002 149.184420163912
-2 0.800000000000002 139.405030421009
-2 0.900000000000002 131.002479742081
-2 1 124.803219421741
-2 1.1 121.557905594499
-2 1.2 121.840219834804
-2 1.3 125.964393000566
-2 1.4 133.941502170899
-2 1.5 145.485753311467
-2 1.6 160.068720162554
-2 1.7 177.007055554497
-2 1.8 195.562269925917
-2 1.9 215.031643345221
-2 2 234.815662600524
-2 2.1 254.456064826151
-2 2.2 273.646261605762
-2 2.3 292.2207128961
-2 2.4 310.131439951724
-2 2.5 327.419065145272
-2 2.6 344.183641968943
-2 2.7 360.558100956081
-2 2.8 376.685142253906
-2 2.9 392.69729898889
-2 3 408.699773373725
-2 3.1 424.756249888535
-2 3.2 440.878699980221
-2 3.3 457.022653482666
-2 3.4 473.089172674975
-2 3.5 488.933824772935
-2 3.6 504.381624856722
-2 3.7 519.24568150638
-2 3.8 533.346541297719
-2 3.9 546.529221280726
-1.9 -4 568.171562354437
-1.9 -3.9 207.936167012023
-1.9 -3.8 207.926259547028
-1.9 -3.7 207.914652462192
-1.9 -3.6 207.901078875711
-1.9 -3.5 207.885252762245
-1.9 -3.4 207.866880937726
-1.9 -3.3 207.845683703277
-1.9 -3.2 207.821427682566
-1.9 -3.1 207.793975120586
-1.9 -3 207.763354339941
-1.9 -2.9 207.729855735073
-1.9 -2.8 207.694155961891
-1.9 -2.7 207.657468977731
-1.9 -2.6 207.621715370122
-1.9 -2.5 207.58969035063
-1.9 -2.4 207.565196180646
-1.9 -2.3 207.553088665979
-1.9 -2.2 207.559174074893
-1.9 -2.1 207.589888919169
-1.9 -2 207.651707549551
-1.9 -1.9 207.75025601788
-1.9 -1.8 207.889163897931
-1.9 -1.7 208.068750085476
-1.9 -1.6 208.284699450734
-1.9 -1.5 208.52692775784
-1.9 -1.4 208.778836635263
-1.9 -1.3 209.017115444055
-1.9 -1.2 209.21214480668
-1.9 -1.1 209.328900866463
-1.9 -0.999999999999997 209.328072558175
-1.9 -0.899999999999997 209.166930649546
-1.9 -0.799999999999997 208.799388083969
-1.9 -0.699999999999998 208.174733862096
-1.9 -0.599999999999998 207.23476985291
-1.9 -0.499999999999998 205.909570054987
-1.9 -0.399999999999998 204.11279510047
-1.9 -0.299999999999998 201.738309913874
-1.9 -0.199999999999998 198.660527706376
-1.9 -0.0999999999999976 194.741123032834
-1.9 2.41473507855972E-15 189.844249270511
-1.9 0.100000000000002 183.861070877551
-1.9 0.200000000000002 176.742427938233
-1.9 0.300000000000002 168.536116173516
-1.9 0.400000000000002 159.422967146771
-1.9 0.500000000000002 149.744027343003
-1.9 0.600000000000002 140.010130955841
-1.9 0.700000000000002 130.885736062131
-1.9 0.800000000000002 123.141891360942
-1.9 0.900000000000002 117.579124382355
-1.9 1 114.929274801192
-1.9 1.1 115.753566466992
-1.9 1.2 120.359016397823
-1.9 1.3 128.753516984226
-1.9 1.4 140.650974125961
-1.9 1.5 155.524582964503
-1.9 1.6 172.693834072181
-1.9 1.7 191.423892964129
-1.9 1.8 211.016430461805
-1.9 1.9 230.877252457992
-1.9 2 250.554695442362
-1.9 2.1 269.750373740951
-1.9 2.2 288.308624007015
-1.9 2.3 306.192656171865
-1.9 2.4 323.454756480707
-1.9 2.5 340.205954456301
-1.9 2.6 356.588284693118
-1.9 2.7 372.750815823312
-1.9 2.8 388.829401184303
-1.9 2.9 404.929777660187
-1.9 3 421.114042990539
-1.9 3.1 437.391249819084
-1.9 3.2 453.713339041719
-1.9 3.3 469.977510112847
-1.9 3.4 486.035324126486
-1.9 3.5 501.707613881324
-1.9 3.6 516.803071406724
-1.9 3.7 531.13761958312
-1.9 3.8 544.55160153502
-1.9 3.9 556.922445588892
-1.8 -4 576.832418110442
-1.8 -3.9 207.925827734212
-1.8 -3.8 207.913920123581
-1.8 -3.7 207.899860603926
-1.8 -3.6 207.883266362972
-1.8 -3.5 207.863702024635
-1.8 -3.4 207.840681105204
-1.8 -3.3 207.813672800459
-1.8 -3.2 207.782116775665
-1.8 -3.1 207.745449323953
-1.8 -3 207.703144803105
-1.8 -2.9 207.654776339316
-1.8 -2.8 207.600098885568
-1.8 -2.7 207.539155110684
-1.8 -2.6 207.472399386262
-1.8 -2.5 207.400826515481
-1.8 -2.4 207.326079522881
-1.8 -2.3 207.250495730936
-1.8 -2.2 207.177035367245
-1.8 -2.1 207.109027194804
-1.8 -2 207.049667719031
-1.8 -1.9 207.001230225282
-1.8 -1.8 206.963979187071
-1.8 -1.7 206.934840175484
-1.8 -1.6 206.905935078134
-1.8 -1.5 206.863144172634
-1.8 -1.4 206.784888089211
-1.8 -1.3 206.641323446193
-1.8 -1.2 206.394106401068
-1.8 -1.1 205.996791436978
-1.8 -0.999999999999997 205.395800743733
-1.8 -0.899999999999997 204.531743410565
-1.8 -0.799999999999997 203.340726503049
-1.8 -0.699999999999998 201.755242636127
-1.8 -0.599999999999998 199.704308689362
-1.8 -0.499999999999998 197.112828428885
-1.8 -0.399999999999998 193.900686438082
-1.8 -0.299999999999998 189.982805559019
-1.8 -0.199999999999998 185.272144582556
-1.8 -0.0999999999999976 179.688064889283
-1.8 2.41473507855972E-15 173.172259760801
-1.8 0.100000000000002 165.713191776428
-1.8 0.200000000000002 157.377652786531
-1.8 0.300000000000002 148.34496913945
-1.8 0.400000000000002 138.936246197987
-1.8 0.500000000000002 129.628902633859
-1.8 0.600000000000002 121.046722810918
-1.8 0.700000000000002 113.918715998311
-1.8 0.800000000000002 109.006524385394
-1.8 0.900000000000002 107.009021012415
-1.8 1 108.461537715518
-1.8 1.1 113.652241057613
-1.8 1.2 122.576457630213
-1.8 1.3 134.940714672634
-1.8 1.4 150.214848164673
-1.8 1.5 167.717950526365
-1.8 1.6 186.716918715792
-1.8 1.7 206.516751652729
-1.8 1.8 226.527966005169
-1.8 1.9 246.305049616251
-1.8 2 265.557409819361
-1.8 2.1 284.138961863223
-1.8 2.2 302.02414671201
-1.8 2.3 319.277573397147
-1.8 2.4 336.022704366108
-1.8 2.5 352.412907742942
-1.8 2.6 368.606365099295
-1.8 2.7 384.745094714403
-1.8 2.8 400.937877882381
-1.8 2.9 417.247076490215
-1.8 3 433.679877403745
-1.8 3.1 450.18493195477
-1.8 3.2 466.655292761887
-1.8 3.3 482.937866967809
-1.8 3.4 498.848497461488
-1.8 3.5 514.190643846518
-1.8 3.6 528.774871688176
-1.8 3.7 542.436238831105
-1.8 3.8 555.047229440101
-1.8 3.9 566.524938734882
-1.7 -4 584.646900154989
-1.7 -3.9 207.913562276126
-1.7 -3.8 207.899283968252
-1.7 -3.7 207.88233165048
-1.7 -3.6 207.862195553585
-1.7 -3.5 207.838279259492
-1.7 -3.4 207.809891119062
-1.7 -3.3 207.776237934337
-1.7 -3.2 207.736422747409
-1.7 -3.1 207.689449174315
-1.7 -3 207.634235266984
-1.7 -2.9 207.569640156312
-1.7 -2.8 207.494506339496
-1.7 -2.7 207.407718836488
-1.7 -2.6 207.308278772185
-1.7 -2.5 207.195382390378
-1.7 -2.4 207.06848646452
-1.7 -2.3 206.927327727156
-1.7 -2.2 206.771848992065
-1.7 -2.1 206.601971858347
-1.7 -2 206.417150954258
-1.7 -1.9 206.215653796054
-1.7 -1.8 205.993537532521
-1.7 -1.7 205.743338194846
-1.7 -1.6 205.45254280187
-1.7 -1.5 205.101969453201
-1.7 -1.4 204.664225655586
-1.7 -1.3 204.102443865281
-1.7 -1.2 203.369500205299
-1.7 -1.1 202.407900280388
-1.7 -0.999999999999997 201.150457225518
-1.7 -0.899999999999997 199.52179191729
-1.7 -0.799999999999997 197.44057248577
-1.7 -0.699999999999998 194.822320769963
-1.7 -0.599999999999998 191.582603306013
-1.7 -0.499999999999998 187.640551260856
-1.7 -0.399999999999998 182.922956271688
-1.7 -0.299999999999998 177.369655722025
-1.7 -0.199999999999998 170.941441910969
-1.7 -0.0999999999999976 163.632053723429
-1.7 2.41473507855972E-15 155.485554256617
-1.7 0.100000000000002 146.619168660597
-1.7 0.200000000000002 137.249284415592
-1.7 0.300000000000002 127.715135779374
-1.7 0.400000000000002 118.491698160737
-1.7 0.500000000000002 110.18202274975
-1.7 0.600000000000002 103.481177335176
-1.7 0.700000000000002 99.1098666888285
-1.7 0.800000000000002 97.7248261377747
-1.7 0.900000000000002 99.8224445186697
-1.7 1 105.657813244322
-1.7 1.1 115.200179099786
-1.7 1.2 128.136981241775
-1.7 1.3 143.925267014957
-1.7 1.4 161.876623888956
-1.7 1.5 181.254656557048
-1.7 1.6 201.36434591574
-1.7 1.7 221.618779437744
-1.7 1.8 241.577220638741
-1.7 1.9 260.955935242365
-1.7 2 279.617783911347
-1.7 2.1 297.548163968154
-1.7 2.2 314.824285383649
-1.7 2.3 331.583082920322
-1.7 2.4 347.991141844599
-1.7 2.5 364.218352828907
-1.7 2.6 380.415869016298
-1.7 2.7 396.698413984938
-1.7 2.8 413.131027249406
-1.7 2.9 429.720694544601
-1.7 3 446.413622564508
-1.7 3.1 463.098839368223
-1.7 3.2 479.618194186602
-1.7 3.3 495.78183048434
-1.7 3.4 511.38715026851
-1.7 3.5 526.23855453928
-1.7 3.6 540.165103272275
-1.7 3.7 553.033751816701
-1.7 3.8 564.756829554787
-1.7 3.9 575.29361613828
-1.6 -4 591.628623533485
-1.6 -3.9 207.898967004535
-1.6 -3.8 207.881856592424
-1.6 -3.7 207.861458183655
-1.6 -3.6 207.837118198634
-1.6 -3.5 207.808059997952
-1.6 -3.4 207.773365272442
-1.6 -3.3 207.731954779304
-1.6 -3.2 207.682569468226
-1.6 -3.1 207.623753506646
-1.6 -3 207.553841182585
-1.6 -2.9 207.470949984829
-1.6 -2.8 207.372982052881
-1.6 -2.7 207.257635195854
-1.6 -2.6 207.122422145991
-1.6 -2.5 206.964691840048
-1.6 -2.4 206.78163856521
-1.6 -2.3 206.570273487502
-1.6 -2.2 206.327319217426
-1.6 -2.1 206.04897424482
-1.6 -2 205.730484931279
-1.6 -1.9 205.365464279553
-1.6 -1.8 204.944914222492
-1.6 -1.7 204.455943484059
-1.6 -1.6 203.880222492248
-1.6 -1.5 203.192272194365
-1.6 -1.4 202.3577363498
-1.6 -1.3 201.331832236692
-1.6 -1.2 200.058212076801
-1.6 -1.1 198.468495488368
-1.6 -0.999999999999997 196.482744924598
-1.6 -0.899999999999997 194.011140765558
-1.6 -0.799999999999997 190.957066323403
-1.6 -0.699999999999998 187.221747737272
-1.6 -0.599999999999998 182.710538387067
-1.6 -0.499999999999998 177.340925292983
-1.6 -0.399999999999998 171.052384528126
-1.6 -0.299999999999998 163.818305380595
-1.6 -0.199999999999998 155.660255985016
-1.6 -0.0999999999999976 146.664703177995
-1.6 2.41473507855972E-15 137.00166983777
-1.6 0.100000000000002 126.943468905483
-1.6 0.200000000000002 116.879577651726
-1.6 0.300000000000002 107.3213981943
-1.6 0.400000000000002 98.8892324195675
-1.6 0.500000000000002 92.274821809262
-1.6 0.600000000000002 88.177423722409
-1.6 0.700000000000002 87.2193347149365
-1.6 0.800000000000002 89.8556608903938
-1.6 0.900000000000002 96.2990530657109
-1.6 1 106.479477564653
-1.6 1.1 120.050923196828
-1.6 1.2 136.444007865209
-1.6 1.3 154.951001257469
-1.6 1.4 174.822704904655
-1.6 1.5 195.356886184351
-1.6 1.6 215.9640381723
-1.6 1.7 236.204630006056
-1.6 1.8 255.79936305914
-1.6 1.9 274.618424913091
-1.6 2 292.657191860738
-1.6 2.1 310.005161311331
-1.6 2.2 326.81322504117
-1.6 2.3 343.26258321877
-1.6 2.4 359.537113017968
-1.6 2.5 375.800016870681
-1.6 2.6 392.175099962712
-1.6 2.7 408.732980531116
-1.6 2.8 425.482727912402
-1.6 2.9 442.369570930172
-1.6 3 459.279154532918
-1.6 3.1 476.048227358977
-1.6 3.2 492.480721164775
-1.6 3.3 508.367216253096
-1.6 3.4 523.505109551611
-1.6 3.5 537.716667476503
-1.6 3.6 550.862631463245
-1.6 3.7 562.85001881068
-1.6 3.8 573.633934054966
-1.6 3.9 583.214243424868
-1.5 -4 597.811163885261
-1.5 -3.9 207.881557874224
-1.5 -3.8 207.861046906262
-1.5 -3.7 207.83651702148
-1.5 -3.6 207.807147739485
-1.5 -3.5 207.771955120655
-1.5 -3.4 207.729762680586
-1.5 -3.3 207.679168767515
-1.5 -3.2 207.618510669459
-1.5 -3.1 207.545826032933
-1.5 -3 207.458812520947
-1.5 -2.9 207.354786915814
-1.5 -2.8 207.230644884346
-1.5 -2.7 207.082822026458
-1.5 -2.6 206.907255099635
-1.5 -2.5 206.699338754351
-1.5 -2.4 206.453866971799
-1.5 -2.3 206.164939135562
-1.5 -2.2 205.825798505768
-1.5 -2.1 205.428557425387
-1.5 -2 204.963752463232
-1.5 -1.9 204.419669329325
-1.5 -1.8 203.781387767493
-1.5 -1.7 203.029524730776
-1.5 -1.6 202.138699374344
-1.5 -1.5 201.075799983921
-1.5 -1.4 199.798192935908
-1.5 -1.3 198.252072288838
-1.5 -1.2 196.371207018484
-1.5 -1.1 194.076405831901
-1.5 -0.999999999999997 191.276086647648
-1.5 -0.899999999999997 187.86839794587
-1.5 -0.799999999999997 183.745372554357
-1.5 -0.699999999999998 178.799582291665
-1.5 -0.599999999999998 172.933692549615
-1.5 -0.499999999999998 166.073178847758
-1.5 -0.399999999999998 158.182238080749
-1.5 -0.299999999999998 149.282554735627
-1.5 -0.199999999999998 139.473991256042
-1.5 -0.0999999999999976 128.955383269555
-1.5 2.41473507855972E-15 118.042403131403
-1.5 0.100000000000002 107.17802012408
-1.5 0.200000000000002 96.9298216082193
-1.5 0.300000000000002 87.9681327769584
-1.5 0.400000000000002 81.0205184952734
-1.5 0.500000000000002 76.8026817343175
-1.5 0.600000000000002 75.93276181826
-1.5 0.700000000000002 78.8436574670143
-1.5 0.800000000000002 85.7128968096175
-1.5 0.900000000000002 96.4285154731875
-1.5 1 110.601429458721
-1.5 1.1 127.622397169138
-1.5 1.2 146.749799649669
-1.5 1.3 167.207814579821
-1.5 1.4 188.275031770101
-1.5 1.5 209.349693463157
-1.5 1.6 229.98610271763
-1.5 1.7 249.904007007617
-1.5 1.8 268.97711663164
-1.5 1.9 287.208230745105
-1.5 2 304.697640694746
-1.5 2.1 321.609736153577
-1.5 2.2 338.140955329753
-1.5 2.3 354.490862376975
-1.5 2.4 370.837320127392
-1.5 2.5 387.316380374178
-1.5 2.6 404.007481494914
-1.5 2.7 420.924625569753
-1.5 2.8 438.014184448319
-1.5 2.9 455.159674385508
-1.5 3 472.193181867286
-1.5 3.1 488.912226881356
-1.5 3.2 505.099956172385
-1.5 3.3 520.545951809681
-1.5 3.4 535.064841234216
-1.5 3.5 548.510379248314
-1.5 3.6 560.783629129123
-1.5 3.7 571.83503143384
-1.5 3.8 581.66119337095
-1.5 3.9 590.297911355571
-1.4 -4 603.242693232158
-1.4 -3.9 207.860751198803
-1.4 -3.8 207.836143439127
-1.4 -3.7 207.806639746055
-1.4 -3.6 207.771222696219
-1.4 -3.5 207.728665273107
-1.4 -3.4 207.677490402602
-1.4 -3.3 207.615923992052
-1.4 -3.2 207.541840968235
-1.4 -3.1 207.452703963855
-1.4 -3 207.345494495119
-1.4 -2.9 207.216636645056
-1.4 -2.8 207.061913286242
-1.4 -2.7 206.876374497319
-1.4 -2.6 206.654236651245
-1.4 -2.5 206.388768110054
-1.4 -2.4 206.072152862584
-1.4 -2.3 205.69531617034
-1.4 -2.2 205.247686189605
-1.4 -2.1 204.716853535183
-1.4 -2 204.088079500813
-1.4 -1.9 203.343597866904
-1.4 -1.8 202.461661058999
-1.4 -1.7 201.415304522529
-1.4 -1.6 200.170845928972
-1.4 -1.5 198.686195442095
-1.4 -1.4 196.909122993455
-1.4 -1.3 194.7757023735
-1.4 -1.2 192.209230031492
-1.4 -1.1 189.120005340386
-1.4 -0.999999999999997 185.406464237271
-1.4 -0.899999999999997 180.958272338554
-1.4 -0.799999999999997 175.662079115604
-1.4 -0.699999999999998 169.410664699693
-1.4 -0.599999999999998 162.116115996728
-1.4 -0.499999999999998 153.727379986065
-1.4 -0.399999999999998 144.251979153693
-1.4 -0.299999999999998 133.780754302249
-1.4 -0.199999999999998 122.513178490417
-1.4 -0.0999999999999976 110.779136362827
-1.4 2.41473507855972E-15 99.0513837842853
-1.4 0.100000000000002 87.9417969942897
-1.4 0.200000000000002 78.1748685388633
-1.4 0.300000000000002 70.5346200165482
-1.4 0.400000000000002 65.7866019010663
-1.4 0.500000000000002 64.5842146964199
-1.4 0.600000000000002 67.3759732997529
-1.4 0.700000000000002 74.3342720508709
-1.4 0.800000000000002 85.3239047364804
-1.4 0.900000000000002 99.9196373044831
-1.4 1 117.469345441255
-1.4 1.1 137.187550837809
-1.4 1.2 158.258056567685
-1.4 1.3 179.925420485448
-1.4 1.4 201.561570098269
-1.4 1.5 222.702460403593
-1.4 1.6 243.057011721695
-1.4 1.7 262.494867223828
-1.4 1.8 281.020692994554
-1.4 1.9 298.741772836826
-1.4 2 315.833755138969
-1.4 2.1 332.50754965521
-1.4 2.2 348.97905105058
-1.4 2.3 365.442686680134
-1.4 2.4 382.049604423457
-1.4 2.5 398.891384649766
-1.4 2.6 415.990221038611
-1.4 2.7 433.296359597181
-1.4 2.8 450.693102645633
-1.4 2.9 468.008896573832
-1.4 3 485.035081181112
-1.4 3.1 501.547017594124
-1.4 3.2 517.325771615217
-1.4 3.3 532.177487463892
-1.4 3.4 545.948098812803
-1.4 3.5 558.531985784721
-1.4 3.6 569.874349270511
-1.4 3.7 579.968128904976
-1.4 3.8 588.846990854964
-1.4 3.9 596.576156889479
-1.3 -4 607.980834870189
-1.3 -3.9 207.835840800019
-1.3 -3.8 207.806286240648
-1.3 -3.7 207.770778103253
-1.3 -3.6 207.72806399965
-1.3 -3.5 207.676628170826
-1.3 -3.4 207.614638269931
-1.3 -3.3 207.539882501759
-1.3 -3.2 207.449695830751
-1.3 -3.1 207.340873957535
-1.3 -3 207.209573787271
-1.3 -2.9 207.051199141686
-1.3 -2.8 206.860270420889
-1.3 -2.7 206.630276638773
-1.3 -2.6 206.353507454497
-1.3 -2.5 206.020861071186
-1.3 -2.4 205.621620607079
-1.3 -2.3 205.143186181406
-1.3 -2.2 204.570742184193
-1.3 -2.1 203.886829483565
-1.3 -2 203.070782593489
-1.3 -1.9 202.097986048276
-1.3 -1.8 200.938908382286
-1.3 -1.7 199.557892949503
-1.3 -1.6 197.911727378841
-1.3 -1.5 195.948078372191
-1.3 -1.4 193.603961270822
-1.3 -1.3 190.804507577974
-1.3 -1.2 187.462394974731
-1.3 -1.1 183.478416394551
-1.3 -0.999999999999997 178.743792395502
-1.3 -0.899999999999997 173.144967718305
-1.3 -0.799999999999997 166.571744174784
-1.3 -0.699999999999998 158.92961642755
-1.3 -0.599999999999998 150.156988405801
-1.3 -0.499999999999998 140.247427281255
-1.3 -0.399999999999998 129.276132153135
-1.3 -0.299999999999998 117.428279178811
-1.3 -0.199999999999998 105.024918158494
-1.3 -0.0999999999999976 92.5399728346485
-1.3 2.41473507855972E-15 80.6003572126374
-1.3 0.100000000000002 69.9613392665517
-1.3 0.200000000000002 61.4521848318743
-1.3 0.300000000000002 55.8933196937234
-1.3 0.400000000000002 53.9948908367912
-1.3 0.500000000000002 56.2550502847054
-1.3 0.600000000000002 62.8807632963727
-1.3 0.700000000000002 73.7513731025182
-1.3 0.800000000000002 88.4352201695963
-1.3 0.900000000000002 106.255589233613
-1.3 1 126.389609387877
-1.3 1.1 147.97721557165
-1.3 1.2 170.218508127836
-1.3 1.3 192.444933656034
-1.3 1.4 214.158882480452
-1.3 1.5 235.044072969465
-1.3 1.6 254.953632462338
-1.3 1.7 273.884014148169
-1.3 1.8 291.94182509544
-1.3 1.9 309.30858166578
-1.3 2 326.20639428882
-1.3 2.1 342.866189759493
-1.3 2.2 359.499444396547
-1.3 2.3 376.274355367726
-1.3 2.4 393.297591113779
-1.3 2.5 410.602886071043
-1.3 2.6 428.147526470353
-1.3 2.7 445.817130593486
-1.3 2.8 463.438159991691
-1.3 2.9 480.796537316821
-1.3 3 497.659856135593
-1.3 3.1 513.800168514174
-1.3 3.2 529.014359759391
-1.3 3.3 543.139686210431
-1.3 3.4 556.063047227763
-1.3 3.5 567.723746594504
-1.3 3.6 578.110574136606
-1.3 3.7 587.254760871765
-1.3 3.8 595.220625936062
-1.3 3.9 602.095590759892
-1.2 -4 612.08815554869
-1.2 -3.9 207.805970570322
-1.2 -3.8 207.770433263422
-1.2 -3.7 207.727662782414
-1.2 -3.6 207.676124408633
-1.2 -3.5 207.613956478389
-1.2 -3.4 207.538902537349
-1.2 -3.3 207.448230404181
-1.2 -3.2 207.33863604219
-1.2 -3.1 207.20612995757
-1.2 -3 207.045903689638
-1.2 -2.9 206.852173825864
-1.2 -2.8 206.618000826987
-1.2 -2.7 206.335079696253
-1.2 -2.6 205.993498999123
-1.2 -2.5 205.581463649899
-1.2 -2.4 205.084974828483
-1.2 -2.3 204.487456922717
-1.2 -2.2 203.769316211394
-1.2 -2.1 202.907409373844
-1.2 -2 201.87439328667
-1.2 -1.9 200.637924293449
-1.2 -1.8 199.159680831744
-1.2 -1.7 197.394205326057
-1.2 -1.6 195.287606749391
-1.2 -1.5 192.77623817373
-1.2 -1.4 189.785562330261
-1.2 -1.3 186.229535839162
-1.2 -1.2 182.010971114271
-1.2 -1.1 177.023468448768
-1.2 -0.999999999999997 171.155644666841
-1.2 -0.899999999999997 164.298502676064
-1.2 -0.799999999999997 156.356840603613
-1.2 -0.699999999999998 147.265494251874
-1.2 -0.599999999999998 137.010798410162
-1.2 -0.499999999999998 125.656775580688
-1.2 -0.399999999999998 113.374089378173
-1.2 -0.299999999999998 100.467751771005
-1.2 -0.199999999999998 87.3972480480344
-1.2 -0.0999999999999976 74.7808506569516
-1.2 2.41473507855972E-15 63.3755549934446
-1.2 0.100000000000002 54.0265380061519
-1.2 0.200000000000002 47.5860378226427
-1.2 0.300000000000002 44.8104196913196
-1.2 0.400000000000002 46.2533750979224
-1.2 0.500000000000002 52.1787740034924
-1.2 0.600000000000002 62.5151632825243
-1.2 0.700000000000002 76.8644767557269
-1.2 0.800000000000002 94.563187830085
-1.2 0.900000000000002 114.780480979082
-1.2 1 136.630258595806
-1.2 1.1 159.274075093549
-1.2 1.2 181.998815326009
-1.2 1.3 204.262313005104
-1.2 1.4 225.708410492723
-1.2 1.5 246.158075230891
-1.2 1.6 265.584843853303
-1.2 1.7 284.08200679303
-1.2 1.8 301.826894698035
-1.2 1.9 319.045501669418
-1.2 2 335.979157418888
-1.2 2.1 352.854268620079
-1.2 2.2 369.856156143739
-1.2 2.3 387.108355176091
-1.2 2.4 404.658981622185
-1.2 2.5 422.475560937609
-1.2 2.6 440.448955496991
-1.2 2.7 458.405864186278
-1.2 2.8 476.128121033355
-1.2 2.9 493.376022885939
-1.2 3 509.912405384395
-1.2 3.1 525.524262969642
-1.2 3.2 540.039347648979
-1.2 3.3 553.336240130629
-1.2 3.4 565.347619643073
-1.2 3.5 576.057572612842
-1.2 3.6 585.494533725693
-1.2 3.7 593.721739167352
-1.2 3.8 600.826937576372
-1.2 3.9 606.912698601364
-1.1 -4 615.628501524519
-1.1 -3.9 207.770101328972
-1.1 -3.8 207.727319849103
-1.1 -3.7 207.675753878514
-1.1 -3.6 207.613527921005
-1.1 -3.5 207.53836368538
-1.1 -3.4 207.44749518412
-1.1 -3.3 207.337566878867
-1.1 -3.2 207.204511911407
-1.1 -3.1 207.043407112587
-1.1 -3 206.848301154702
-1.1 -2.9 206.612011920567
-1.1 -2.8 206.325888910411
-1.1 -2.7 205.979536276156
-1.1 -2.6 205.56049179754
-1.1 -2.5 205.053856664523
-1.1 -2.4 204.441870100992
-1.1 -2.3 203.703421417261
-1.1 -2.2 202.813489883244
-1.1 -2.1 201.742500166074
-1.1 -2 200.45557923866
-1.1 -1.9 198.91170258684
-1.1 -1.8 197.062728475663
-1.1 -1.7 194.852346519215
-1.1 -1.6 192.215019332993
-1.1 -1.5 189.075080206422
-1.1 -1.4 185.346266537675
-1.1 -1.3 180.932111313376
-1.1 -1.2 175.727768923597
-1.1 -1.1 169.623997906989
-1.1 -0.999999999999997 162.514137122919
-1.1 -0.899999999999997 154.304953773017
-1.1 -0.799999999999997 144.932139545553
-1.1 -0.699999999999998 134.380865671769
-1.1 -0.599999999999998 122.711020927149
-1.1 -0.499999999999998 110.085404306193
-1.1 -0.399999999999998 96.7972028594985
-1.1 -0.299999999999998 83.2908030686742
-1.1 -0.199999999999998 70.1680206889448
-1.1 -0.0999999999999976 58.1712755573956
-1.1 2.41473507855972E-15 48.1373339933273
-1.1 0.100000000000002 40.9207742572048
-1.1 0.200000000000002 37.2947771835677
-1.1 0.300000000000002 37.8458502085218
-1.1 0.400000000000002 42.8849298304542
-1.1 0.500000000000002 52.3965493076346
-1.1 0.600000000000002 66.0394299855407
-1.1 0.700000000000002 83.1985378312268
-1.1 0.800000000000002 103.075454199467
-1.1 0.900000000000002 124.795798970716
-1.1 1 147.511693633613
-1.1 1.1 170.482741969999
-1.1 1.2 193.127453953896
-1.1 1.3 215.045003107427
-1.1 1.4 236.012536285092
-1.1 1.5 255.96543549001
-1.1 1.6 274.967627473975
-1.1 1.7 293.177380688514
-1.1 1.8 310.812081186059
-1.1 1.9 328.113967285232
-1.1 2 345.318060757746
-1.1 2.1 362.623527182617
-1.1 2.2 380.170105906881
-1.1 2.3 398.021593232252
-1.1 2.4 416.158212471426
-1.1 2.5 434.478880713619
-1.1 2.6 452.813034922147
-1.1 2.7 470.940199640402
-1.1 2.8 488.614293523421
-1.1 2.9 505.58907506365
-1.1 3 521.641218217111
-1.1 3.1 536.588220821785
-1.1 3.2 550.299497057829
-1.1 3.3 562.700318740672
-1.1 3.4 573.769448378055
-1.1 3.5 583.532106745
-1.1 3.6 592.05023181075
-1.1 3.7 599.411860560072
-1.1 3.8 605.721052411899
-1.1 3.9 611.089251816145
-0.999999999999997 -4 618.664221363821
-0.999999999999997 -3.9 207.726970649928
-0.999999999999997 -3.8 207.67540970177
-0.999999999999997 -3.7 207.613181061395
-0.999999999999997 -3.6 207.537996765118
-0.999999999999997 -3.5 207.447075034605
-0.999999999999997 -3.4 207.33703527802
-0.999999999999997 -3.3 207.203771742338
-0.999999999999997 -3.2 207.042301935332
-0.999999999999997 -3.1 206.846585430771
-0.999999999999997 -3 206.609308184261
-0.999999999999997 -2.9 206.321627059115
-0.999999999999997 -2.8 205.972868940091
-0.999999999999997 -2.7 205.550178651631
-0.999999999999997 -2.6 205.038109947145
-0.999999999999997 -2.5 204.418154136881
-0.999999999999997 -2.4 203.668201503105
-0.999999999999997 -2.3 202.761931563005
-0.999999999999997 -2.2 201.668129659901
-0.999999999999997 -2.1 200.349929840819
-0.999999999999997 -2 198.763988876643
-0.999999999999997 -1.9 196.859606423259
-0.999999999999997 -1.8 194.577826675838
-0.999999999999997 -1.7 191.850594815382
-0.999999999999997 -1.6 188.600106013577
-0.999999999999997 -1.5 184.738583519296
-0.999999999999997 -1.4 180.16885748834
-0.999999999999997 -1.3 174.786279075794
-0.999999999999997 -1.2 168.48267192704
-0.999999999999997 -1.1 161.153157216864
-0.999999999999997 -0.999999999999997 152.70673419357
-0.999999999999997 -0.899999999999997 143.081380435986
-0.999999999999997 -0.799999999999997 132.264051090213
-0.999999999999997 -0.699999999999998 120.315174120556
-0.999999999999997 -0.599999999999998 107.395937696267
-0.999999999999997 -0.499999999999998 93.7948248334092
-0.999999999999997 -0.399999999999998 79.9476932043637
-0.999999999999997 -0.299999999999998 66.4438397398336
-0.999999999999997 -0.199999999999998 54.0099635950919
-0.999999999999997 -0.0999999999999976 43.4659484121325
-0.999999999999997 2.41473507855972E-15 35.6516789114224
-0.999999999999997 0.100000000000002 31.332173369761
-0.999999999999997 0.200000000000002 31.0968638032149
-0.999999999999997 0.300000000000002 35.2742966866457
-0.999999999999997 0.400000000000002 43.8826248593621
-0.999999999999997 0.500000000000002 56.6282230081409
-0.999999999999997 0.600000000000002 72.9522225999604
-0.999999999999997 0.700000000000002 92.1126613773304
-0.999999999999997 0.800000000000002 113.282825158962
-0.999999999999997 0.900000000000002 135.64604046766
-0.999999999999997 1 158.472290879759
-0.999999999999997 1.1 181.169442659542
-0.999999999999997 1.2 203.308598883279
-0.999999999999997 1.3 224.627506886352
-0.999999999999997 1.4 245.017784202265
-0.999999999999997 1.5 264.501628720328
-0.999999999999997 1.6 283.202527370237
-0.999999999999997 1.7 301.313061904755
-0.999999999999997 1.8 319.061787041459
-0.999999999999997 1.9 336.680627015869
-0.999999999999997 2 354.374336132306
-0.999999999999997 2.1 372.294060777198
-0.999999999999997 2.2 390.517482794343
-0.999999999999997 2.3 409.037949168207
-0.999999999999997 2.4 427.764145106125
-0.999999999999997 2.5 446.530357586937
-0.999999999999997 2.6 465.115632778576
-0.999999999999997 2.7 483.268677930874
-0.999999999999997 2.8 500.734581166323
-0.999999999999997 2.9 517.279457286601
-0.999999999999997 3 532.709887625054
-0.999999999999997 3.1 546.8852726289
-0.999999999999997 3.2 559.722642393282
-0.999999999999997 3.3 571.194746181123
-0.999999999999997 3.4 581.32311278642
-0.999999999999997 3.5 590.168128878318
-0.999999999999997 3.6 597.818070525212
-0.999999999999997 3.7 604.37860183844
-0.999999999999997 3.8 609.963712011056
-0.999999999999997 3.9 614.688549997327
-0.899999999999997 -4 621.254210078981
-0.899999999999997 -3.9 207.675044085545
-0.899999999999997 -3.8 207.612835431432
-0.899999999999997 -3.7 207.537671122793
-0.899999999999997 -3.6 207.446763146447
-0.899999999999997 -3.5 207.336720082577
-0.899999999999997 -3.4 207.203418274726
-0.899999999999997 -3.3 207.041846602898
-0.899999999999997 -3.2 206.845919990401
-0.899999999999997 -3.1 206.608256128045
-0.899999999999997 -3 206.319909285618
-0.899999999999997 -2.9 205.970054570098
-0.899999999999997 -2.8 205.545615683524
-0.899999999999997 -2.7 205.030829270162
-0.899999999999997 -2.6 204.406739507246
-0.899999999999997 -2.5 203.650617925937
-0.899999999999997 -2.4 202.73530586028
-0.899999999999997 -2.3 201.628480832968
-0.899999999999997 -2.2 200.29185421819
-0.899999999999997 -2.1 198.68031668011
-0.899999999999997 -2 196.74106190006
-0.899999999999997 -1.9 194.41274093505
-0.899999999999997 -1.8 191.624733950931
-0.899999999999997 -1.7 188.296679862356
-0.899999999999997 -1.6 184.338485702011
-0.899999999999997 -1.5 179.651153001422
-0.899999999999997 -1.4 174.12890793769
-0.899999999999997 -1.3 167.663290931046
-0.899999999999997 -1.2 160.150013047287
-0.899999999999997 -1.1 151.49945687307
-0.899999999999997 -0.999999999999997 141.651596245427
-0.899999999999997 -0.899999999999997 130.595716494739
-0.899999999999997 -0.799999999999997 118.394509256096
-0.899999999999997 -0.699999999999998 105.210794827647
-0.899999999999997 -0.599999999999998 91.3332976075957
-0.899999999999997 -0.499999999999998 77.1958068438005
-0.899999999999997 -0.399999999999998 63.3823046336568
-0.899999999999997 -0.299999999999998 50.6102400523414
-0.899999999999997 -0.199999999999998 39.686229510243
-0.899999999999997 -0.0999999999999976 31.433773658676
-0.899999999999997 2.41473507855972E-15 26.6005443980278
-0.899999999999997 0.100000000000002 25.7611008165111
-0.899999999999997 0.200000000000002 29.2359588234383
-0.899999999999997 0.300000000000002 37.0465952547935
-0.899999999999997 0.400000000000002 48.9175505617987
-0.899999999999997 0.500000000000002 64.3241297076378
-0.899999999999997 0.600000000000002 82.572402808474
-0.899999999999997 0.700000000000002 102.891877875174
-0.899999999999997 0.800000000000002 124.521991533957
-0.899999999999997 0.900000000000002 146.779663287182
-0.899999999999997 1 169.102986497578
-0.899999999999997 1.1 191.072467000711
-0.899999999999997 1.2 212.414570705106
-0.899999999999997 1.3 232.992932076944
-0.899999999999997 1.4 252.791533731786
-0.899999999999997 1.5 271.89265611606
-0.899999999999997 1.6 290.451168683521
-0.899999999999997 1.7 308.666111898425
-0.899999999999997 1.8 326.750548945858
-0.899999999999997 1.9 344.901230527027
-0.899999999999997 2 363.270449505665
-0.899999999999997 2.1 381.943150540569
-0.899999999999997 2.2 400.922444008607
-0.899999999999997 2.3 420.125862024639
-0.899999999999997 2.4 439.393056835946
-0.899999999999997 2.5 458.503620311942
-0.899999999999997 2.6 477.201908135583
-0.899999999999997 2.7 495.224683949671
-0.899999999999997 2.8 512.3272741882
-0.899999999999997 2.9 528.304669987835
-0.899999999999997 3 543.005353258892
-0.899999999999997 3.1 556.337186685459
-0.899999999999997 3.2 568.266117667609
-0.899999999999997 3.3 578.809421450353
-0.899999999999997 3.4 588.025627372224
-0.899999999999997 3.5 596.003184042784
-0.899999999999997 3.6 602.849491372344
-0.899999999999997 3.7 608.681360118904
-0.899999999999997 3.8 613.617416821607
-0.899999999999997 3.9 617.772548829482
-0.799999999999997 -4 623.452650442517
-0.799999999999997 -3.9 207.612455897526
-0.799999999999997 -3.8 207.537326379995
-0.799999999999997 -3.7 207.446460135746
-0.799999999999997 -3.6 207.33646241541
-0.799999999999997 -3.5 207.203202886716
-0.799999999999997 -3.4 207.041658461183
-0.799999999999997 -3.3 206.845723906842
-0.799999999999997 -3.2 206.607984324934
-0.799999999999997 -3.1 206.319442811254
-0.799999999999997 -3 205.969195939274
-0.799999999999997 -2.9 205.544049205187
-0.799999999999997 -2.8 205.028064435186
-0.799999999999997 -2.7 204.402031621122
-0.799999999999997 -2.6 203.642859073909
-0.799999999999997 -2.5 202.722878650213
-0.799999999999997 -2.4 201.609067775416
-0.799999999999997 -2.3 200.26219794014
-0.799999999999997 -2.2 198.635931484192
-0.799999999999997 -2.1 196.675906441457
-0.799999999999997 -2 194.318875299904
-0.799999999999997 -1.9 191.492000973383
-0.799999999999997 -1.8 188.11246652533
-0.799999999999997 -1.7 184.087629756186
-0.799999999999997 -1.6 179.316055110031
-0.799999999999997 -1.5 173.689885533217
-0.799999999999997 -1.4 167.099168139709
-0.799999999999997 -1.3 159.438892425432
-0.799999999999997 -1.2 150.619580396562
-0.799999999999997 -1.1 140.582188523995
-0.799999999999997 -0.999999999999997 129.317711612057
-0.799999999999997 -0.899999999999997 116.891075992156
-0.799999999999997 -0.799999999999997 103.467569454351
-0.799999999999997 -0.699999999999998 89.3381983662959
-0.799999999999997 -0.599999999999998 74.9382555168339
-0.799999999999997 -0.499999999999998 60.8516580793326
-0.799999999999997 -0.399999999999998 47.7932854658324
-0.799999999999997 -0.299999999999998 36.5637562424034
-0.799999999999997 -0.199999999999998 27.9765078131821
-0.799999999999997 -0.0999999999999976 22.7650873751255
-0.799999999999997 2.41473507855972E-15 21.4868735584882
-0.799999999999997 0.100000000000002 24.4444049542274
-0.799999999999997 0.200000000000002 31.6439015492188
-0.799999999999997 0.300000000000002 42.8017757464658
-0.799999999999997 0.400000000000002 57.3968289815282
-0.799999999999997 0.500000000000002 74.7536628850319
-0.799999999999997 0.600000000000002 94.1363902589136
-0.799999999999997 0.700000000000002 114.832823347579
-0.799999999999997 0.800000000000002 136.216220150686
-0.799999999999997 0.900000000000002 157.780600171431
-0.799999999999997 1 179.152963638761
-0.799999999999997 1.1 200.089497297705
-0.799999999999997 1.2 220.463010380609
-0.799999999999997 1.3 240.246700328803
-0.799999999999997 1.4 259.496537273262
-0.799999999999997 1.5 278.33234807908
-0.799999999999997 1.6 296.916684712863
-0.799999999999997 1.7 315.430802514425
-0.799999999999997 1.8 334.048213410875
-0.799999999999997 1.9 352.907800701601
-0.799999999999997 2 372.08979726542
-0.799999999999997 2.1 391.598483744854
-0.799999999999997 2.2 411.354908415466
-0.799999999999997 2.3 431.201298852939
-0.799999999999997 2.4 450.916579627146
-0.799999999999997 2.5 470.240224899677
-0.799999999999997 2.6 488.900198167076
-0.799999999999997 2.7 506.640309235882
-0.799999999999997 2.8 523.242940367462
-0.799999999999997 2.9 538.54447058476
-0.799999999999997 3 552.442425288302
-0.799999999999997 3.1 564.894953858924
-0.799999999999997 3.2 575.91435644132
-0.799999999999997 3.3 585.556894667894
-0.799999999999997 3.4 593.911075267048
-0.799999999999997 3.5 601.086167716228
-0.799999999999997 3.6 607.202124241276
-0.799999999999997 3.7 612.381492257079
-0.799999999999997 3.8 616.743452376362
-0.799999999999997 3.9 620.399814837293
-0.699999999999998 -4 625.308306052027
-0.699999999999998 -3.9 207.536937027777
-0.699999999999998 -3.8 207.44612099403
-0.699999999999998 -3.7 207.336186935692
-0.699999999999998 -3.6 207.203003712964
-0.699999999999998 -3.5 207.041545116507
-0.699999999999998 -3.4 206.845698969355
-0.699999999999998 -3.3 206.608037323424
-0.699999999999998 -3.2 206.319540730472
-0.699999999999998 -3.1 205.969268756584
-0.699999999999998 -3 205.543968253544
-0.699999999999998 -2.9 205.027610575785
-0.699999999999998 -2.8 204.400849205965
-0.699999999999998 -2.7 203.640390521635
-0.699999999999998 -2.6 202.718273269632
-0.699999999999998 -2.5 201.601057511984
-0.699999999999998 -2.4 200.248932458757
-0.699999999999998 -2.3 198.614766164856
-0.699999999999998 -2.2 196.643140431867
-0.699999999999998 -2.1 194.269443817759
-0.699999999999998 -2 191.419137349149
-0.699999999999998 -1.9 188.007364762946
-0.699999999999998 -1.8 183.939155450255
-0.699999999999998 -1.7 179.110566542426
-0.699999999999998 -1.6 173.411230584433
-0.699999999999998 -1.5 166.728909284299
-0.699999999999998 -1.4 158.956778876893
-0.699999999999998 -1.3 150.004239332824
-0.699999999999998 -1.2 139.811961126168
-0.699999999999998 -1.1 128.371531741971
-0.699999999999998 -0.999999999999997 115.749288077931
-0.699999999999998 -0.899999999999997 102.112598460258
-0.699999999999998 -0.799999999999997 87.754995513899
-0.699999999999998 -0.699999999999998 73.1144275478369
-0.699999999999998 -0.599999999999998 58.7771437541662
-0.699999999999998 -0.499999999999998 45.4593949226324
-0.699999999999998 -0.399999999999998 33.9613779824421
-0.699999999999998 -0.299999999999998 25.0933562164601
-0.699999999999998 -0.199999999999998 19.5820381154418
-0.699999999999998 -0.0999999999999976 17.9737161322123
-0.699999999999998 2.41473507855972E-15 20.5556954652733
-0.699999999999998 0.100000000000002 27.3159474547299
-0.699999999999998 0.200000000000002 37.952012615857
-0.699999999999998 0.300000000000002 51.9268244377486
-0.699999999999998 0.400000000000002 68.5565872720898
-0.699999999999998 0.500000000000002 87.1089737818633
-0.699999999999998 0.600000000000002 106.890648074374
-0.699999999999998 0.700000000000002 127.309926189406
-0.699999999999998 0.800000000000002 147.90964962686
-0.699999999999998 0.900000000000002 168.373488505813
-0.699999999999998 1 188.51375523802
-0.699999999999998 1.1 208.249952766207
-0.699999999999998 1.2 227.585504687392
-0.699999999999998 1.3 246.586810757793
-0.699999999999998 1.4 265.365381870125
-0.699999999999998 1.5 284.061449185302
-0.699999999999998 1.6 302.826685103691
-0.699999999999998 1.7 321.804492247671
-0.699999999999998 1.8 341.108179513847
-0.699999999999998 1.9 360.799420786888
-0.699999999999998 2 380.870817932187
-0.699999999999998 2.1 401.236551254451
-0.699999999999998 2.2 421.733859410735
-0.699999999999998 2.3 442.135842125205
-0.699999999999998 2.4 462.173581694548
-0.699999999999998 2.5 481.563630809088
-0.699999999999998 2.6 500.036047610983
-0.699999999999998 2.7 517.358499972765
-0.699999999999998 2.8 533.353263237244
-0.699999999999998 2.9 547.905723774915
-0.699999999999998 3 560.964749326003
-0.699999999999998 3.1 572.536583359903
-0.699999999999998 3.2 582.674566361702
-0.699999999999998 3.3 591.467010185476
-0.699999999999998 3.4 599.025137082317
-0.699999999999998 3.5 605.472378976561
-0.699999999999998 3.6 610.935715310375
-0.699999999999998 3.7 615.539231283597
-0.699999999999998 3.8 619.399746469531
-0.699999999999998 3.9 622.62418603103
-0.599999999999998 -4 626.864223966584
-0.599999999999998 -3.9 207.445727588149
-0.599999999999998 -3.8 207.335860475
-0.599999999999998 -3.7 207.202764010885
-0.599999999999998 -3.6 207.04141343605
-0.599999999999998 -3.5 206.845696579191
-0.599999999999998 -3.4 206.608182898747
-0.599999999999998 -3.3 206.319845974029
-0.599999999999998 -3.2 205.969731328165
-0.599999999999998 -3.1 205.544560696694
-0.599999999999998 -3 205.028263386684
-0.599999999999998 -2.9 204.401425470214
-0.599999999999998 -2.8 203.640648629686
-0.599999999999998 -2.7 202.717813119742
-0.599999999999998 -2.6 201.599244391073
-0.599999999999998 -2.5 200.244791635904
-0.599999999999998 -2.4 198.606840491592
-0.599999999999998 -2.3 196.62930350965
-0.599999999999998 -2.2 194.246663433493
-0.599999999999998 -2.1 191.383188976561
-0.599999999999998 -2 187.952504020403
-0.599999999999998 -1.9 183.857771934003
-0.599999999999998 -1.8 178.992858395367
-0.599999999999998 -1.7 173.244956100498
-0.599999999999998 -1.6 166.499282633457
-0.599999999999998 -1.5 158.64657395324
-0.599999999999998 -1.4 149.594142870724
-0.599999999999998 -1.3 139.281174271784
-0.599999999999998 -1.2 127.698568685937
-0.599999999999998 -1.1 114.912879024042
-0.599999999999998 -0.999999999999997 101.09258787944
-0.599999999999998 -0.899999999999997 86.5331370728758
-0.599999999999998 -0.799999999999997 71.6749975436153
-0.599999999999998 -0.699999999999998 57.1072994478461
-0.599999999999998 -0.599999999999998 43.5491766741286
-0.599999999999998 -0.499999999999998 31.8032026513759
-0.599999999999998 -0.399999999999998 22.6808059700985
-0.599999999999998 -0.299999999999998 16.9077560197095
-0.599999999999998 -0.199999999999998 15.0263139045344
-0.599999999999998 -0.0999999999999976 17.3157769700547
-0.599999999999998 2.41473507855972E-15 23.7516439823236
-0.599999999999998 0.100000000000002 34.014769338727
-0.599999999999998 0.200000000000002 47.5484940620143
-0.599999999999998 0.300000000000002 63.6490725540575
-0.599999999999998 0.400000000000002 81.5675997533462
-0.599999999999998 0.500000000000002 100.602034047706
-0.599999999999998 0.600000000000002 120.16431514013
-0.599999999999998 0.700000000000002 139.816501888412
-0.599999999999998 0.800000000000002 159.277903115579
-0.599999999999998 0.900000000000002 178.410377994207
-0.599999999999998 1 197.190956577526
-0.599999999999998 1.1 215.680278186268
-0.599999999999998 1.2 233.993006340652
-0.599999999999998 1.3 252.273296924821
-0.599999999999998 1.4 270.675452278748
-0.599999999999998 1.5 289.347873185578
-0.599999999999998 1.6 308.417855452086
-0.599999999999998 1.7 327.975724059645
-0.599999999999998 1.8 348.058736390227
-0.599999999999998 1.9 368.637184491592
-0.599999999999998 2 389.60622860025
-0.599999999999998 2.1 410.786645522895
-0.599999999999998 2.2 431.935958534776
-0.599999999999998 2.3 452.768976877526
-0.599999999999998 2.4 472.984501657975
-0.599999999999998 2.5 492.293600093516
-0.599999999999998 2.6 510.444761750231
-0.599999999999998 2.7 527.24232013284
-0.599999999999998 2.8 542.556295885203
-0.599999999999998 2.9 556.323701934407
-0.599999999999998 3 568.542836545756
-0.599999999999998 3.1 579.262900217108
-0.599999999999998 3.2 588.571395122003
-0.599999999999998 3.3 596.581383184227
-0.599999999999998 3.4 603.420045882526
-0.599999999999998 3.5 609.219330426477
-0.599999999999998 3.6 614.108925062748
-0.599999999999998 3.7 618.21143664976
-0.599999999999998 3.8 621.639440037181
-0.599999999999998 3.9 624.493993644536
-0.499999999999998 -4 628.157721519786
-0.499999999999998 -3.9 207.33547061025
-0.499999999999998 -3.8 207.202459809958
-0.499999999999998 -3.7 207.041221166555
-0.499999999999998 -3.6 206.84564604584
-0.499999999999998 -3.5 206.608306744865
-0.499999999999998 -3.4 206.320178119321
-0.499999999999998 -3.3 205.970304034908
-0.499999999999998 -3.2 205.545399513242
-0.499999999999998 -3.1 205.029378874315
-0.499999999999998 -3 204.402800145664
-0.499999999999998 -2.9 203.642216917686
-0.499999999999998 -2.8 202.719431278035
-0.499999999999998 -2.7 201.600646333877
-0.499999999999998 -2.6 200.245525372597
-0.499999999999998 -2.5 198.606178631284
-0.499999999999998 -2.4 196.626120216382
-0.499999999999998 -2.3 194.239269820209
-0.499999999999998 -2.2 191.369119942517
-0.499999999999998 -2.1 187.928252989898
-0.499999999999998 -2 183.818477009804
-0.499999999999998 -1.9 178.931955010629
-0.499999999999998 -1.8 173.153827264229
-0.499999999999998 -1.7 166.366956260772
-0.499999999999998 -1.6 158.459532682745
-0.499999999999998 -1.5 149.336317697029
-0.499999999999998 -1.4 138.934181330408
-0.499999999999998 -1.3 127.242214701275
-0.499999999999998 -1.2 114.325910289334
-0.499999999999998 -1.1 100.353605587455
-0.499999999999998 -0.999999999999997 85.6215682777659
-0.499999999999998 -0.899999999999997 70.5720080515417
-0.499999999999998 -0.799999999999997 55.7965557110957
-0.499999999999998 -0.699999999999998 42.0173837416647
-0.499999999999998 -0.599999999999998 30.0403382739908
-0.499999999999998 -0.499999999999998 20.6799303120619
-0.499999999999998 -0.399999999999998 14.6642239040306
-0.499999999999998 -0.299999999999998 12.536192471973
-0.499999999999998 -0.199999999999998 14.5733142920117
-0.499999999999998 -0.0999999999999976 20.7457636399966
-0.499999999999998 2.41473507855972E-15 30.7247801164542
-0.499999999999998 0.100000000000002 43.9394811623891
-0.499999999999998 0.200000000000002 59.6677379653177
-0.499999999999998 0.300000000000002 77.1395858582186
-0.499999999999998 0.400000000000002 95.6319150975449
-0.499999999999998 0.500000000000002 114.539373870973
-0.499999999999998 0.600000000000002 133.415016551056
-0.499999999999998 0.700000000000002 151.981886319518
-0.499999999999998 0.800000000000002 170.121581885989
-0.499999999999998 0.900000000000002 187.847731128571
-0.499999999999998 1 205.271980646013
-0.499999999999998 1.1 222.568606883072
-0.499999999999998 1.2 239.941887927554
-0.499999999999998 1.3 257.598352928159
-0.499999999999998 1.4 275.724235198785
-0.499999999999998 1.5 294.467230086694
-0.499999999999998 1.6 313.921331765833
-0.499999999999998 1.7 334.114184706227
-0.499999999999998 1.8 354.997683644459
-0.499999999999998 1.9 376.443762625621
-0.499999999999998 2 398.247676217798
-0.499999999999998 2.1 420.140229616616
-0.499999999999998 2.2 441.808584384772
-0.499999999999998 2.3 462.923146033187
-0.499999999999998 2.4 483.166444632962
-0.499999999999998 2.5 502.259426636323
-0.499999999999998 2.6 519.98130842096
-0.499999999999998 2.7 536.180771987351
-0.499999999999998 2.8 550.778217715498
-0.499999999999998 2.9 563.760435780192
-0.499999999999998 3 575.17004209203
-0.499999999999998 3.1 585.092269638587
-0.499999999999998 3.2 593.641373216016
-0.499999999999998 3.3 600.948262571342
-0.499999999999998 3.4 607.150277091214
-0.499999999999998 3.5 612.383420940042
-0.499999999999998 3.6 616.776962399135
-0.499999999999998 3.7 620.450065443017
-0.499999999999998 3.8 623.510027981215
-0.499999999999998 3.9 626.051701802128
-0.399999999999998 -4 629.220554278151
-0.399999999999998 -3.9 207.20208316604
-0.399999999999998 -3.8 207.040951558356
-0.399999999999998 -3.7 206.845516501983
-0.399999999999998 -3.6 206.60835582704
-0.399999999999998 -3.5 206.320449876219
-0.399999999999998 -3.4 205.97084733208
-0.399999999999998 -3.3 205.546266324228
-0.399999999999998 -3.2 205.030620910036
-0.399999999999998 -3.1 204.404462901911
-0.399999999999998 -3 203.644329804338
-0.399999999999998 -2.9 202.721991923967
-0.399999999999998 -2.8 201.603596403611
-0.399999999999998 -2.7 200.248714260188
-0.399999999999998 -2.6 198.609310218776
-0.399999999999998 -2.5 196.62867656649
-0.399999999999998 -2.4 194.240404398167
-0.399999999999998 -2.3 191.367512096132
-0.399999999999998 -2.2 187.921915585078
-0.399999999999998 -2.1 183.804511253945
-0.399999999999998 -2 178.906251789724
-0.399999999999998 -1.9 173.110723966166
-0.399999999999998 -1.8 166.298872673531
-0.399999999999998 -1.7 158.356628236832
-0.399999999999998 -1.6 149.186231557875
-0.399999999999998 -1.5 138.721929974413
-0.399999999999998 -1.4 126.950319860406
-0.399999999999998 -1.3 113.934806192527
-0.399999999999998 -1.2 99.8423278436485
-0.399999999999998 -1.1 84.9686683425779
-0.399999999999998 -0.999999999999997 69.7565873629297
-0.399999999999998 -0.899999999999997 54.7992919531678
-0.399999999999998 -0.799999999999997 40.8214329941936
-0.399999999999998 -0.699999999999998 28.632023766477
-0.399999999999998 -0.599999999999998 19.049141689196
-0.399999999999998 -0.499999999999998 12.8044312732719
-0.399999999999998 -0.399999999999998 10.4439360511758
-0.399999999999998 -0.299999999999998 12.2469970512197
-0.399999999999998 -0.199999999999998 18.1835878593114
-0.399999999999998 -0.0999999999999976 27.9217482747125
-0.399999999999998 2.41473507855972E-15 40.8835245730234
-0.399999999999998 0.100000000000002 56.3352306564181
-0.399999999999998 0.200000000000002 73.4907337992733
-0.399999999999998 0.300000000000002 91.6067651050399
-0.399999999999998 0.400000000000002 110.055425599593
-0.399999999999998 0.500000000000002 128.367573732619
-0.399999999999998 0.600000000000002 146.248242654551
-0.399999999999998 0.700000000000002 163.569780463417
-0.399999999999998 0.800000000000002 180.349879728097
-0.399999999999998 0.900000000000002 196.720986848934
-0.399999999999998 1 212.895957587455
-0.399999999999998 1.1 229.133182360741
-0.399999999999998 1.2 245.70320379132
-0.399999999999998 1.3 262.858147314146
-0.399999999999998 1.4 280.804941268109
-0.399999999999998 1.5 299.683174774509
-0.399999999999998 1.6 319.548474550522
-0.399999999999998 1.7 340.362441379719
-0.399999999999998 1.8 361.990335852338
-0.399999999999998 1.9 384.207569329068
-0.399999999999998 2 406.715368706602
-0.399999999999998 2.1 429.164688873088
-0.399999999999998 2.2 451.185835344003
-0.399999999999998 2.3 472.419888345572
-0.399999999999998 2.4 492.547455945992
-0.399999999999998 2.5 511.310816125148
-0.399999999999998 2.6 528.52699201638
-0.399999999999998 2.7 544.091237558434
-0.399999999999998 2.8 557.972178172651
-0.399999999999998 2.9 570.200997189095
-0.399999999999998 3 580.857430742429
-0.399999999999998 3.1 590.055057070007
-0.399999999999998 3.2 597.927712448975
-0.399999999999998 3.3 604.618112287371
-0.399999999999998 3.4 610.269096887787
-0.399999999999998 3.5 615.017448377552
-0.399999999999998 3.6 618.989947755303
-0.399999999999998 3.7 622.301222664598
-0.399999999999998 3.8 625.052926226363
-0.399999999999998 3.9 627.333837949589
-0.299999999999998 -4 630.079185013131
-0.299999999999998 -3.9 207.040600240562
-0.299999999999998 -3.8 206.845296942279
-0.299999999999998 -3.7 206.608308320513
-0.299999999999998 -3.6 206.320622220406
-0.299999999999998 -3.5 205.971295364431
-0.299999999999998 -3.4 205.547054032664
-0.299999999999998 -3.3 205.031819774803
-0.299999999999998 -3.2 204.406149945553
-0.299999999999998 -3.1 203.646583564783
-0.299999999999998 -3 202.724885194756
-0.299999999999998 -2.9 201.607184070418
-0.299999999999998 -2.8 200.253013866604
-0.299999999999998 -2.7 198.6142719838
-0.299999999999998 -2.6 196.634138438345
-0.299999999999998 -2.5 194.246026398439
-0.299999999999998 -2.4 191.372682812132
-0.299999999999998 -2.3 187.925622491653
-0.299999999999998 -2.2 183.805166111635
-0.299999999999998 -2.1 178.90146350762
-0.299999999999998 -2 173.097015189841
-0.299999999999998 -1.9 166.271344289016
-0.299999999999998 -1.8 158.308589033888
-0.299999999999998 -1.7 149.108828439522
-0.299999999999998 -1.6 138.603835064668
-0.299999999999998 -1.5 126.777549138309
-0.299999999999998 -1.4 113.690751231472
-0.299999999999998 -1.3 99.5080685072339
-0.299999999999998 -1.2 84.523594875795
-0.299999999999998 -1.1 69.1793003994216
-0.299999999999998 -0.999999999999997 54.0686859890957
-0.299999999999998 -0.899999999999997 39.9178263554169
-0.299999999999998 -0.799999999999997 27.5381916255701
-0.299999999999998 -0.699999999999998 17.7511332755156
-0.299999999999998 -0.599999999999998 11.2920831572919
-0.299999999999998 -0.499999999999998 8.71100297258066
-0.299999999999998 -0.399999999999998 10.2908024804006
-0.299999999999998 -0.299999999999998 16.0040675747487
-0.299999999999998 -0.199999999999998 25.519753723816
-0.299999999999998 -0.0999999999999976 38.2582910627522
-0.299999999999998 2.41473507855972E-15 53.4810011510804
-0.299999999999998 0.100000000000002 70.3926541371742
-0.299999999999998 0.200000000000002 88.2363270120337
-0.299999999999998 0.300000000000002 106.365933977913
-0.299999999999998 0.400000000000002 124.290352145739
-0.299999999999998 0.500000000000002 141.690535713239
-0.299999999999998 0.600000000000002 158.415490668075
-0.299999999999998 0.700000000000002 174.464272426465
-0.299999999999998 0.800000000000002 189.960172561551
-0.299999999999998 0.900000000000002 205.121213388893
-0.299999999999998 1 220.229026022273
-0.299999999999998 1.1 235.596821596412
-0.299999999999998 1.2 251.536750556982
-0.299999999999998 1.3 268.327400931663
-0.299999999999998 1.4 286.1831511241
-0.299999999999998 1.5 305.228049095288
-0.299999999999998 1.6 325.477352506884
-0.299999999999998 1.7 346.829556512142
-0.299999999999998 1.8 369.070658889732
-0.299999999999998 1.9 391.89078352885
-0.299999999999998 2 414.911421191138
-0.299999999999998 2.1 437.71980407035
-0.299999999999998 2.2 459.905684983789
-0.299999999999998 2.3 481.095399021193
-0.299999999999998 2.4 500.978742922429
-0.299999999999998 2.5 519.325801576952
-0.299999999999998 2.6 535.992935631285
-0.299999999999998 2.7 550.919112772191
-0.299999999999998 2.8 564.115115218881
-0.299999999999998 2.9 575.648674992038
-0.299999999999998 3 585.628370012511
-0.299999999999998 3.1 594.188436244138
-0.299999999999998 3.2 601.475821683889
-0.299999999999998 3.3 607.640056892945
-0.299999999999998 3.4 612.825960968971
-0.299999999999998 3.5 617.168863411146
-0.299999999999998 3.6 620.791866798334
-0.299999999999998 3.7 623.804647305792
-0.299999999999998 3.8 626.303336628996
-0.299999999999998 3.9 628.371109085774
-0.199999999999998 -4 630.755094263637
-0.199999999999998 -3.9 206.844985908406
-0.199999999999998 -3.8 206.608157866224
-0.199999999999998 -3.7 206.320680603272
-0.199999999999998 -3.6 205.971620342226
-0.199999999999998 -3.5 205.547713933923
-0.199999999999998 -3.4 205.03289430385
-0.199999999999998 -3.3 204.407730435124
-0.199999999999998 -3.2 203.648772227465
-0.199999999999998 -3.1 202.727792688399
-0.199999999999998 -3 201.610924354774
-0.199999999999998 -2.9 200.257694854546
-0.199999999999998 -2.8 198.619979842007
-0.199999999999998 -2.7 196.640912531672
-0.199999999999998 -2.6 194.253820775613
-0.199999999999998 -2.5 191.381308811363
-0.199999999999998 -2.4 187.934665593516
-0.199999999999998 -2.3 183.81386881062
-0.199999999999998 -2.2 178.908565156002
-0.199999999999998 -2.1 173.100540229705
-0.199999999999998 -2 166.268333114441
-0.199999999999998 -1.9 158.294772265935
-0.199999999999998 -1.8 149.078256946471
